{
  "name": "Mean-Reversion",
  "description": "Buys dips and sells rips — bets on price returning to the mean",
  "color": "#26a17b",
  "icon": "Repeat",
  "inputWindow": 10,
  "layers": [
    {
      "weights": [
        [
          -0.034999999999999996,
          -0.031999999999999994,
          -0.028999999999999998,
          -0.026000000000000002,
          -0.023,
          -0.02,
          -0.016999999999999998,
          -0.013999999999999999,
          0.034999999999999996,
          0.031999999999999994,
          0.028999999999999998,
          0.026000000000000002,
          0.023,
          0.02,
          0.016999999999999998,
          0.013999999999999999
        ],
        [
          -0.06999999999999999,
          -0.06399999999999999,
          -0.057999999999999996,
          -0.052000000000000005,
          -0.046,
          -0.04,
          -0.033999999999999996,
          -0.027999999999999997,
          0.06999999999999999,
          0.06399999999999999,
          0.057999999999999996,
          0.052000000000000005,
          0.046,
          0.04,
          0.033999999999999996,
          0.027999999999999997
        ],
        [
          -0.105,
          -0.09599999999999999,
          -0.087,
          -0.078,
          -0.06899999999999999,
          -0.05999999999999999,
          -0.051,
          -0.041999999999999996,
          0.105,
          0.09599999999999999,
          0.087,
          0.078,
          0.06899999999999999,
          0.05999999999999999,
          0.051,
          0.041999999999999996
        ],
        [
          -0.13999999999999999,
          -0.12799999999999997,
          -0.11599999999999999,
          -0.10400000000000001,
          -0.092,
          -0.08,
          -0.06799999999999999,
          -0.055999999999999994,
          0.13999999999999999,
          0.12799999999999997,
          0.11599999999999999,
          0.10400000000000001,
          0.092,
          0.08,
          0.06799999999999999,
          0.055999999999999994
        ],
        [
          -0.175,
          -0.15999999999999998,
          -0.145,
          -0.13,
          -0.11499999999999999,
          -0.09999999999999999,
          -0.08499999999999999,
          -0.06999999999999999,
          0.175,
          0.15999999999999998,
          0.145,
          0.13,
          0.11499999999999999,
          0.09999999999999999,
          0.08499999999999999,
          0.06999999999999999
        ],
        [
          -0.21,
          -0.19199999999999998,
          -0.174,
          -0.156,
          -0.13799999999999998,
          -0.11999999999999998,
          -0.102,
          -0.08399999999999999,
          0.21,
          0.19199999999999998,
          0.174,
          0.156,
          0.13799999999999998,
          0.11999999999999998,
          0.102,
          0.08399999999999999
        ],
        [
          -0.24499999999999997,
          -0.22399999999999995,
          -0.20299999999999999,
          -0.182,
          -0.16099999999999998,
          -0.13999999999999999,
          -0.11899999999999998,
          -0.09799999999999999,
          0.24499999999999997,
          0.22399999999999995,
          0.20299999999999999,
          0.182,
          0.16099999999999998,
          0.13999999999999999,
          0.11899999999999998,
          0.09799999999999999
        ],
        [
          -0.27999999999999997,
          -0.25599999999999995,
          -0.23199999999999998,
          -0.20800000000000002,
          -0.184,
          -0.16,
          -0.13599999999999998,
          -0.11199999999999999,
          0.27999999999999997,
          0.25599999999999995,
          0.23199999999999998,
          0.20800000000000002,
          0.184,
          0.16,
          0.13599999999999998,
          0.11199999999999999
        ],
        [
          -0.315,
          -0.288,
          -0.261,
          -0.234,
          -0.207,
          -0.18,
          -0.153,
          -0.126,
          0.315,
          0.288,
          0.261,
          0.234,
          0.207,
          0.18,
          0.153,
          0.126
        ],
        [
          -0.35,
          -0.31999999999999995,
          -0.29,
          -0.26,
          -0.22999999999999998,
          -0.19999999999999998,
          -0.16999999999999998,
          -0.13999999999999999,
          0.35,
          0.31999999999999995,
          0.29,
          0.26,
          0.22999999999999998,
          0.19999999999999998,
          0.16999999999999998,
          0.13999999999999999
        ]
      ],
      "bias": [
        0.05,
        0.05,
        0.05,
        0.05,
        0.05,
        0.05,
        0.05,
        0.05,
        0.05,
        0.05,
        0.05,
        0.05,
        0.05,
        0.05,
        0.05,
        0.05
      ],
      "activation": "relu"
    },
    {
      "weights": [
        [
          0.3,
          0.3,
          0.3,
          0.3,
          -0.04,
          -0.04,
          -0.04,
          -0.04
        ],
        [
          0.3,
          0.3,
          0.3,
          0.3,
          -0.04,
          -0.04,
          -0.04,
          -0.04
        ],
        [
          0.3,
          0.3,
          0.3,
          0.3,
          -0.04,
          -0.04,
          -0.04,
          -0.04
        ],
        [
          0.3,
          0.3,
          0.3,
          0.3,
          -0.04,
          -0.04,
          -0.04,
          -0.04
        ],
        [
          0.3,
          0.3,
          0.3,
          0.3,
          -0.04,
          -0.04,
          -0.04,
          -0.04
        ],
        [
          0.3,
          0.3,
          0.3,
          0.3,
          -0.04,
          -0.04,
          -0.04,
          -0.04
        ],
        [
          0.3,
          0.3,
          0.3,
          0.3,
          -0.04,
          -0.04,
          -0.04,
          -0.04
        ],
        [
          0.3,
          0.3,
          0.3,
          0.3,
          -0.04,
          -0.04,
          -0.04,
          -0.04
        ],
        [
          -0.04,
          -0.04,
          -0.04,
          -0.04,
          0.3,
          0.3,
          0.3,
          0.3
        ],
        [
          -0.04,
          -0.04,
          -0.04,
          -0.04,
          0.3,
          0.3,
          0.3,
          0.3
        ],
        [
          -0.04,
          -0.04,
          -0.04,
          -0.04,
          0.3,
          0.3,
          0.3,
          0.3
        ],
        [
          -0.04,
          -0.04,
          -0.04,
          -0.04,
          0.3,
          0.3,
          0.3,
          0.3
        ],
        [
          -0.04,
          -0.04,
          -0.04,
          -0.04,
          0.3,
          0.3,
          0.3,
          0.3
        ],
        [
          -0.04,
          -0.04,
          -0.04,
          -0.04,
          0.3,
          0.3,
          0.3,
          0.3
        ],
        [
          -0.04,
          -0.04,
          -0.04,
          -0.04,
          0.3,
          0.3,
          0.3,
          0.3
        ],
        [
          -0.04,
          -0.04,
          -0.04,
          -0.04,
          0.3,
          0.3,
          0.3,
          0.3
        ]
      ],
      "bias": [
        0,
        0,
        0,
        0,
        0,
        0,
        0,
        0
      ],
      "activation": "relu"
    },
    {
      "weights": [
        [
          0.65,
          -0.25,
          0.15
        ],
        [
          0.65,
          -0.25,
          0.15
        ],
        [
          0.65,
          -0.25,
          0.15
        ],
        [
          0.65,
          -0.25,
          0.15
        ],
        [
          -0.25,
          0.65,
          0.15
        ],
        [
          -0.25,
          0.65,
          0.15
        ],
        [
          -0.25,
          0.65,
          0.15
        ],
        [
          -0.25,
          0.65,
          0.15
        ]
      ],
      "bias": [
        0,
        0,
        0.1
      ],
      "activation": "softmax"
    }
  ]
}