{"inputWindow":5,"layers":[{"weights":[[0.4117951989173889,-0.5234415531158447,-0.030939532443881035,0.17336499691009521,-0.27502429485321045,0.22318005561828613,0.6245980858802795,0.12972453236579895,-0.371466726064682,0.15289057791233063,0.36948806047439575,0.2431456595659256,-0.4386228621006012,-0.48351141810417175,0.18444913625717163,0.5530542135238647,-0.37048113346099854,-0.4207850694656372,0.4356481432914734,0.08031206578016281,-0.35617080330848694,-0.23021052777767181,-0.2487737238407135,-0.30188512802124023,-0.6182119250297546,0.2922491431236267,0.2279139757156372,0.387877494096756,0.46153226494789124,0.09140463173389435,0.683029294013977,0.11165401339530945,-0.1153610572218895,-0.1999732106924057,-0.01709502749145031,0.09895903617143631,0.14407658576965332,0.008306378498673439,-0.5588755011558533,-0.3543218672275543,-0.11991839855909348,-0.18455171585083008,0.5057233572006226,-0.33998697996139526,0.4841053783893585,-0.7449700236320496,0.41137853264808655,-0.09130292385816574,0.11705462634563446,0.5575394630432129,-0.29560235142707825,-0.2882695198059082,-0.11217592656612396,-0.3238111436367035,0.31975579261779785,0.14688129723072052,0.4390535354614258,0.3134765923023224,-0.23966702818870544,0.16546829044818878,0.673983097076416,0.20681719481945038,0.6685625910758972,-0.28478261828422546],[-0.15249860286712646,-0.2277955859899521,0.15748098492622375,0.15474191308021545,-0.04097922146320343,-0.04204787313938141,0.15124380588531494,-0.23773419857025146,-0.18059319257736206,-0.2168109118938446,0.18370971083641052,-0.19108515977859497,0.18718945980072021,-0.11112481355667114,-0.06981967389583588,0.06109464168548584,-0.007647216320037842,-0.14150793850421906,-0.0041425228118896484,0.2027420997619629,0.09400185942649841,-0.19875437021255493,0.07912588119506836,-0.07197104394435883,-0.21279072761535645,-0.13681969046592712,-0.03668417036533356,0.13017642498016357,-0.06254339218139648,0.12293350696563721,-0.15836051106452942,0.17595413327217102,0.1385829746723175,-0.1557147204875946,-0.15876716375350952,-0.2263888120651245,-0.20360678434371948,-0.1290457397699356,0.18136179447174072,0.16745927929878235,0.008234620094299316,-0.06768199801445007,-0.05257171392440796,0.03692442178726196,-0.018933981657028198,-0.03489513695240021,0.03129762411117554,0.24078577756881714,-0.15304040908813477,-0.13499678671360016,0.12291494011878967,0.037037163972854614,0.04360798001289368,-0.03238256275653839,-0.16366708278656006,0.2021816372871399,-0.007525086402893066,0.21937349438667297,0.030342519283294678,0.1355350911617279,0.0553438663482666,-0.23784618079662323,-0.1866685450077057,0.14739391207695007],[0.0284724161028862,-0.20988163352012634,-0.04908672347664833,-0.35256046056747437,-0.036029040813446045,-0.10170454531908035,-0.07683069258928299,0.049511153250932693,0.13302582502365112,-0.28961870074272156,0.15247175097465515,-0.11392191052436829,-0.2366677224636078,-0.2293480783700943,-0.2897111773490906,0.04295198991894722,-0.13147997856140137,-0.24960163235664368,0.1554773449897766,0.0635586753487587,0.10957380384206772,0.04189736023545265,0.02910762093961239,-0.5493570566177368,-0.24944166839122772,-0.28232473134994507,-0.4337395429611206,-0.1352720558643341,0.1681944578886032,-0.28568756580352783,0.1588125377893448,-0.45514175295829773,-0.548833429813385,-0.36831849813461304,0.12656714022159576,0.1834665983915329,-0.22466962039470673,-0.21745091676712036,-0.3271959125995636,-0.3611639738082886,0.0255373977124691,-0.21720047295093536,-0.6224172115325928,0.028071420267224312,-0.22701558470726013,-0.1579699069261551,-0.3858462870121002,-0.22494348883628845,-0.11183436959981918,-0.11269459873437881,-0.0029170080088078976,-0.07929490506649017,-0.15817098319530487,-0.11009565740823746,0.08057913929224014,0.1024186760187149,-0.2941206991672516,-0.0165935717523098,-0.1049097552895546,-0.24381086230278015,-0.08100303262472153,0.19211731851100922,-0.5038200616836548,0.06560460478067398],[0.15782710909843445,0.15956337749958038,0.20978699624538422,0.06488218903541565,-0.30649933218955994,-0.34530359506607056,-0.19866931438446045,0.12443702667951584,-0.10745860636234283,0.43281057476997375,0.35286661982536316,-0.36717379093170166,0.1064315065741539,-0.5103116631507874,0.38518476486206055,-0.28373321890830994,-0.12246692180633545,-0.29007580876350403,-0.8311101794242859,-0.352588027715683,0.13720841705799103,-0.056263770908117294,0.19845497608184814,0.2692262530326843,0.08230944722890854,0.12469746172428131,-0.49406975507736206,-0.42515134811401367,0.09559528529644012,0.15905624628067017,-0.11214352399110794,0.2804660201072693,-0.28518450260162354,-0.02696252055466175,-0.08883483707904816,0.27969890832901,-0.3825579285621643,0.1011752113699913,0.07812448590993881,-0.14319299161434174,-0.042542457580566406,-0.06960448622703552,0.1952250599861145,-0.06869926303625107,-0.22299574315547943,-0.1196560487151146,0.2177986204624176,-0.1031569316983223,-0.21416644752025604,0.20215456187725067,0.03375428915023804,-0.010185997001826763,-0.03557020053267479,-0.23290257155895233,-0.20928826928138733,-0.5403426885604858,0.3248329758644104,-0.05799039080739021,-0.1925598680973053,0.4386378824710846,-0.2100110799074173,-0.21901066601276398,0.23653334379196167,0.09760373830795288],[0.4724480211734772,-0.5961998701095581,0.9756231904029846,-0.2866165041923523,0.974857747554779,-0.11510251462459564,-0.1631118804216385,-0.2850087285041809,0.6381776928901672,-0.5242214798927307,-0.6348997354507446,-0.12050879746675491,-0.21220864355564117,-0.24672068655490875,-0.2151094526052475,-0.17983470857143402,0.09706006199121475,-0.1039857342839241,-0.1552814096212387,0.048552945256233215,1.8704437017440796,-0.11444849520921707,-0.46304020285606384,-0.02773781679570675,0.13026483356952667,-0.33343449234962463,-0.20948509871959686,0.4427453577518463,0.6841180324554443,0.08614886552095413,-0.6287609934806824,0.24741151928901672,0.685739278793335,0.2533939778804779,0.025049520656466484,-0.6486989855766296,1.0035947561264038,0.31440362334251404,0.13677850365638733,0.6099851131439209,-0.534102201461792,0.33983615040779114,0.6554643511772156,0.8342961668968201,-0.5889914035797119,0.4936245083808899,-0.40963268280029297,0.06682700663805008,0.5944318771362305,-1.1315550804138184,-0.2341698706150055,-0.06886995583772659,0.1524842232465744,0.24130050837993622,-0.3034253716468811,-0.605966329574585,0.17921720445156097,-0.36671721935272217,-0.1758577823638916,-0.4105803668498993,-0.3235567808151245,-0.39153966307640076,-0.2587551474571228,0.6041383147239685],[-0.4942263066768646,0.21522195637226105,-0.9782398343086243,0.43156352639198303,-0.5539657473564148,-0.09068954735994339,-0.384040504693985,-0.2621414363384247,0.3181467652320862,0.18249142169952393,0.5251820087432861,-0.2580726444721222,-0.014677411876618862,0.02056724578142166,-0.20474965870380402,0.21985289454460144,-0.22148407995700836,-0.6170223355293274,-0.2719743549823761,0.26273882389068604,0.21888795495033264,0.45250532031059265,0.005228363908827305,0.036111582070589066,0.6505277752876282,-0.5215917229652405,0.6108793616294861,-0.35739263892173767,-0.23355792462825775,0.514742910861969,-0.4005035161972046,-0.5743165016174316,0.226439967751503,-0.46459174156188965,-0.6450915336608887,0.2573411762714386,0.04841601848602295,-0.3019658923149109,0.060517843812704086,0.07195135951042175,-0.1969810575246811,-0.04356427118182182,-0.06917618215084076,0.23076355457305908,0.4843388795852661,0.010992671363055706,-0.6117380857467651,0.7325547933578491,0.35377660393714905,-0.1267489790916443,0.5075104832649231,-0.5832332372665405,0.3876523971557617,0.04876040667295456,-0.4391462802886963,0.4488867223262787,-0.8854373693466187,0.3128250539302826,0.26512905955314636,-0.37030914425849915,0.45767316222190857,-0.34640538692474365,-0.5041242837905884,0.5179922580718994],[0.3519323170185089,-0.3236435055732727,-0.24634000658988953,-0.4667685925960541,-0.9197025299072266,-0.5903540849685669,-0.809553325176239,-0.8245922327041626,1.4727650880813599,0.4961906373500824,-0.4681359827518463,0.008776350878179073,-0.7680665850639343,-0.004332347773015499,0.14063815772533417,-0.3555026948451996,1.3903329372406006,-0.15883412957191467,-0.11626308411359787,-0.008111522532999516,0.40010467171669006,-0.2152734100818634,-0.5373280048370361,0.22788038849830627,0.6838663816452026,-0.5810707211494446,0.4656701982021332,-0.9606857299804688,-0.2360825091600418,-0.5954973101615906,-0.8233857750892639,0.007531005423516035,0.020803002640604973,0.2905653119087219,-0.137325257062912,-0.4888840913772583,0.3187866508960724,-0.24108152091503143,0.7243932485580444,-0.30194923281669617,-0.6113596558570862,0.44795215129852295,0.4016248285770416,1.6084321737289429,-0.11812306940555573,0.09606777131557465,-0.24638506770133972,0.417760968208313,0.45577818155288696,-1.1426936388015747,0.2523544430732727,-0.8543491363525391,-0.7256585359573364,-0.3659444749355316,-0.3555034399032593,-0.6730654835700989,-0.39606884121894836,-0.5184844732284546,-0.6708072423934937,-0.10579857230186462,-0.9030345678329468,-0.14685498178005219,-0.6646599173545837,-0.10985267162322998],[-0.3098011016845703,-0.0711694210767746,-0.22225792706012726,-0.22311531007289886,-0.005806788336485624,-0.11273957043886185,0.05103052034974098,0.09300637245178223,0.09210530668497086,0.2230713665485382,-0.14437204599380493,0.2361541986465454,0.15244418382644653,0.06160986050963402,0.06517096608877182,0.10786901414394379,0.0016771727241575718,-0.17506113648414612,-0.008028900250792503,-0.13700272142887115,-0.249694362282753,0.1044396385550499,-0.11365985125303268,-0.3699248433113098,-0.15777647495269775,-0.008310272358357906,-0.06739844381809235,0.18583017587661743,0.15210168063640594,-0.21164871752262115,-0.2585029602050781,-0.3478235900402069,-0.31190693378448486,-0.2984551191329956,-0.19892776012420654,-0.152578666806221,0.17615731060504913,-0.004993764217942953,-0.30696335434913635,-0.21607208251953125,0.00831522885710001,-0.04061739891767502,-0.28808432817459106,-0.012201263569295406,0.006304761860519648,0.13441182672977448,0.030417095869779587,-0.25416454672813416,-0.16232290863990784,-0.22319068014621735,0.1655125617980957,0.15507261455059052,-0.17393596470355988,-0.3110355734825134,-0.0902591124176979,-0.12460549175739288,0.06477861851453781,-0.09240204095840454,0.08625902980566025,-0.06090003252029419,-0.10940242558717728,0.08597244322299957,-0.42414209246635437,-0.04447822645306587],[0.3043976426124573,0.3574691414833069,-0.19103820621967316,0.2935154438018799,-0.41279223561286926,-0.30369991064071655,-0.39218348264694214,0.29162195324897766,-0.10506318509578705,0.31707242131233215,-0.026874907314777374,-0.059916965663433075,-0.1858036369085312,-0.0305903572589159,0.12584808468818665,-0.4188198447227478,0.3524770736694336,0.013219190761446953,-0.47437596321105957,-0.16051308810710907,0.2713663876056671,0.3274090588092804,0.5266803503036499,-0.0764516144990921,0.3196844160556793,-0.05410562455654144,-0.4678345322608948,-0.299166202545166,0.22307205200195312,0.4303375780582428,-0.12466145306825638,0.1382649838924408,-0.31020087003707886,0.15972784161567688,-0.1778130978345871,0.5351395606994629,-0.19036932289600372,0.3050660192966461,0.18287812173366547,0.05142110586166382,0.02370585687458515,0.0004907487309537828,0.3513757586479187,-0.016288844868540764,-0.4074346125125885,0.2507896423339844,-0.10705909878015518,0.10085081309080124,-0.1480117291212082,-0.183796688914299,-0.2515014111995697,0.007525589317083359,0.3973393440246582,0.11416073888540268,-0.014993390068411827,-0.5388630032539368,0.25152429938316345,-0.14755666255950928,-0.2643483281135559,0.08019959181547165,0.23664183914661407,-0.389988511800766,-0.25062236189842224,0.18126782774925232],[0.6103147268295288,-0.6997675895690918,0.5429633259773254,-0.2791516184806824,1.0557074546813965,-0.3317185938358307,-0.10711320489645004,-0.45553043484687805,0.5225258469581604,-0.6849452257156372,-0.6112889051437378,-0.027155833318829536,-0.5300464630126953,-0.3817625343799591,-0.07252107560634613,-0.13714157044887543,0.022028515115380287,-0.2039211094379425,0.26701250672340393,-0.07955336570739746,1.6325560808181763,0.1000007763504982,-0.13525336980819702,0.40474584698677063,0.15993653237819672,-0.46666380763053894,-0.07859770208597183,0.5782840251922607,0.5232114195823669,0.0735715851187706,-0.6733317971229553,0.24877998232841492,0.395354688167572,0.2387097030878067,-0.14305369555950165,-0.6026790738105774,0.9036583304405212,0.004162037279456854,0.12543214857578278,0.2955712676048279,-0.47631505131721497,0.6017959713935852,0.654249370098114,0.9107598662376404,-0.4468823969364166,0.3630529046058655,-0.13500383496284485,-0.027917325496673584,0.5015574097633362,-1.1295833587646484,-0.37374356389045715,-0.183044895529747,0.14117176830768585,0.18545174598693848,-0.002318893326446414,-0.4358888566493988,0.09432536363601685,-0.3252459168434143,-0.3972037732601166,-0.4011017978191376,-0.10275263339281082,-0.08692551404237747,-0.12655852735042572,0.2791350483894348],[-0.3029572367668152,0.6132127642631531,0.21252544224262238,-0.7318285703659058,0.1722123920917511,0.0892290249466896,-0.5482645034790039,0.07792506366968155,-0.15020084381103516,-0.4078798294067383,0.18989045917987823,-0.13605599105358124,-0.6411288976669312,-0.050558362156152725,-0.3139767348766327,0.21594968438148499,0.4019220173358917,0.27704405784606934,-0.4132283329963684,0.27198755741119385,-0.09906764328479767,-0.28410670161247253,-0.12012429535388947,-0.2653729021549225,-0.2675124406814575,0.5342369675636292,-0.28773078322410583,-0.038911450654268265,0.28740018606185913,-0.7880187630653381,0.26545214653015137,-0.25889408588409424,0.2915457785129547,0.3224264085292816,0.2910058796405792,0.6506100296974182,-0.09413640946149826,-0.6618808507919312,-0.43484702706336975,0.164178267121315,0.43105822801589966,-0.033252425491809845,-0.31161293387413025,-0.08973769098520279,-0.4050390124320984,0.09108977019786835,0.3940192461013794,-0.28537651896476746,0.40213143825531006,-0.5795695781707764,-0.0076027787290513515,-0.08285422623157501,-1.201371431350708,0.5302201509475708,0.708335280418396,-0.11550222337245941,0.038376592099666595,0.04810657724738121,-0.01367513369768858,-0.1302495151758194,-0.6852335929870605,-0.09533682465553284,-0.3046019971370697,-0.14978475868701935],[0.5226907134056091,0.048544395714998245,1.1450217962265015,0.1619781106710434,1.4109299182891846,0.4718612730503082,0.2031610608100891,0.355082631111145,-0.4526248276233673,-0.6741487383842468,0.37266314029693604,-0.2543134093284607,-0.01086249016225338,-0.06277571618556976,0.20419880747795105,0.2217121720314026,0.17551977932453156,0.1850356161594391,-0.48111477494239807,0.0870421826839447,0.21143627166748047,-0.14469940960407257,-0.19373130798339844,0.35231536626815796,0.11085516214370728,1.391394019126892,-0.6735434532165527,0.8187054395675659,0.09222856163978577,0.31086796522140503,0.009755903854966164,0.20915336906909943,-0.4127531945705414,0.6067967414855957,0.1705569624900818,0.06381583213806152,0.5562954545021057,0.04745569825172424,-0.660044252872467,0.8070663213729858,0.36078745126724243,0.5925307869911194,-0.6833510398864746,0.8388727307319641,-0.713661789894104,-0.09167080372571945,0.820220410823822,-0.08015479147434235,-0.017475154250860214,-0.9126803278923035,-0.3023907244205475,0.8311399817466736,0.710541844367981,-0.0920155718922615,1.7600512504577637,-0.09190364181995392,0.3676944673061371,-0.425992876291275,-0.28643760085105896,0.2876151502132416,-0.04638197273015976,-0.6248412728309631,0.9650933742523193,0.016219262033700943],[-0.3190109133720398,-0.3835374116897583,0.044142257422208786,-0.02570294961333275,0.03565431386232376,0.17852716147899628,-0.17662550508975983,-0.14117471873760223,-0.08459145575761795,0.129588320851326,-0.2157997488975525,-0.07028406113386154,0.13334549963474274,-0.05185511335730553,-0.010547309182584286,-0.20335933566093445,0.16490545868873596,-0.053797658532857895,-0.16778716444969177,-0.05509134382009506,0.130589097738266,-0.0825849324464798,-0.09998062998056412,-0.1352282017469406,0.2283901572227478,-0.03447549045085907,-0.3387545347213745,0.20154348015785217,-0.1510068029165268,-0.275226891040802,-0.006439332850277424,-0.3014775216579437,-0.56402587890625,-0.4457204341888428,-0.06552273780107498,-0.15210287272930145,-0.08760355412960052,-0.10371046513319016,0.07581444829702377,-0.009454227052628994,0.004018042702227831,0.06519707292318344,-0.6770720481872559,-0.1361522078514099,-0.22106894850730896,-0.09852010011672974,-0.3397670090198517,0.012682512402534485,-0.5374124646186829,-0.12355609983205795,0.03623294085264206,-0.2888469696044922,0.0618000328540802,-0.13628895580768585,0.16865982115268707,-0.20087282359600067,-0.2642064392566681,-0.3802398145198822,-0.0673290491104126,-0.11874762177467346,0.13283857703208923,-0.23559395968914032,-0.13897575438022614,-0.17913025617599487],[0.1993553638458252,0.039697498083114624,-0.09105081856250763,0.35863208770751953,-0.2514522075653076,-0.32478439807891846,-0.12287400662899017,0.21451546251773834,0.010233591310679913,0.18894824385643005,0.12318924814462662,0.024806084111332893,-0.050591688603162766,-0.444510817527771,0.23476630449295044,-0.40398871898651123,0.2898241877555847,-0.20204678177833557,-0.778892457485199,-0.4237910807132721,0.043372247368097305,0.08390571922063828,0.5507137179374695,0.056686706840991974,0.20832772552967072,0.10356703400611877,-0.5093879103660583,-0.30126261711120605,0.1000966727733612,0.19519102573394775,0.17744578421115875,0.09197114408016205,0.0049303434789180756,0.05865580588579178,0.2814562916755676,0.13199789822101593,-0.5004581212997437,0.49246805906295776,0.222654327750206,-0.12257646769285202,0.3234023451805115,-0.3943299651145935,0.5270845890045166,-0.088331438601017,-0.08910564333200455,-0.048224423080682755,0.0779404267668724,-0.2760981619358063,-0.05320795252919197,-0.15226416289806366,-0.019441040232777596,-0.30804774165153503,0.4762527346611023,-0.18724553287029266,-0.20380553603172302,-0.11174095422029495,-0.14236529171466827,-0.19451624155044556,-0.2142023742198944,0.4877704083919525,0.009476560167968273,0.07735063135623932,-0.2413048893213272,-0.09603454172611237],[0.5601762533187866,-0.47231635451316833,0.9269409775733948,-0.29896822571754456,1.2035623788833618,-0.5265098214149475,-0.47022417187690735,-0.17680425941944122,0.4929017126560211,-0.43897655606269836,-0.6410012245178223,-0.029643842950463295,-0.36644670367240906,-0.32426711916923523,-0.21220625936985016,-0.14107255637645721,-0.09717603772878647,0.15605244040489197,0.2530500292778015,-0.10429742932319641,1.9846762418746948,-0.17412927746772766,-0.3972010314464569,0.1426510214805603,0.1360063999891281,-0.29068389534950256,-0.289549857378006,0.6317586898803711,0.20885908603668213,-0.03345022350549698,-0.4324733018875122,0.08423446863889694,0.5665521621704102,0.534817636013031,-0.29994088411331177,-0.37919771671295166,0.943924605846405,0.3551507890224457,0.0002036188670899719,0.37343961000442505,-0.2416117638349533,0.703606903553009,0.7137184739112854,0.5045984983444214,-0.2776486575603485,0.5081853866577148,-0.16068139672279358,-0.20449958741664886,0.7426345348358154,-1.1996943950653076,-0.25473037362098694,-0.17151595652103424,0.04383440315723419,0.13352584838867188,0.08494465798139572,-0.2866131067276001,-0.129962757229805,-0.40987133979797363,-0.2895960509777069,-0.17823542654514313,0.06395622342824936,-0.4281468689441681,0.11061999946832657,0.4435524344444275],[0.017033418640494347,-0.3088986575603485,0.4922427535057068,0.10898542404174805,0.10347411036491394,0.27621299028396606,0.007484505418688059,0.2438754141330719,-0.0689963772892952,0.38130757212638855,-0.29711297154426575,-0.3784375786781311,0.3715183138847351,0.5503097176551819,0.39854636788368225,-0.4741675555706024,0.02235627919435501,0.1903795748949051,-0.1748179793357849,-0.3348635733127594,-0.09201598912477493,-0.06655257195234299,0.13481910526752472,0.5088030099868774,-0.41048499941825867,-0.6977420449256897,-0.16086682677268982,0.3393884599208832,-0.25139814615249634,0.1987578272819519,0.04277186468243599,0.48660460114479065,-0.02490559034049511,-0.2775803208351135,-0.023694846779108047,-0.16854560375213623,-0.5883328914642334,-0.014389192685484886,0.3943120241165161,0.5037384033203125,-0.09765058010816574,1.027273178100586,-0.08843473345041275,-0.11640004068613052,-0.49094322323799133,0.11367018520832062,0.15812654793262482,-0.17902612686157227,0.16948959231376648,-0.08039835840463638,-0.182871475815773,1.0768990516662598,0.2725605070590973,-0.4451582133769989,-0.19139018654823303,0.5825700759887695,0.1502453237771988,-0.6115499138832092,0.07132261991500854,0.20258939266204834,-0.38889917731285095,0.036130908876657486,-0.16513735055923462,-0.31634998321533203],[-0.8230196833610535,-0.5120449066162109,0.5461587905883789,-0.692280650138855,0.7702319622039795,0.1219160258769989,0.023950941860675812,-0.3667525351047516,-0.8476547002792358,-0.018429778516292572,-1.0908559560775757,0.2734690308570862,-0.0782008245587349,-0.008108622394502163,-0.5846456289291382,-0.23014500737190247,-1.1232249736785889,0.099454365670681,0.22680024802684784,-0.048668716102838516,0.07936941087245941,0.7595351934432983,0.4079563319683075,-0.40062734484672546,-0.42413803935050964,-1.382381796836853,-0.0721488744020462,0.9922114610671997,0.9541796445846558,0.6247586607933044,-0.09582572430372238,0.11635557562112808,0.47861528396606445,-0.3804502785205841,0.20254921913146973,-0.34294259548187256,-0.29702994227409363,0.2248428463935852,0.0851680114865303,0.2786024510860443,0.04697679728269577,-0.25012728571891785,0.1896333247423172,-0.808285653591156,0.44089674949645996,0.1614970564842224,-0.907426655292511,-1.0310287475585938,0.5071666240692139,-0.18754175305366516,0.6084277629852295,0.05319365859031677,1.2923802137374878,0.32546383142471313,-1.629662275314331,-0.04782159999012947,-0.17591266334056854,-0.5026566982269287,0.193733349442482,0.06143425032496452,-0.9413668513298035,0.16883379220962524,-0.3465661406517029,-0.6873742938041687],[-0.2134333848953247,-0.14694249629974365,-0.14197559654712677,-0.06615599989891052,-0.14458508789539337,0.22901935875415802,-0.13052691519260406,-0.1692337542772293,-0.2073584794998169,-0.029538657516241074,-0.24110907316207886,0.1609787940979004,-0.10256790369749069,-0.12235566228628159,0.16843418776988983,-0.25230297446250916,0.06666319817304611,-0.1969951093196869,-0.1182691678404808,-0.2505520284175873,-0.1298576444387436,-0.00830751471221447,-0.1106879934668541,-0.21458809077739716,-0.20765641331672668,-0.08370713889598846,-0.36435800790786743,-0.13892725110054016,-0.30958425998687744,-0.4533330798149109,0.11869057267904282,-0.4621637761592865,-0.35376793146133423,-0.529723584651947,-0.027534207329154015,-0.024664834141731262,0.11993385851383209,-0.20848903059959412,0.12726153433322906,-0.36846160888671875,-0.2222335785627365,0.13861282169818878,-0.28844553232192993,0.07206340879201889,0.0541929230093956,0.1870635598897934,-0.11243853718042374,-0.34180188179016113,-0.5053148865699768,-0.0969480499625206,0.21093285083770752,-0.13841824233531952,-0.035705119371414185,0.10264330357313156,-0.21274225413799286,-0.14150471985340118,0.19474585354328156,-0.3242169916629791,0.08282894641160965,-0.010027170181274414,-0.06854094564914703,0.14369837939739227,-0.26545828580856323,0.14466238021850586],[0.23869040608406067,0.3198699355125427,-0.13714878261089325,0.29971808195114136,-0.2860246002674103,-0.4816722869873047,-0.3863210082054138,0.44563809037208557,0.21041488647460938,0.2182583510875702,-0.015767529606819153,-0.3135893940925598,-0.03750314936041832,-0.32918113470077515,0.31219160556793213,-0.16043658554553986,0.3140341639518738,-0.3111652433872223,-0.5431941151618958,-0.397240549325943,-0.0036094540264457464,0.2992740571498871,0.4291132986545563,-0.04146789014339447,0.008589709177613258,0.159382626414299,-0.3115612268447876,-0.27487653493881226,0.10217583179473877,0.5186774134635925,0.09650144726037979,0.13174086809158325,-0.30437952280044556,0.38086795806884766,0.22592906653881073,0.5494941473007202,-0.607556939125061,0.43159404397010803,0.11921869963407516,-0.06347830593585968,0.04921932518482208,-0.1289895474910736,0.4119759798049927,-0.24217624962329865,-0.14392437040805817,0.29088279604911804,0.10255717486143112,0.003997625317424536,-0.0469173900783062,-0.08115913718938828,-0.008749929256737232,-0.3983880579471588,0.40894389152526855,0.05249066278338432,0.18065914511680603,-0.4305664002895355,-0.06406088918447495,0.2747126519680023,-0.23071101307868958,0.38753142952919006,0.2238074690103531,0.04502341151237488,-0.14899252355098724,-0.08042046427726746],[0.6410307884216309,-0.6760997772216797,0.7379691004753113,-0.4540763795375824,1.2030986547470093,-0.07304437458515167,-0.47870317101478577,-0.18284271657466888,0.48339352011680603,-0.7775323390960693,-0.3437054455280304,-0.2578705847263336,-0.15373079478740692,-0.4280356466770172,-0.04113316908478737,0.08483432233333588,0.27247074246406555,-0.08174575865268707,0.006416268181055784,-0.11437344551086426,1.814141869544983,0.19160717725753784,-0.5522605776786804,0.2912749946117401,0.34103402495384216,-0.538853108882904,0.04339781031012535,0.24302145838737488,0.6369252800941467,-0.10796577483415604,-0.4749630093574524,0.22438544034957886,0.3806411623954773,0.6054027676582336,-0.20338039100170135,-0.4577224850654602,0.8678140044212341,0.34695371985435486,0.2032427340745926,0.5172023177146912,-0.5051571726799011,0.6502014994621277,0.3633043169975281,0.6092336773872375,-0.6637054681777954,0.5221022367477417,-0.5598413944244385,-0.10861256718635559,0.67050701379776,-1.0574142932891846,-0.3828819692134857,-0.2577992081642151,-0.155899778008461,0.011523526161909103,-0.026450026780366898,-0.5876773595809937,-0.010293630883097649,-0.17053832113742828,-0.3686141073703766,-0.13512016832828522,-0.23157690465450287,-0.07510226219892502,-0.29278966784477234,0.554865300655365],[0.5668436884880066,-0.1583288609981537,0.07018036395311356,-0.3466421365737915,0.3046078383922577,-0.1531732827425003,-0.4057936668395996,-0.00029206962790340185,-0.07282119244337082,-0.19748573005199432,-0.516789972782135,0.41500675678253174,0.3809830844402313,-0.14320886135101318,-0.4242168962955475,-0.01976981945335865,-0.1834210604429245,-0.23392313718795776,-0.02066786214709282,0.18769098818302155,0.35478857159614563,-0.28595107793807983,-0.461652934551239,-0.5258921980857849,0.34213417768478394,0.20086044073104858,-0.5076721906661987,-0.46484342217445374,0.10511839389801025,0.19354546070098877,-0.3647644817829132,-0.35680022835731506,-0.514929473400116,0.008907732553780079,0.4812663793563843,-0.7017562985420227,0.49160057306289673,0.16380535066127777,0.22573305666446686,-0.7521249055862427,-0.3623064160346985,-0.4748550355434418,-0.5310168862342834,-0.11134287714958191,0.2699888348579407,0.34250715374946594,-0.30715546011924744,-0.25389301776885986,-0.23775562644004822,0.2612875699996948,0.06291387230157852,0.16869620978832245,0.3119393587112427,-0.0008988857734948397,-0.3540407419204712,-0.5183059573173523,-0.1535392850637436,0.3435216546058655,-0.05567656084895134,0.17643395066261292,0.010932495817542076,-0.0935152992606163,0.47231417894363403,0.11681067198514938],[0.5477083325386047,-0.10069646686315536,-0.14011859893798828,0.837363600730896,0.8634518384933472,-0.07840792089700699,0.18581964075565338,0.6790470480918884,0.915534496307373,-0.8093120455741882,0.2013343721628189,-0.4332793653011322,-0.3053298592567444,-0.5627092719078064,0.36052319407463074,0.32815518975257874,0.23350253701210022,-0.7052848935127258,0.012864859774708748,0.19235195219516754,1.5108561515808105,-0.27664658427238464,-0.34112799167633057,-0.4532013237476349,0.4132564961910248,0.17442162334918976,-0.6694939136505127,0.06487560272216797,-0.35558080673217773,-0.20417752861976624,-0.10006162524223328,-0.530087947845459,0.10232941806316376,0.7420987486839294,-0.3069348931312561,-0.3832758069038391,0.49006879329681396,0.02559235692024231,0.25226128101348877,-0.4744897484779358,-0.1412448137998581,0.09423782676458359,0.002414986491203308,0.2291685938835144,-0.3608385920524597,0.18799945712089539,0.026905439794063568,0.08205622434616089,0.31845566630363464,1.1658636331558228,-0.4107286334037781,0.12883388996124268,-1.0505331754684448,0.11510968953371048,1.0563018321990967,-0.34046629071235657,0.18807761371135712,1.5771348476409912,-0.01508739497512579,-0.5777298212051392,1.7492784261703491,-0.09482171386480331,-0.22210098803043365,1.3759911060333252],[-0.08907008916139603,-0.08311726152896881,0.1179257407784462,-0.18208716809749603,0.08985649794340134,-0.20813117921352386,0.1253296285867691,0.07361792027950287,0.014064475893974304,-0.10107419639825821,0.20206314325332642,0.06041017919778824,0.031911276280879974,0.14549137651920319,-0.30887192487716675,-0.2773130238056183,-0.17585667967796326,-0.016925962641835213,-0.0058191148564219475,-0.10043840855360031,-0.2812209725379944,-0.36274462938308716,-0.06957279145717621,-0.5551317930221558,0.13263311982154846,0.16506220400333405,-0.22593377530574799,0.04783822223544121,-0.008408633060753345,-0.4258250594139099,-0.0924670398235321,-0.2431214451789856,-0.5280517339706421,-0.5348853468894958,0.11894511431455612,0.10030610114336014,-0.19597257673740387,0.18266761302947998,-0.07329566031694412,-0.30367618799209595,0.03756488114595413,0.023740632459521294,-0.685882568359375,0.16972693800926208,0.04988016560673714,0.06905315816402435,-0.2733742594718933,0.004349099937826395,-0.29013708233833313,-0.07014765590429306,-0.2054772973060608,0.024113444611430168,0.10579928010702133,-0.294952929019928,-0.11479679495096207,-0.2575502097606659,0.21683238446712494,-0.29767969250679016,0.12670153379440308,0.22189900279045105,0.13360382616519928,0.03442798927426338,-0.06989336013793945,0.20804256200790405],[0.11205286532640457,0.33149051666259766,-0.011315141804516315,-0.07803300768136978,-0.027729900553822517,-0.3081151843070984,0.08673813194036484,0.42281606793403625,0.15601545572280884,0.24678024649620056,0.19058829545974731,-0.2888028025627136,-0.20120064914226532,-0.3821221590042114,0.04698950797319412,-0.2172587662935257,0.036969155073165894,-0.14991669356822968,-0.45775938034057617,-0.1578545719385147,0.08923599869012833,-0.0041704862378537655,0.3294290602207184,-0.09562407433986664,0.18831147253513336,0.1118566170334816,-0.4420374631881714,-0.1367349624633789,0.1376902163028717,0.22772705554962158,-0.18579603731632233,-0.10731910169124603,0.10306603461503983,0.08803559094667435,0.10161173343658447,0.3801271319389343,-0.6189690828323364,0.07598099857568741,-0.11022595316171646,-0.010704743675887585,0.2877572178840637,-0.03214995190501213,0.4786228537559509,-0.12224787473678589,-0.04140765219926834,0.14205312728881836,0.020893024280667305,-0.22307994961738586,-0.20035959780216217,-0.1723989099264145,0.13632120192050934,-0.3591025173664093,0.309895396232605,-0.1714591532945633,0.13835209608078003,-0.45925721526145935,0.35127586126327515,0.2385198473930359,-0.471444308757782,0.2274477481842041,0.060932327061891556,0.010680301114916801,-0.2062750607728958,-0.2996181547641754],[0.6227920055389404,-0.24492131173610687,0.9709734916687012,-0.3891388475894928,1.0634039640426636,-0.38681554794311523,-0.19956527650356293,-0.17889460921287537,0.4337567389011383,-0.7789353132247925,-0.6476471424102783,-0.1745847463607788,-0.40400636196136475,-0.16269375383853912,-0.27078527212142944,-0.04771485552191734,-0.1171828880906105,-0.04660789668560028,-0.00516280485317111,-0.21447958052158356,1.8738244771957397,0.09500009566545486,-0.42963793873786926,0.3382171094417572,0.3220370411872864,-0.6378399729728699,0.02505096234381199,0.20268264412879944,0.6271212100982666,-0.184207946062088,-0.7455195784568787,-0.1906658262014389,0.5562243461608887,0.6550742983818054,-0.24991537630558014,-0.6160107254981995,0.7376319766044617,0.077394500374794,0.39751628041267395,0.6786643266677856,-0.5784865021705627,0.390627920627594,0.7711909413337708,0.7537549138069153,-0.20044980943202972,0.47806596755981445,-0.25651732087135315,-0.011052003130316734,0.7228672504425049,-0.9489701390266418,-0.38101139664649963,-0.0076014138758182526,0.2964170575141907,0.04452839121222496,-0.04913489520549774,-0.5274458527565002,0.1872199922800064,-0.5753241777420044,-0.3631698191165924,-0.4008346498012543,-0.3535337448120117,-0.547432005405426,0.05487051233649254,0.6879065632820129]],"bias":[0.20435945689678192,0.0747397318482399,0.08529810607433319,0.052573394030332565,-0.076021708548069,0.23259271681308746,0.10855566710233688,-0.029134660959243774,-0.13892534375190735,-0.008331038989126682,0.009775537997484207,-0.07312390208244324,0.1353694200515747,0.20052000880241394,0.0879993811249733,0.030797939747571945,0.003997596446424723,0.04387678951025009,0.05550413206219673,0.24377788603305817,-0.14466403424739838,0.07388059049844742,0.07043857127428055,0.10367750376462936,-0.3266046345233917,0.11616729944944382,-0.03827058896422386,0.1586805284023285,0.056313980370759964,-0.06423681974411011,0.007879460230469704,0.07481872290372849,0.1815440058708191,0.04598173499107361,-0.13982310891151428,0.14077259600162506,0.08893977850675583,0.01411984208971262,0.1056409403681755,0.19807223975658417,-0.023871367797255516,0.20240408182144165,0.13903342187404633,-0.05982910096645355,0.08794516324996948,0.03879659250378609,-0.06979566812515259,0.26582732796669006,0.10318875312805176,0.19635997712612152,-0.09324079006910324,0.16999264061450958,0.1891443133354187,0.1887361854314804,-0.12279170006513596,0.33440324664115906,0.02171480841934681,-0.06083283573389053,0.06691862642765045,0.06623026728630066,-0.08944962918758392,0.04969124495983124,0.26867663860321045,0.0397736132144928],"activation":"relu"},{"weights":[[-0.21881651878356934,0.3800356984138489,-0.06794609129428864,-0.8351148962974548,-0.08486776053905487,-0.24355517327785492,-0.2310452163219452,-0.5621961951255798,0.16917449235916138,0.4020196497440338,0.1973588466644287,-0.38505101203918457,-0.21319593489170074,-0.12318088859319687,-0.13816916942596436,0.015081152319908142,0.023114889860153198,-0.20033684372901917,-0.1405537724494934,0.450161337852478,-0.21329660713672638,-0.19033914804458618,-0.792998194694519,-0.19233150780200958,-0.15027904510498047,-0.08017616719007492,0.015100126154720783,0.009543920867145061,-0.1284475475549698,0.047864630818367004,0.45081189274787903,0.21693257987499237],[0.6372425556182861,0.0601801797747612,0.37900593876838684,-0.8124231100082397,0.2661205232143402,0.44693484902381897,-0.27914586663246155,0.5987517237663269,-0.2258506566286087,0.27324026823043823,0.3640442192554474,-0.1280229389667511,-0.07889793813228607,0.3040566146373749,0.25233525037765503,0.02762494422495365,-0.10035837441682816,0.15938860177993774,0.1433245837688446,0.1173713430762291,-0.5008920431137085,-0.5273515582084656,-0.12125033885240555,0.1410682648420334,-0.2684222161769867,0.14136981964111328,0.19981932640075684,-0.25393474102020264,-0.639305055141449,0.416059672832489,-0.12916862964630127,0.058818452060222626],[0.1907852590084076,0.42697399854660034,-0.39043986797332764,-0.17293506860733032,0.35601121187210083,-0.7943267226219177,-0.18436241149902344,-0.19239459931850433,-0.43277478218078613,-0.07155108451843262,-0.8877292275428772,0.010218354873359203,-0.1292443871498108,0.2842709720134735,0.4749021530151367,-0.05354120582342148,0.2214769572019577,0.24531550705432892,-0.21798813343048096,0.23498761653900146,0.3782038986682892,-0.8158800601959229,-0.27239805459976196,0.12072259187698364,-0.5973277688026428,0.044754091650247574,0.3496549129486084,-0.03285190463066101,-0.44008758664131165,0.1458132117986679,-0.04425325617194176,-0.732181191444397],[0.010336177423596382,-0.018582625314593315,-0.9365276098251343,-0.211493119597435,0.17070519924163818,-0.009143306873738766,-0.017603976652026176,0.10130642354488373,-0.30875784158706665,-0.06946708261966705,-0.14727993309497833,0.5291304588317871,-0.04861300438642502,0.22875620424747467,0.1462072730064392,0.20895013213157654,-0.2745513617992401,0.08825591951608658,0.10502070188522339,0.13664481043815613,-0.1918601095676422,-0.2941819429397583,0.6049573421478271,-0.5596566796302795,-0.24490156769752502,0.16359290480613708,-0.25003692507743835,-0.1023511216044426,0.4696023762226105,-0.03257232531905174,-0.9895914196968079,0.12574855983257294],[0.299728661775589,0.489596962928772,-0.3773461878299713,-0.24940095841884613,0.013455324806272984,0.14978522062301636,-0.24827127158641815,-0.08060987293720245,0.07549501955509186,0.805401623249054,-1.168547511100769,-0.18851019442081451,-0.2337256520986557,0.32948049902915955,0.08616691827774048,-0.10317736119031906,0.29514235258102417,-0.07483026385307312,0.09322429448366165,-0.030878176912665367,0.00023713975679129362,-0.5205540657043457,0.17102009057998657,0.3854523301124573,-0.6313291788101196,-0.25460749864578247,0.173318013548851,0.09615777432918549,-0.04871070384979248,0.1863035261631012,0.4483715295791626,-0.41027578711509705],[-0.1097368374466896,-0.03476391360163689,-0.2081308662891388,0.057691365480422974,0.15547838807106018,-0.49834293127059937,-0.06651624292135239,-0.29080551862716675,-0.06525614857673645,-0.07859739661216736,-0.0695103257894516,0.14193664491176605,-0.013250000774860382,-0.03213587775826454,0.13797377049922943,-0.15621225535869598,-0.22819189727306366,0.38410577178001404,-0.305265337228775,0.003586775856092572,-0.6449012160301208,-0.13732430338859558,0.06332194060087204,0.02315327152609825,-0.12871217727661133,-0.25650131702423096,0.09534312039613724,-0.03993649408221245,-0.33130979537963867,-0.08075758069753647,-0.11092237383127213,-0.43216055631637573],[-0.3062800168991089,-0.3998662829399109,0.02294294536113739,0.7247262001037598,-0.43007129430770874,0.31812983751296997,-0.9410377144813538,-0.4012218713760376,0.2693101465702057,-0.904215931892395,-0.3638952374458313,0.281380832195282,0.20815740525722504,-0.20946559309959412,0.36364448070526123,-0.06285835802555084,0.05847683548927307,0.4749031662940979,0.2067403346300125,0.15017174184322357,-0.7107588052749634,0.05115974321961403,-0.01969430409371853,-0.19391776621341705,-0.15356062352657318,0.34464603662490845,-0.18765074014663696,-0.03674084320664406,-0.39693281054496765,0.2795758843421936,-0.16899864375591278,0.2658517360687256],[0.13673923909664154,-0.24521586298942566,-0.13366806507110596,-0.1790194809436798,0.12882071733474731,0.16718266904354095,0.1579824537038803,0.13345931470394135,-0.15619029104709625,-0.7944745421409607,-0.07625755667686462,0.22183649241924286,-0.2536265254020691,-0.06150299310684204,0.013586732558906078,0.1296868473291397,0.15184582769870758,-0.16374698281288147,-0.200314000248909,0.06474559009075165,0.08255422860383987,0.21662305295467377,0.20102614164352417,0.03949180617928505,0.16031812131404877,-0.03931276500225067,0.031539663672447205,-0.13180102407932281,0.20626331865787506,0.025310534983873367,-0.0858621597290039,-0.07060463726520538],[-0.08177763968706131,0.10163771361112595,-0.08429344743490219,-0.0687999576330185,-0.23363152146339417,0.1650339812040329,0.012948106974363327,0.05794375762343407,0.09412369132041931,-0.0845736712217331,-0.28884243965148926,0.23371216654777527,-0.2324562668800354,-0.28403401374816895,-0.3400035500526428,0.034219808876514435,0.19213353097438812,0.21747362613677979,-0.1761307269334793,0.06300528347492218,-0.2973388731479645,-0.04981628432869911,0.1955593079328537,0.0012555411085486412,-0.35383710265159607,-0.10434547066688538,-0.31007421016693115,-0.1734701246023178,-0.09534922987222672,-0.41651004552841187,0.04756885766983032,-0.04609324410557747],[-0.16486670076847076,-0.005914729554206133,-0.9364417195320129,0.029943745583295822,0.011502165347337723,-0.25070661306381226,-0.1908545196056366,0.45004114508628845,-0.2169366180896759,0.09287819266319275,-0.8332833051681519,-0.04962174594402313,-0.22180871665477753,0.0918651819229126,-0.10702008008956909,0.05184585228562355,0.007668190635740757,0.034651998430490494,-0.21228834986686707,-0.020411819219589233,0.32340162992477417,-0.526766300201416,-0.14060023427009583,0.06324830651283264,-0.2025626301765442,-0.00394397834315896,-0.09403339773416519,-0.2634015381336212,0.0373847521841526,-0.8547821640968323,-0.4475405514240265,-0.1739930659532547],[0.014527798630297184,0.044956378638744354,0.16027331352233887,-0.13950331509113312,-0.3388499319553375,0.4238721430301666,-0.0073285880498588085,0.3531480133533478,0.09937179088592529,0.22273093461990356,-0.38214051723480225,-0.08425293117761612,-0.004258102271705866,0.14298366010189056,-0.34729892015457153,0.28472205996513367,0.07759656757116318,0.10854499042034149,-0.15178586542606354,0.1728106141090393,0.22795744240283966,0.1255950629711151,-0.334442675113678,0.12573295831680298,0.17516927421092987,-1.1215698719024658,-0.10420286655426025,-0.01882188953459263,-0.7433435320854187,-0.2951560318470001,-0.12079787999391556,-0.5893744826316833],[0.18406710028648376,0.23189526796340942,0.2924816310405731,0.20857420563697815,-0.024086499586701393,-0.9550566077232361,0.031434107571840286,-0.20547881722450256,-0.09163148701190948,0.015247508883476257,-0.001523330109193921,-0.39349499344825745,0.05472533777356148,0.001321424380876124,-0.20419616997241974,-0.0802704319357872,-0.10738121718168259,-0.26689204573631287,-0.13817864656448364,-0.2522181272506714,-0.8305215239524841,0.13540199398994446,0.13025140762329102,0.010812073945999146,-0.13347208499908447,-0.16615702211856842,0.09167198836803436,0.05827341973781586,0.1460637003183365,-0.40136462450027466,0.22094744443893433,-0.3824811279773712],[0.12070415914058685,-0.04193646088242531,-0.13216125965118408,0.07602594792842865,-0.1446712464094162,-0.33929309248924255,0.2691342830657959,0.08688893914222717,0.06510260701179504,0.12660983204841614,-0.6780771017074585,-0.1534574031829834,0.10032319277524948,0.24173718690872192,-0.06678944826126099,0.12373554706573486,0.21689794957637787,-0.3396468758583069,0.05110299587249756,-0.252011775970459,0.02789561077952385,0.11492538452148438,-0.0449812114238739,-0.31060048937797546,-0.15805600583553314,0.08228734135627747,0.11937849968671799,0.042452313005924225,-0.1573083996772766,-0.2895275056362152,-0.1363159716129303,-0.293931782245636],[-0.7665741443634033,-0.5934902429580688,-0.5620843768119812,-0.12092019617557526,-0.1163044422864914,0.26192811131477356,-0.3196128010749817,-0.4725908041000366,0.6311242580413818,-0.46449214220046997,0.3515157103538513,-0.20920893549919128,-0.24143075942993164,-1.1015710830688477,-0.8365726470947266,-0.27220726013183594,-0.9625142216682434,-0.3387767970561981,0.06346917152404785,-0.7616552710533142,-0.2907427251338959,-0.11795171350240707,1.1490874290466309,-0.13412263989448547,0.33980315923690796,-0.1483554244041443,-0.4883471131324768,-0.09002071619033813,0.1944321244955063,1.116875171661377,0.30386999249458313,-0.3650987148284912],[0.026220930740237236,0.18689776957035065,-0.09310512989759445,-0.17219163477420807,-0.082417793571949,0.3707975149154663,-0.19566988945007324,0.15203513205051422,0.11172407120466232,-0.5199086666107178,-0.32859450578689575,0.27872365713119507,0.010719078592956066,0.37236717343330383,0.07379382848739624,0.27631303668022156,0.1766955554485321,0.45037350058555603,-0.21378301084041595,-0.05419350787997246,0.12495595216751099,-0.8453552722930908,0.2842022478580475,-0.5598441958427429,-0.3951438069343567,-0.2959216237068176,0.12071702629327774,0.12758639454841614,0.23036721348762512,-0.3917260468006134,-0.03858938440680504,0.06826065480709076],[0.09870211780071259,0.0876450464129448,0.48496729135513306,0.6691226363182068,-0.04155832156538963,0.2633061408996582,0.3391503691673279,-0.07523811608552933,0.17314653098583221,-0.1933889538049698,0.2799889147281647,0.1610458642244339,-0.05169103667140007,0.15435509383678436,-0.5276100039482117,0.2070591151714325,0.18870173394680023,0.2711113691329956,0.14522519707679749,0.23358982801437378,-0.346418559551239,-0.4965943992137909,0.5948965549468994,-0.07877536118030548,0.39228811860084534,0.15646328032016754,-0.09349047392606735,-0.15838611125946045,-0.05995362997055054,0.48090335726737976,-0.7701396346092224,-0.7574421763420105],[0.007011383771896362,-0.10220250487327576,-0.008520090021193027,-0.1389738768339157,0.05587243661284447,-0.0023937837686389685,0.2751183807849884,0.10823360085487366,0.0823865532875061,-0.23936891555786133,-0.11517634242773056,0.01694994606077671,-0.26681822538375854,-0.22143010795116425,0.16244441270828247,0.18352845311164856,-0.04906020686030388,0.015289435163140297,-0.31095024943351746,0.18791398406028748,0.17002342641353607,-0.3255213499069214,-0.026379110291600227,0.45513370633125305,0.030794575810432434,-0.2237819880247116,0.0347553975880146,-0.18272724747657776,-0.18474742770195007,-0.1416516751050949,-0.43779006600379944,0.0447109118103981],[-0.3469681739807129,-0.02879670076072216,-0.9333791136741638,-0.11297676712274551,0.2593248784542084,0.036303017288446426,-0.45402035117149353,0.18895065784454346,0.5572812557220459,-0.5001471042633057,-0.1995650976896286,0.7638925909996033,0.21793580055236816,-0.20119307935237885,-0.4415431320667267,-0.015583652071654797,-0.353267103433609,-0.025599399581551552,-0.17787088453769684,0.23673363029956818,0.06212901324033737,0.1678725630044937,-0.9044982194900513,-0.5773678421974182,-0.49541038274765015,-0.2751580774784088,-0.07810825854539871,-0.20245788991451263,0.01175634190440178,0.378277450799942,-0.08752702921628952,0.17639245092868805],[-0.23575541377067566,0.2669910192489624,-0.010419804602861404,0.7206101417541504,-0.2789866626262665,-0.5714625716209412,-0.16191820800304413,0.10499069839715958,-0.08394835144281387,-0.0587848499417305,-0.4339543581008911,-0.5977123379707336,0.14463455975055695,-0.1423376351594925,-0.09893161058425903,0.40382084250450134,0.05031208321452141,0.20467841625213623,-0.21645116806030273,-0.8904292583465576,-0.4645000398159027,0.278305321931839,0.9662365913391113,-0.5862199664115906,0.7088056206703186,-0.5227336883544922,0.042990103363990784,-0.14791712164878845,-0.3307795226573944,-0.5050999522209167,-1.1516584157943726,-0.34352630376815796],[0.15180975198745728,0.5454327464103699,1.3184010982513428,-1.0764635801315308,0.03724151849746704,-0.46039894223213196,0.9569810032844543,-1.0205824375152588,0.38102054595947266,0.5281077027320862,1.2289459705352783,-0.3376058042049408,0.16425378620624542,0.4522174000740051,0.47420692443847656,0.7904942631721497,0.9223058819770813,-0.18924739956855774,-0.0687381848692894,-0.41857147216796875,0.1995730698108673,-0.4235987365245819,-0.6096686720848083,0.39732006192207336,0.29322686791419983,-0.04907098412513733,-0.010001735761761665,0.2363860309123993,-0.656745433807373,1.1901031732559204,0.557630181312561,-0.08708121627569199],[0.07758516073226929,0.5051383972167969,-0.1705763041973114,0.15113726258277893,-0.5312852263450623,0.12265197187662125,-0.0876469612121582,-0.19425281882286072,-0.5349349975585938,-0.2282712459564209,-0.09996821731328964,0.21453998982906342,-0.15086603164672852,0.7497263550758362,0.11143113672733307,0.23869092762470245,0.28153982758522034,0.08585759252309799,-0.08218355476856232,-0.017770979553461075,-0.7256550788879395,-0.32071051001548767,-1.0685515403747559,0.5965825319290161,-0.16879072785377502,0.20425362884998322,0.3816183805465698,-0.031517449766397476,0.3091721534729004,-0.08141262829303741,0.0964050367474556,0.37224021553993225],[-0.235788032412529,-0.3903815746307373,0.04328341782093048,-0.1846379041671753,-0.03584688901901245,0.24117186665534973,0.2106393575668335,-0.2379101812839508,0.07735450565814972,-0.05036304146051407,-0.18449677526950836,-0.08142539113759995,-0.011152115650475025,0.029626697301864624,0.02029116079211235,0.2120806872844696,0.2825595438480377,0.20323914289474487,-0.1843678057193756,-0.2992674708366394,0.06240374222397804,-0.19645023345947266,0.19024790823459625,-0.03219788894057274,-0.11177761852741241,-0.21347254514694214,-0.1596667617559433,0.07149667292833328,0.056427087634801865,0.18000954389572144,0.2012806385755539,0.15668626129627228],[-0.20871604979038239,-0.24446424841880798,0.22391128540039062,-0.5842862129211426,-0.22805066406726837,0.12845328450202942,0.2789514660835266,0.025413719937205315,0.30229970812797546,0.05598359927535057,0.06156577542424202,0.048301585018634796,-0.029601406306028366,-0.17838585376739502,0.06697823107242584,0.45825666189193726,0.3048096001148224,-0.21065329015254974,0.16996526718139648,0.06860027462244034,0.3584419786930084,-1.0138152837753296,0.2658233344554901,0.18109962344169617,-0.04635872319340706,0.05844656005501747,-0.16658160090446472,0.22699780762195587,0.2649153470993042,-0.10679014772176743,-0.31735727190971375,0.29412636160850525],[1.0413180589675903,0.46550753712654114,0.34474116563796997,0.2005254477262497,0.8226061463356018,0.38327839970588684,-0.9997273087501526,0.7785491347312927,-0.7945852279663086,-0.28276151418685913,-0.2991524934768677,0.9160953164100647,0.1058880090713501,-0.2186192274093628,0.7975873947143555,-0.33214497566223145,-0.6944809556007385,0.3948804438114166,0.1441459357738495,0.3263387382030487,-0.5054299235343933,-0.19634665548801422,-1.1815855503082275,0.25768035650253296,-0.5537328720092773,-0.14372342824935913,0.49260008335113525,-0.24217350780963898,-0.48690006136894226,0.4798687696456909,0.15444254875183105,0.2849653661251068],[-0.2592261731624603,0.12208607792854309,-0.13422295451164246,-0.02974057011306286,-0.3870092034339905,0.36967170238494873,0.11325318366289139,-0.33306679129600525,-0.06528368592262268,-0.9294847249984741,0.22528523206710815,-0.32039836049079895,-0.04866403341293335,0.24535349011421204,0.282729834318161,0.36316734552383423,0.33061841130256653,-0.1810116320848465,0.11268295347690582,-0.2736258804798126,0.18198880553245544,-1.0108901262283325,0.5247915387153625,0.2424258589744568,-0.5376611351966858,-0.1894558221101761,-0.05172102898359299,-0.18545964360237122,0.16270098090171814,0.0717431902885437,-0.10447312146425247,0.17939765751361847],[-0.19666971266269684,-0.3131466507911682,-0.04772483557462692,-0.5482481718063354,0.3185873329639435,0.2501086890697479,-0.4387202858924866,0.19748324155807495,-0.37908777594566345,-0.11910726130008698,0.45145612955093384,0.17979344725608826,-0.15682189166545868,-0.3087894022464752,-0.4564570188522339,-0.4465121924877167,-0.14264309406280518,0.2091066986322403,-0.21887190639972687,0.2118477076292038,-0.06586678326129913,0.73933345079422,-0.19767460227012634,0.4237084984779358,-0.09483381360769272,-0.4413442015647888,0.13223449885845184,0.16397494077682495,-0.9414383769035339,0.2843354642391205,0.44540736079216003,-0.34274742007255554],[0.45019814372062683,1.033355474472046,-0.44052889943122864,0.28321290016174316,1.1843271255493164,1.0028361082077026,-0.7112412452697754,0.6013548374176025,0.5279232263565063,-1.2250127792358398,-0.6248564124107361,0.3931857943534851,-0.08734327554702759,0.5327438116073608,0.8244533538818359,-0.11971297860145569,0.09990724176168442,1.530755877494812,-0.1576281189918518,0.8032774329185486,-0.8046494126319885,0.22148382663726807,0.13247057795524597,0.8834452629089355,-1.2932329177856445,0.1273135095834732,0.33736005425453186,0.19669991731643677,-0.9788119792938232,-0.5875972509384155,-0.9419202208518982,-0.9523264765739441],[0.19739380478858948,0.06987843662500381,-0.5219268202781677,0.056622471660375595,0.26184606552124023,-0.5927422642707825,-0.3618676960468292,-0.20068863034248352,-0.08413337916135788,-1.0577820539474487,0.18128526210784912,0.021166911348700523,-0.259594589471817,-0.18365570902824402,0.013303425163030624,0.11386198550462723,-0.36705687642097473,0.11336474120616913,-0.18547488749027252,-0.0911150723695755,0.1514766365289688,-0.1573464572429657,0.06567304581403732,-0.17502601444721222,0.10260232537984848,0.05181458964943886,0.08721376210451126,0.17394386231899261,-0.7410701513290405,0.19131790101528168,0.21094459295272827,-0.42676958441734314],[-0.35020115971565247,-0.05612075701355934,-0.05470150336623192,-0.37063518166542053,0.11655500531196594,-0.30660849809646606,-0.07342909276485443,0.16776640713214874,-0.010512512177228928,0.09654450416564941,0.08557640016078949,-0.16214455664157867,-0.09309332817792892,-0.48524633049964905,-0.07800621539354324,0.1715039610862732,-0.07663725316524506,0.14734144508838654,-0.09845864027738571,0.17393912374973297,0.05211714655160904,0.30518218874931335,0.08663550019264221,-0.12199185788631439,0.3605673611164093,-0.2599168121814728,0.07824838161468506,-0.2626190185546875,-0.1300026923418045,0.2709032893180847,0.2660204768180847,-0.005058377515524626],[-0.6115373373031616,-0.35733866691589355,0.1358189731836319,0.643204391002655,-0.3025936782360077,-0.7636716365814209,0.38018131256103516,-0.642573893070221,-0.11270520836114883,-0.2563416659832001,0.0540459118783474,-0.6624448895454407,-0.20010551810264587,-0.41211527585983276,-0.23110421001911163,0.4269784390926361,0.15053659677505493,-0.36353713274002075,-0.28852570056915283,-1.2165334224700928,-0.612595796585083,0.6662338972091675,0.3393109440803528,-0.028808506205677986,-0.5499916672706604,0.14794613420963287,-0.6851202845573425,-0.0330045185983181,0.3889131247997284,0.08999157696962357,0.3258378207683563,0.45909154415130615],[0.15800446271896362,0.04602169990539551,0.004491327330470085,0.29312846064567566,0.12937836349010468,-0.3476317822933197,0.13992880284786224,-0.21806533634662628,-0.3064913749694824,-0.11752402037382126,-0.14307136833667755,0.24842044711112976,0.011996272951364517,-0.1455155462026596,0.05375213921070099,-0.10365255177021027,-0.2626747190952301,0.14745664596557617,-0.15032106637954712,0.19631299376487732,0.12663191556930542,0.14912964403629303,0.28085049986839294,0.2580794095993042,0.19852009415626526,0.09407658874988556,0.29137420654296875,-0.030429929494857788,-0.019428247585892677,-0.6608079671859741,-0.12089361250400543,-0.2204122245311737],[0.734639585018158,0.9887377619743347,-0.2934517562389374,-0.6733053922653198,0.9441778659820557,-0.6772298812866211,-0.036638736724853516,0.23682992160320282,-0.311556339263916,-0.06947998702526093,-0.22093559801578522,-0.5778760313987732,0.22574257850646973,0.5978462100028992,0.42199793457984924,-0.15896378457546234,0.623898983001709,-0.8435473442077637,0.22595298290252686,-0.20464016497135162,0.15726369619369507,-0.38002708554267883,-1.0790655612945557,1.178544044494629,-0.4663904011249542,-0.16667361557483673,0.2786217927932739,-0.162830650806427,-0.5212529897689819,0.033823203295469284,0.3944833278656006,0.32448020577430725],[-0.9015660285949707,-0.3884871304035187,0.5127028226852417,-1.293020248413086,-0.4161335527896881,-0.34073159098625183,0.4569721817970276,-0.17929242551326752,1.2883710861206055,1.376065731048584,1.7307809591293335,0.5071989893913269,-0.14741173386573792,-0.8181166648864746,-0.6924059391021729,0.30620473623275757,-0.6420348286628723,-0.9721272587776184,-0.18654441833496094,-1.0366507768630981,0.28604942560195923,-0.2093847393989563,-0.14717519283294678,-0.3390418589115143,1.1911746263504028,0.19367635250091553,-0.8976368308067322,-0.058094799518585205,-0.12208802253007889,1.4355131387710571,0.8702774047851562,0.68769770860672],[-0.18469499051570892,-0.12844336032867432,-1.5575467348098755,0.019037723541259766,-0.5632209181785583,0.42843708395957947,-0.07722404599189758,0.2249501645565033,0.6854509711265564,-0.37829434871673584,-0.05314851179718971,0.7066274881362915,0.10361945629119873,-0.4936215877532959,-0.305605411529541,-0.5073019862174988,-0.813498854637146,0.7871484160423279,-0.25367066264152527,0.4700171649456024,-0.758227527141571,-0.33745142817497253,-0.052949219942092896,-0.25070300698280334,-0.08073896914720535,0.12253697216510773,-0.06349287927150726,-0.04065364599227905,0.6355121731758118,-0.7006754875183105,-0.17112798988819122,-0.4876337945461273],[-0.3035230040550232,0.06805528700351715,0.02666042558848858,-0.35980817675590515,-0.14725710451602936,-0.08213013410568237,-0.12567605078220367,0.3382210433483124,-0.3611685335636139,-0.35898035764694214,0.028941256925463676,-0.17549362778663635,-0.1286260187625885,0.1311286985874176,-0.022339222952723503,0.07519617676734924,0.1211269274353981,0.3032669126987457,-0.16051000356674194,0.24844028055667877,-0.046773914247751236,0.2048586905002594,0.28915074467658997,-0.23868735134601593,0.21362149715423584,-0.12219412624835968,-0.03337278217077255,-0.30544131994247437,-0.07265646010637283,0.3105746805667877,-0.20186784863471985,-0.29048293828964233],[0.0661655142903328,0.40263381600379944,-0.13758350908756256,-0.4183826446533203,0.21522121131420135,0.1810443103313446,0.17118322849273682,-0.02874559909105301,-0.05245714634656906,0.13400112092494965,0.15484856069087982,0.0893140658736229,-0.1659751832485199,0.1759776622056961,0.13842062652111053,0.38050439953804016,0.40009841322898865,-0.27302858233451843,-0.016984984278678894,0.19920626282691956,0.19383364915847778,-0.5549428462982178,0.11676759272813797,0.22407934069633484,0.5192111134529114,-0.37282365560531616,0.11437935382127762,-0.06793143600225449,-0.6212967038154602,0.178129181265831,-0.052907343953847885,-0.13253112137317657],[0.042203694581985474,1.6313501596450806,0.9159278273582458,-0.4485800862312317,1.6088409423828125,-0.1753673106431961,0.631791889667511,0.44599443674087524,-0.008670111186802387,0.5676920413970947,-0.24248874187469482,0.04973846301436424,-0.20071367919445038,1.964461088180542,0.14002834260463715,0.8674120306968689,1.2933082580566406,0.2998170256614685,0.15658670663833618,-1.3241245746612549,-0.08412427455186844,-0.010746331885457039,-0.1384047418832779,1.8816238641738892,-0.05979814752936363,-0.16970495879650116,0.14915427565574646,-0.16067183017730713,0.08444919437170029,0.5256142020225525,-0.028358325362205505,0.08950231969356537],[-0.1640283465385437,0.25262877345085144,-0.17798031866550446,0.11214116215705872,0.10666707158088684,-0.5072917938232422,0.06327217817306519,-0.7590841054916382,-0.20933182537555695,-0.44095543026924133,-0.34239906072616577,-0.7674461007118225,0.08063707500696182,0.07382964342832565,0.01017849426716566,0.003018609480932355,-0.11386512964963913,-0.13617855310440063,-0.33941739797592163,-0.09451822191476822,-0.8242926001548767,0.4743601083755493,0.22120314836502075,0.0662381649017334,-0.2629443109035492,-0.02102697640657425,0.04681737348437309,-0.10491013526916504,0.0997915267944336,-0.40608760714530945,0.06948474794626236,0.22648029029369354],[0.23720936477184296,-0.14989332854747772,0.43262678384780884,-0.2457721084356308,-0.46563759446144104,0.053171150386333466,0.04387952387332916,-0.6012778282165527,-0.4264383316040039,-0.07935864478349686,-0.029041284695267677,0.2489950954914093,0.06151920557022095,-0.3607507348060608,-0.13225071132183075,-0.039237357676029205,-0.3010573089122772,-0.5804014205932617,0.007646629586815834,-0.08860279619693756,-0.5044549107551575,-0.38264000415802,-0.8738247752189636,0.08204738795757294,-0.5465999841690063,-0.2651745080947876,-0.004221898969262838,0.04774080216884613,0.17409315705299377,-0.12452350556850433,-0.3493264317512512,-0.07446818798780441],[0.4556952714920044,-0.011764311231672764,0.3813945949077606,-1.4051517248153687,-0.021416347473859787,0.04282880201935768,-0.10938587784767151,0.4309401214122772,0.42782700061798096,0.5694230198860168,0.6194359064102173,0.6053930521011353,0.13363046944141388,-0.18936596810817719,0.4901309609413147,0.18361470103263855,-0.1422147899866104,-0.09225178509950638,-0.06621093302965164,0.09898984432220459,-0.001583782723173499,-0.1477796733379364,0.35717445611953735,-0.03979329764842987,0.4858953654766083,0.19342751801013947,0.3293642997741699,0.20808757841587067,-0.5056788325309753,0.8389959931373596,0.26015153527259827,0.757880687713623],[-0.05556792765855789,-0.21632803976535797,0.036784376949071884,-0.16355770826339722,0.2666376531124115,0.10773380845785141,-0.3219839036464691,0.07712430506944656,0.14919400215148926,-0.008713549003005028,0.14434422552585602,0.17987282574176788,-0.16308318078517914,-0.28020399808883667,-0.3514789044857025,-0.0032646607141941786,0.03453778102993965,0.06783872842788696,-0.12164756655693054,0.06444422155618668,0.20342780649662018,-0.8287379741668701,0.06732501834630966,0.3637264668941498,0.22621697187423706,0.11788595467805862,-0.10089965909719467,0.11140325665473938,-0.11936278641223907,0.1800481379032135,-0.07280031591653824,0.6561768651008606],[0.10560063272714615,0.2178809493780136,-0.05124400556087494,-0.3427004814147949,-0.21683810651302338,-0.07445597648620605,-0.2555433511734009,0.09536002576351166,0.4002401530742645,-0.3417198657989502,-0.15315686166286469,0.27586883306503296,0.08300279825925827,0.12993058562278748,0.0748523622751236,-0.012219478376209736,0.12612365186214447,0.10695952922105789,-0.21314305067062378,0.041991524398326874,0.07878699153661728,-0.3763205111026764,-0.4798523485660553,0.19864781200885773,-0.07570753991603851,-0.5004914402961731,-0.08211757242679596,-0.20926357805728912,-0.32501667737960815,-0.12005335837602615,0.1886702924966812,-0.14631104469299316],[0.34654349088668823,1.430195689201355,0.48124727606773376,0.43370476365089417,0.7578772306442261,-0.7244933843612671,-0.08412964642047882,-0.2628239691257477,-0.20768244564533234,0.009681500494480133,0.4449727237224579,-0.2698241174221039,0.10632668435573578,1.0818202495574951,0.9347293972969055,0.2944437861442566,1.0375070571899414,-1.056639313697815,0.10492371767759323,-0.7209586501121521,0.5146616697311401,-0.3634679913520813,0.0019845932256430387,1.3178317546844482,-0.11884061247110367,0.09400060772895813,0.42126303911209106,-0.09730866551399231,-0.7995768189430237,-0.30174756050109863,0.7452442049980164,0.594269335269928],[0.09646452963352203,-0.27167457342147827,-0.2642231583595276,0.10219139605760574,0.005847474094480276,0.026044541969895363,-0.18145950138568878,0.13251443207263947,0.22141410410404205,-0.260768324136734,-0.20162025094032288,-0.22040189802646637,-0.19052673876285553,0.08922138810157776,-0.23014655709266663,-0.04277379810810089,-0.04271639138460159,0.16765177249908447,0.12550634145736694,0.27968400716781616,-0.028293948620557785,-0.24514168500900269,-0.4091830849647522,-0.4594452977180481,0.07706370949745178,0.03594609349966049,-0.07840821146965027,-0.032583191990852356,-0.244523286819458,-0.9211927652359009,-0.14016681909561157,-0.33006179332733154],[-0.05515235662460327,-0.26531025767326355,0.5814433693885803,-0.04225096106529236,0.0780191496014595,0.1585325449705124,0.24849338829517365,-1.005950927734375,0.028227679431438446,0.5647516846656799,0.47485145926475525,-0.5093665719032288,0.054775431752204895,-0.3908765912055969,-0.42535173892974854,0.015585123561322689,0.253606915473938,-0.2847510278224945,0.12224951386451721,-0.11832120269536972,-0.6270308494567871,-0.14177639782428741,-0.13567191362380981,-0.16005578637123108,0.4596760869026184,-0.41205352544784546,0.07106434553861618,0.13144685328006744,0.5739784836769104,0.2907029390335083,-0.9558855891227722,0.2893242835998535],[-0.01277745608240366,-0.06342027336359024,0.010778521187603474,-0.2079484462738037,-0.43096867203712463,0.035071469843387604,0.10980910807847977,0.16992852091789246,-0.20353075861930847,-0.4789791703224182,-0.24306730926036835,0.039497293531894684,0.11336305737495422,0.20044095814228058,0.14400044083595276,0.21445390582084656,0.09873075038194656,0.11880816519260406,0.0816677138209343,0.1134112998843193,-0.13986323773860931,0.1748591512441635,-0.4979274272918701,-0.02107294835150242,0.21755088865756989,-0.07553844898939133,0.20695991814136505,0.03791283071041107,-0.251543253660202,0.06929270923137665,-0.7012792229652405,-0.1932782381772995],[0.4052879214286804,-0.20986966788768768,0.021911296993494034,-0.8746488094329834,0.24092119932174683,0.6293850541114807,-0.6087114810943604,0.17655512690544128,-0.670712411403656,0.3014145791530609,-0.20061348378658295,0.4336869418621063,0.10388551652431488,-0.21847938001155853,-0.007501873187720776,-0.367238312959671,-0.4774875342845917,0.3510674238204956,-0.13652773201465607,0.06337085366249084,0.2749866247177124,0.1733471304178238,-0.9018511772155762,0.5275123119354248,-0.3849043846130371,-0.09213986992835999,0.29910027980804443,0.2014026939868927,-0.43642187118530273,-0.6251494884490967,0.22468571364879608,0.277250736951828],[0.38782429695129395,0.6339219212532043,0.06889316439628601,-0.3228326737880707,0.713127613067627,-0.1662364900112152,0.1626051962375641,0.39449256658554077,-1.098738431930542,0.17865897715091705,0.5498571395874023,0.4868718385696411,0.04874623939394951,0.9531542658805847,0.9658001661300659,0.0964515283703804,0.5061134099960327,-0.06566011160612106,0.12714411318302155,0.22751978039741516,0.4224341809749603,0.1366209089756012,0.017441390082240105,0.2446444034576416,0.05382999777793884,0.2221624255180359,0.7654513120651245,-0.10000909864902496,-0.15090447664260864,0.4209001958370209,-0.3416285514831543,0.44623464345932007],[-0.5301331281661987,-0.53206866979599,0.5345625281333923,-0.9846370220184326,-0.4302276372909546,-0.40045371651649475,0.6070079207420349,-0.23099204897880554,0.9707193970680237,1.341448187828064,1.1339111328125,0.23005171120166779,-0.008932053111493587,-0.357347309589386,-0.30058789253234863,0.2738276422023773,-0.5076411962509155,-1.2319722175598145,0.08397160470485687,-0.7801253795623779,0.13128191232681274,0.08975265175104141,-0.019157761707901955,-0.23666083812713623,0.5437131524085999,0.23797859251499176,-0.38279542326927185,0.07116305828094482,-0.13960710167884827,0.8874894380569458,0.5432007312774658,0.5974339842796326],[0.6279163360595703,0.6972383856773376,0.008882076479494572,0.780288577079773,0.6525445580482483,0.11682283133268356,-0.40960633754730225,-0.09950417280197144,0.5217375755310059,-0.3586772084236145,-0.9087740778923035,0.0765099748969078,0.09375622868537903,0.35472917556762695,0.47805458307266235,0.28536418080329895,0.6193230748176575,-0.15905101597309113,-0.2181771844625473,0.2672799527645111,-0.16046234965324402,-0.02792242541909218,-0.19475437700748444,0.7152652740478516,-0.20081868767738342,0.035526785999536514,0.40763795375823975,-0.14241261780261993,-0.008143934421241283,-0.7407070398330688,0.09492162615060806,0.2675855755805969],[-0.1997106671333313,0.022588228806853294,-0.1274644136428833,-0.17905589938163757,0.1392066478729248,-0.03047366254031658,0.006944598630070686,0.11815197765827179,0.0508737750351429,0.11194386333227158,-0.3179742097854614,-0.20249886810779572,-0.0579487681388855,-0.14542923867702484,0.19393712282180786,0.20322105288505554,0.09475436061620712,-0.17976681888103485,-0.16549234092235565,-0.020990192890167236,-0.40097561478614807,0.12890520691871643,-0.3944515287876129,-0.45381325483322144,-0.0494500957429409,0.0629139095544815,-0.18649303913116455,-0.11304795742034912,-0.2113037109375,-0.1637820601463318,0.03874194249510765,-0.6608648896217346],[-0.2728046476840973,-0.8720007538795471,-1.1333130598068237,-0.7141429781913757,-0.4802124500274658,-1.0571409463882446,-0.6147294044494629,-0.3418290615081787,0.2985771894454956,-0.21933703124523163,1.0578900575637817,-0.5369871258735657,-0.22327864170074463,-0.6064175963401794,-0.4549652636051178,-0.6502850651741028,-0.6916908025741577,-0.4325353503227234,0.11321055889129639,-0.26518571376800537,0.23370321094989777,-0.16734257340431213,-0.875433623790741,-0.12104980647563934,-0.23736253380775452,-0.0025494901929050684,-0.27059274911880493,0.028419634327292442,-0.6127223372459412,0.6912786960601807,0.35398879647254944,-0.5893426537513733],[0.41172391176223755,0.43754860758781433,-0.055663906037807465,-0.9507545232772827,0.31019967794418335,-0.005201652646064758,0.0921441838145256,-0.22860187292099,0.298290878534317,0.041913412511348724,-0.000025259672838728875,-0.5805225968360901,-0.2898991107940674,-0.03678930550813675,0.22150632739067078,-0.14900963008403778,-0.06048053130507469,-0.18771925568580627,0.09215052425861359,-0.11461564898490906,-0.6301571726799011,-0.37421751022338867,0.1393066942691803,0.1520535945892334,-0.29336124658584595,-0.6885809302330017,0.3628693222999573,-0.08036714792251587,0.3346734046936035,-0.19222284853458405,-0.6487472653388977,-0.14375025033950806],[0.11032292991876602,0.2748929560184479,0.5666525959968567,-0.26442354917526245,-0.20286516845226288,-0.09237626940011978,0.14514154195785522,0.04134468361735344,0.24179291725158691,0.5551924109458923,0.48440638184547424,-0.10748890042304993,-0.2199140191078186,0.4581943154335022,0.1135513111948967,0.5510450601577759,0.40308210253715515,-0.022886833176016808,-0.03635437414050102,-0.4385409355163574,0.187137633562088,-0.8776425123214722,0.2703290283679962,-0.09956319630146027,0.4440745711326599,-0.10360009968280792,-0.14975689351558685,0.026240715757012367,0.1235617995262146,0.5898578763008118,-0.5319623947143555,-0.2531600594520569],[0.08583898842334747,0.6259532570838928,0.34318381547927856,0.32079949975013733,0.23356586694717407,0.16051018238067627,0.28063175082206726,0.0030929935164749622,-0.19702015817165375,-0.32853373885154724,0.1864432394504547,0.19319991767406464,-0.21038667857646942,0.7585163116455078,0.49837541580200195,0.2496732622385025,0.2749424874782562,0.0064561679027974606,-0.1469966173171997,0.37835514545440674,0.06430412828922272,0.007397238630801439,-0.15659527480602264,0.608180582523346,-0.17767088115215302,-0.18647383153438568,0.30320969223976135,-0.13476014137268066,-0.21562832593917847,-0.16291555762290955,0.3541938364505768,-0.04089178517460823],[-0.3645094335079193,-0.49344104528427124,-1.3477081060409546,0.8369159698486328,-0.32802605628967285,-0.020777683705091476,-0.5479916334152222,-0.7190080881118774,0.05636292323470116,-0.05285526067018509,-0.08848731964826584,0.437356173992157,-0.002897711470723152,-0.11524904519319534,-0.2063928246498108,-0.15689581632614136,-0.38633283972740173,0.18056924641132355,0.14561967551708221,0.032105520367622375,-0.04521450027823448,-0.27667999267578125,0.2605149447917938,-1.2500799894332886,0.466948926448822,-0.24028149247169495,-0.5269035696983337,-0.07049247622489929,-1.0400217771530151,0.09252507984638214,0.2984934151172638,0.3727818727493286],[-0.17337898910045624,-0.24838128685951233,-1.213438630104065,0.1468951404094696,0.2948862314224243,-0.13316483795642853,0.5160775780677795,-0.16952937841415405,-0.13501867651939392,-1.1251981258392334,-0.09813234210014343,0.35385429859161377,0.09096232056617737,-0.0772041380405426,-0.34209930896759033,0.13352617621421814,0.13688507676124573,0.3701106011867523,0.16433949768543243,0.13490493595600128,0.26127466559410095,0.27286288142204285,0.17217037081718445,0.25071272253990173,0.1561240255832672,0.11498677730560303,-0.377692312002182,-0.1864020973443985,-0.2380622923374176,-0.27399078011512756,0.05478884279727936,-0.044328104704618454],[-0.08968062698841095,-0.22320371866226196,-0.04410835728049278,-0.14076265692710876,-0.4083157777786255,0.8401848077774048,-0.1391238570213318,-0.024968910962343216,0.06046948581933975,0.24809911847114563,0.21431007981300354,0.33495375514030457,-0.028874998912215233,-0.45833685994148254,-0.46137189865112305,-0.6706555485725403,-0.486928254365921,0.7790318131446838,0.06632836908102036,0.7804257273674011,0.2127416878938675,-0.4997078478336334,0.004441631026566029,-0.25616422295570374,-0.022498462349176407,-0.04314442351460457,-0.305620402097702,-0.2542198896408081,-0.0167162474244833,0.2402433156967163,0.1129448190331459,0.415309876203537],[0.07576561719179153,-0.05332467332482338,-0.38008248805999756,0.014020056463778019,-0.04993016645312309,-0.6029159426689148,0.12312937527894974,0.11564826965332031,0.08441128581762314,-0.14681613445281982,-0.6134836077690125,0.02696731500327587,-0.2955018877983093,-0.03059455007314682,-0.19597962498664856,0.10087934136390686,0.07563763856887817,-0.4146536886692047,-0.14482487738132477,-0.1041376069188118,-0.4494144320487976,0.03536698594689369,-0.04855922982096672,-0.37156960368156433,-0.10802118480205536,-0.15350757539272308,0.15301357209682465,-0.13028711080551147,-0.6456793546676636,-0.7910389304161072,-0.10015749931335449,-0.34738895297050476],[0.043043047189712524,-0.26420682668685913,-0.2798388600349426,-0.15780164301395416,-0.3325066864490509,-0.3037540912628174,0.07942645251750946,0.05972341075539589,-0.06295415014028549,-0.522149920463562,-0.03877473250031471,-0.39481255412101746,0.056817688047885895,0.0008689961396157742,-0.14646703004837036,0.15873907506465912,-0.22529077529907227,0.0322638563811779,-0.19011792540550232,0.045945629477500916,0.002549898810684681,-0.010491006076335907,0.3002927899360657,-0.23945364356040955,0.3290497958660126,-0.5439489483833313,-0.18430545926094055,-0.19078123569488525,0.06536247581243515,0.10840105265378952,-0.15817566215991974,0.21303650736808777],[0.21176648139953613,0.08772116899490356,-0.26013946533203125,0.5093389749526978,0.3310999274253845,0.215400829911232,0.04584163799881935,-0.20432735979557037,-0.07410687953233719,0.30791544914245605,-0.329008549451828,0.1629902422428131,-0.16748352348804474,0.11919146776199341,0.2551356852054596,-0.18676869571208954,-0.2920313775539398,-0.4994199872016907,0.05052785575389862,-0.02489681914448738,-0.7662227749824524,0.22139640152454376,-0.06226586177945137,0.14804157614707947,-0.03653188794851303,0.4367258548736572,0.16657723486423492,-0.08144035190343857,0.2530153691768646,-0.03456368297338486,-0.7327051162719727,-0.25475719571113586],[0.06931434571743011,0.1914949268102646,-0.22553235292434692,0.11355378478765488,0.09665459394454956,-0.6773823499679565,0.0071961344219744205,-0.16390550136566162,-0.20409710705280304,-0.03341812640428543,0.028812918812036514,0.11428476125001907,-0.1451498121023178,-0.020911386236548424,-0.20704801380634308,-0.13011392951011658,0.021560797467827797,-0.13539175689220428,-0.16187794506549835,-0.25406455993652344,-0.2922707200050354,-0.08739705383777618,0.19874556362628937,0.10357727855443954,-0.14027376472949982,0.11653345078229904,-0.09059970080852509,-0.2385157346725464,-0.4299781024456024,-0.6784676313400269,-0.24256466329097748,-0.42153429985046387],[-0.7032756209373474,-0.015296402387320995,0.6281288266181946,0.03905879333615303,-0.6618388295173645,-0.8333504796028137,0.052975814789533615,-0.050408121198415756,1.172548770904541,0.8011861443519592,0.042771369218826294,0.18128812313079834,0.16124027967453003,0.05420958250761032,-0.7743473649024963,0.4068578779697418,0.143179789185524,-0.4807016849517822,-0.0392557829618454,-0.5230293273925781,0.48875048756599426,-0.09874352812767029,0.18119587004184723,-0.009860736317932606,-0.21103985607624054,0.11992672830820084,-0.59381502866745,0.21321314573287964,1.057776927947998,-0.6902374029159546,0.5522416234016418,0.2608606517314911],[-0.006040051579475403,0.030159002169966698,-0.05039563402533531,0.010872632265090942,-0.09712599217891693,0.11076103895902634,-0.05539475753903389,0.09247469902038574,0.044704411178827286,-0.10829538106918335,-0.25794628262519836,-0.17813414335250854,0.020398028194904327,0.10044983774423599,0.20329725742340088,0.10054941475391388,-0.07450293749570847,0.0869276374578476,-0.2573412358760834,0.017184458673000336,-0.9628700017929077,0.1239698976278305,-0.32306769490242004,-0.39827483892440796,-0.21005778014659882,-0.05225633829832077,0.009462865069508553,0.009355442598462105,-0.023313697427511215,-0.2910752594470978,-0.15968579053878784,-0.09419543296098709]],"bias":[0.16743417084217072,0.16050541400909424,0.01779322884976864,-0.4052352011203766,0.2506759464740753,0.0009320497047156096,-0.018299009650945663,-0.059194356203079224,-0.1268170177936554,0.04398578777909279,-0.060830678790807724,0.04674933850765228,-0.09784020483493805,0.11287581920623779,0.2744470536708832,0.014886210672557354,0.17555490136146545,-0.004024201538413763,-0.09624175727367401,0.09538551419973373,-0.05036115646362305,-0.22663003206253052,-0.05170302838087082,0.012222451157867908,0.09576478600502014,-0.16941486299037933,0.17606881260871887,-0.1112334281206131,-0.15037856996059418,0.026889782398939133,-0.04714963212609291,-0.06811989843845367],"activation":"relu"},{"weights":[[0.3449511229991913,0.1101691797375679,-0.30453965067863464],[0.2440173178911209,0.21874849498271942,-0.20623131096363068],[-1.6579761505126953,1.7363394498825073,-1.1339952945709229],[-0.2638334333896637,0.3286973834037781,0.38363590836524963],[0.5421146154403687,0.26133474707603455,0.012728018686175346],[0.9414656162261963,-1.2104394435882568,0.6632928848266602],[-0.10058671981096268,0.1986851990222931,0.04593420401215553],[0.5953481197357178,0.04395080357789993,0.20038756728172302],[-0.5237302780151367,0.19171878695487976,0.7980861663818359],[-1.3470689058303833,1.0520265102386475,0.8680287599563599],[-1.327824592590332,1.0545856952667236,0.6444711089134216],[0.39001789689064026,-0.9195202589035034,0.7583881616592407],[-0.2541653513908386,-0.19745883345603943,-0.20221036672592163],[-0.3549995422363281,-0.22014769911766052,-0.8496928811073303],[0.4069734215736389,0.30311816930770874,-0.2613045275211334],[-0.2723235487937927,0.24273256957530975,-0.17346227169036865],[-0.28889426589012146,0.10010150074958801,-0.6086779832839966],[0.5107189416885376,-0.8362741470336914,0.009118263609707355],[0.17169910669326782,0.10365257412195206,0.29379400610923767],[0.4659074544906616,-0.6145001649856567,0.12105485796928406],[-0.7498377561569214,1.1953922510147095,-1.565324068069458],[0.01416464988142252,-0.20822688937187195,0.45147228240966797],[-0.9560117721557617,1.0665897130966187,-0.2049439698457718],[0.5478619337081909,0.2044420689344406,-1.3410996198654175],[-0.6649584174156189,0.25794193148612976,0.47466155886650085],[-0.27499911189079285,-0.10036994516849518,0.09528858214616776],[-0.029676206409931183,-0.16752946376800537,-0.40814927220344543],[0.1883467584848404,-0.014380630105733871,0.25130870938301086],[-0.794625997543335,-0.09898198395967484,0.7438769936561584],[-1.4952160120010376,0.7227505445480347,0.7914597988128662],[-1.6043651103973389,1.2110594511032104,0.3135184049606323],[1.227330207824707,-1.3264721632003784,0.15123526751995087]],"bias":[0.23083926737308502,-0.16218112409114838,-0.08738581836223602],"activation":"softmax"}],"name":"BNB Bear Agent","description":"Trained to detect sell signals on BNB reversals","color":"#ec4899","icon":"TrendingDown"}