{
  "name": "Momentum Trader",
  "description": "Follows price trends — buys on uptrends, sells on downtrends",
  "color": "#f97316",
  "icon": "TrendingUp",
  "inputWindow": 10,
  "layers": [
    {
      "weights": [
        [
          0.04000000000000001,
          0.036000000000000004,
          0.032,
          0.028000000000000004,
          0.024000000000000004,
          0.020000000000000004,
          0.016000000000000004,
          0.012,
          -0.04000000000000001,
          -0.036000000000000004,
          -0.032,
          -0.028000000000000004,
          -0.024000000000000004,
          -0.020000000000000004,
          -0.016000000000000004,
          -0.012
        ],
        [
          0.08000000000000002,
          0.07200000000000001,
          0.064,
          0.05600000000000001,
          0.04800000000000001,
          0.04000000000000001,
          0.03200000000000001,
          0.024,
          -0.08000000000000002,
          -0.07200000000000001,
          -0.064,
          -0.05600000000000001,
          -0.04800000000000001,
          -0.04000000000000001,
          -0.03200000000000001,
          -0.024
        ],
        [
          0.12,
          0.10800000000000001,
          0.096,
          0.084,
          0.07200000000000001,
          0.06,
          0.04800000000000001,
          0.036,
          -0.12,
          -0.10800000000000001,
          -0.096,
          -0.084,
          -0.07200000000000001,
          -0.06,
          -0.04800000000000001,
          -0.036
        ],
        [
          0.16000000000000003,
          0.14400000000000002,
          0.128,
          0.11200000000000002,
          0.09600000000000002,
          0.08000000000000002,
          0.06400000000000002,
          0.048,
          -0.16000000000000003,
          -0.14400000000000002,
          -0.128,
          -0.11200000000000002,
          -0.09600000000000002,
          -0.08000000000000002,
          -0.06400000000000002,
          -0.048
        ],
        [
          0.2,
          0.18000000000000002,
          0.16,
          0.14,
          0.12000000000000001,
          0.1,
          0.08000000000000002,
          0.06,
          -0.2,
          -0.18000000000000002,
          -0.16,
          -0.14,
          -0.12000000000000001,
          -0.1,
          -0.08000000000000002,
          -0.06
        ],
        [
          0.24,
          0.21600000000000003,
          0.192,
          0.168,
          0.14400000000000002,
          0.12,
          0.09600000000000002,
          0.072,
          -0.24,
          -0.21600000000000003,
          -0.192,
          -0.168,
          -0.14400000000000002,
          -0.12,
          -0.09600000000000002,
          -0.072
        ],
        [
          0.27999999999999997,
          0.252,
          0.22399999999999998,
          0.196,
          0.168,
          0.13999999999999999,
          0.11200000000000002,
          0.08399999999999999,
          -0.27999999999999997,
          -0.252,
          -0.22399999999999998,
          -0.196,
          -0.168,
          -0.13999999999999999,
          -0.11200000000000002,
          -0.08399999999999999
        ],
        [
          0.32000000000000006,
          0.28800000000000003,
          0.256,
          0.22400000000000003,
          0.19200000000000003,
          0.16000000000000003,
          0.12800000000000003,
          0.096,
          -0.32000000000000006,
          -0.28800000000000003,
          -0.256,
          -0.22400000000000003,
          -0.19200000000000003,
          -0.16000000000000003,
          -0.12800000000000003,
          -0.096
        ],
        [
          0.36000000000000004,
          0.32400000000000007,
          0.28800000000000003,
          0.25200000000000006,
          0.21600000000000003,
          0.18000000000000002,
          0.14400000000000004,
          0.108,
          -0.36000000000000004,
          -0.32400000000000007,
          -0.28800000000000003,
          -0.25200000000000006,
          -0.21600000000000003,
          -0.18000000000000002,
          -0.14400000000000004,
          -0.108
        ],
        [
          0.4,
          0.36000000000000004,
          0.32,
          0.28,
          0.24000000000000002,
          0.2,
          0.16000000000000003,
          0.12,
          -0.4,
          -0.36000000000000004,
          -0.32,
          -0.28,
          -0.24000000000000002,
          -0.2,
          -0.16000000000000003,
          -0.12
        ]
      ],
      "bias": [
        0,
        0,
        0,
        0,
        0,
        0,
        0,
        0,
        0,
        0,
        0,
        0,
        0,
        0,
        0,
        0
      ],
      "activation": "relu"
    },
    {
      "weights": [
        [
          0.35,
          0.35,
          0.35,
          0.35,
          -0.05,
          -0.05,
          -0.05,
          -0.05
        ],
        [
          0.35,
          0.35,
          0.35,
          0.35,
          -0.05,
          -0.05,
          -0.05,
          -0.05
        ],
        [
          0.35,
          0.35,
          0.35,
          0.35,
          -0.05,
          -0.05,
          -0.05,
          -0.05
        ],
        [
          0.35,
          0.35,
          0.35,
          0.35,
          -0.05,
          -0.05,
          -0.05,
          -0.05
        ],
        [
          0.35,
          0.35,
          0.35,
          0.35,
          -0.05,
          -0.05,
          -0.05,
          -0.05
        ],
        [
          0.35,
          0.35,
          0.35,
          0.35,
          -0.05,
          -0.05,
          -0.05,
          -0.05
        ],
        [
          0.35,
          0.35,
          0.35,
          0.35,
          -0.05,
          -0.05,
          -0.05,
          -0.05
        ],
        [
          0.35,
          0.35,
          0.35,
          0.35,
          -0.05,
          -0.05,
          -0.05,
          -0.05
        ],
        [
          -0.05,
          -0.05,
          -0.05,
          -0.05,
          0.35,
          0.35,
          0.35,
          0.35
        ],
        [
          -0.05,
          -0.05,
          -0.05,
          -0.05,
          0.35,
          0.35,
          0.35,
          0.35
        ],
        [
          -0.05,
          -0.05,
          -0.05,
          -0.05,
          0.35,
          0.35,
          0.35,
          0.35
        ],
        [
          -0.05,
          -0.05,
          -0.05,
          -0.05,
          0.35,
          0.35,
          0.35,
          0.35
        ],
        [
          -0.05,
          -0.05,
          -0.05,
          -0.05,
          0.35,
          0.35,
          0.35,
          0.35
        ],
        [
          -0.05,
          -0.05,
          -0.05,
          -0.05,
          0.35,
          0.35,
          0.35,
          0.35
        ],
        [
          -0.05,
          -0.05,
          -0.05,
          -0.05,
          0.35,
          0.35,
          0.35,
          0.35
        ],
        [
          -0.05,
          -0.05,
          -0.05,
          -0.05,
          0.35,
          0.35,
          0.35,
          0.35
        ]
      ],
      "bias": [
        0,
        0,
        0,
        0,
        0,
        0,
        0,
        0
      ],
      "activation": "relu"
    },
    {
      "weights": [
        [
          0.7,
          -0.3,
          0.05
        ],
        [
          0.7,
          -0.3,
          0.05
        ],
        [
          0.7,
          -0.3,
          0.05
        ],
        [
          0.7,
          -0.3,
          0.05
        ],
        [
          -0.3,
          0.7,
          0.05
        ],
        [
          -0.3,
          0.7,
          0.05
        ],
        [
          -0.3,
          0.7,
          0.05
        ],
        [
          -0.3,
          0.7,
          0.05
        ]
      ],
      "bias": [
        0.1,
        -0.1,
        0
      ],
      "activation": "softmax"
    }
  ]
}