{
  "name": "Volatility Scalper",
  "description": "Trades aggressively during volatile swings, holds when calm",
  "color": "#627eea",
  "icon": "Activity",
  "inputWindow": 10,
  "layers": [
    {
      "weights": [
        [
          0,
          0.03510330247561491,
          0.03941798919953841,
          0.0028294880667081163,
          0.013399526006236204,
          -0.03204574462187735,
          -0.034863030896543516,
          -0.03745826749163186,
          -0.02525066551489287,
          -0.008431831977231189,
          0.026279463948751566,
          0.0283467909716504,
          0.034183956323531266,
          0.03906350502912095,
          -0.014659165170077072,
          0.013865412713401035
        ],
        [
          0.05153741497901529,
          0.043224184469451185,
          0.06905674933190992,
          -0.0332917469237714,
          -0.02806265821516959,
          -0.07919939972803564,
          -0.07859620900994663,
          -0.052291489669088954,
          0.0013451120387479771,
          0.0226929748370581,
          0.07905345871016004,
          0.0768136229320293,
          0.025527868987948173,
          0.06031218034746438,
          -0.07037566079773361,
          -0.011640002704689085
        ],
        [
          0.11825396759861523,
          0.008488464200124349,
          0.04019857801870862,
          -0.09613723386563205,
          -0.10458909268963053,
          -0.11237480247489556,
          -0.0757519965446786,
          -0.025295495931693564,
          0.07883839184625469,
          0.0850403729149512,
          0.10255186897059376,
          0.11719051508736283,
          -0.04397749551023122,
          0.0415962381402031,
          -0.1175013274981581,
          -0.07224142832217884
        ],
        [
          0.13811349866381983,
          -0.0665834938475428,
          -0.05612531643033918,
          -0.15839879945607127,
          -0.15719241801989325,
          -0.10458297933817791,
          0.0026902240774959543,
          0.0453859496741162,
          0.15810691742032007,
          0.1536272458640586,
          0.05105573797589635,
          0.12062436069492875,
          -0.14075132159546722,
          -0.02328000540937817,
          -0.09890193795792557,
          -0.14578084190154833
        ],
        [
          0.06699763003118102,
          -0.16022872310938674,
          -0.17431515448271756,
          -0.1872913374581593,
          -0.12625332757446434,
          -0.04215915988615594,
          0.13139731974375782,
          0.141733954858252,
          0.1709197816176563,
          0.19531752514560471,
          -0.07329582585038535,
          0.06932706356700517,
          -0.1958355458302635,
          -0.12040238053696473,
          0.006724609444227339,
          -0.1994344312392757
        ],
        [
          -0.08418797464550876,
          -0.23759819918410688,
          -0.23578862702983983,
          -0.15687446900726687,
          0.004035336116243931,
          0.0680789245111743,
          0.23716037613048005,
          0.23044086879608786,
          0.07658360696384452,
          0.1809365410423931,
          -0.21112698239320082,
          -0.03492000811406725,
          -0.14835290693688832,
          -0.21867126285232247,
          0.16069674292718425,
          -0.2013771669783486
        ],
        [
          -0.24404121627580455,
          -0.26220787244142296,
          -0.17675465860425005,
          -0.05902282384061831,
          0.18395624764126095,
          0.19842753680155278,
          0.23928769426471877,
          0.27344453520384654,
          -0.10261415619053949,
          0.09705788899380724,
          -0.2741697641623689,
          -0.16856333275175062,
          0.009414453221918275,
          -0.27920820373498595,
          0.2773700595945637,
          -0.13315033983887792
        ],
        [
          -0.3143848360397865,
          -0.20916595867635582,
          0.0053804481549919085,
          0.0907718993482324,
          0.31621383484064014,
          0.3072544917281172,
          0.1021114759517927,
          0.2412487213898575,
          -0.28150264319093443,
          -0.04656001081875634,
          -0.19780387591585114,
          -0.29156168380309666,
          0.21426232390291236,
          -0.2685028893044648,
          0.270638985965739,
          0.0014162233561762516
        ],
        [
          -0.2272559896340358,
          -0.0758864877950807,
          0.2365151755387641,
          0.2551211187448536,
          0.30765560691178134,
          0.35157154526208845,
          -0.13193248653069364,
          0.1247887144206093,
          -0.3525039824944743,
          -0.2167242849665365,
          0.012104296999609212,
          -0.3589819762306963,
          0.35661864805015336,
          -0.17119329407855732,
          0.10912260842845344,
          0.17398971315108214
        ],
        [
          0.0067255601937398855,
          0.1134648741852905,
          0.39526729355080015,
          0.38406811466014645,
          0.12763934493974086,
          0.30156090173732186,
          -0.35187830398866804,
          -0.05820001352344542,
          -0.2472548448948139,
          -0.3644521047538708,
          0.26782790487864044,
          -0.335628611630581,
          0.33829873245717373,
          0.0017702791952203143,
          -0.15282856687360236,
          0.3375415834929969
        ]
      ],
      "bias": [
        0.02,
        0.02,
        0.02,
        0.02,
        0.02,
        0.02,
        0.02,
        0.02,
        0.02,
        0.02,
        0.02,
        0.02,
        0.02,
        0.02,
        0.02,
        0.02
      ],
      "activation": "relu"
    },
    {
      "weights": [
        [
          0,
          0.21580234166221843,
          -0.21789394310339705,
          0.004203475121087428,
          0.21364972702207013,
          -0.2199239399929175,
          0.008405761805284174,
          0.21143670778573356
        ],
        [
          0.19583172740687083,
          0.0352800020149668,
          -0.2314536705819331,
          0.19841696596228817,
          0.031113605876765867,
          -0.22983213141616893,
          0.20094610663790524,
          0.026938413074861015
        ],
        [
          0.24346190771954881,
          -0.17194153979599344,
          -0.06985387454973147,
          0.24247245271127157,
          -0.17496867189838558,
          -0.06580794784145066,
          0.2414144441373195,
          -0.17794633559228076
        ],
        [
          0.10684497005845754,
          -0.24904115220896017,
          0.14460994109704986,
          0.10302962131043915,
          -0.2486381470509973,
          0.14801837867680576,
          0.09918514328265342,
          -0.2481648451176583
        ],
        [
          -0.11063011082371302,
          -0.1376713856494094,
          0.24963583634365125,
          -0.11438397344383035,
          -0.13414322950010873,
          0.2498273471869794,
          -0.11810549659961654,
          -0.1305771474066829
        ],
        [
          -0.24438252941627425,
          0.07788534087834446,
          0.16574230752054583,
          -0.2452340575166228,
          0.08186860978442326,
          0.1625719600392792,
          -0.24601625127041069,
          0.08582873220497385
        ],
        [
          -0.19319112188899693,
          0.23449999419368472,
          -0.04358169530574491,
          -0.19049589597975833,
          0.23592391736102605,
          -0.04771464534354691,
          -0.18774681169291904,
          0.23728113841197337
        ],
        [
          0.004203475121087428,
          0.21364972702207013,
          -0.2199239399929175,
          0.008405761805284174,
          0.21143670778573356,
          -0.22189175839537614,
          0.012605671951702806,
          0.20916390963401402
        ],
        [
          0.19841696596228817,
          0.031113605876765867,
          -0.22983213141616893,
          0.20094610663790524,
          0.026938413074861015,
          -0.22814561244779613,
          0.20341843437677634,
          0.022755604049961967
        ],
        [
          0.24247245271127157,
          -0.17496867189838558,
          -0.06580794784145066,
          0.2414144441373195,
          -0.17794633559228076,
          -0.06174341543415608,
          0.24028818112552913,
          -0.18087368901106124
        ],
        [
          0.10302962131043915,
          -0.2486381470509973,
          0.14801837867680576,
          0.09918514328265342,
          -0.2481648451176583,
          0.15138496742990026,
          0.09531262291373586,
          -0.24762138022428912
        ],
        [
          -0.11438397344383035,
          -0.13414322950010873,
          0.2498273471869794,
          -0.11810549659961654,
          -0.1305771474066829,
          0.2499482250356673,
          -0.12179362811512738,
          -0.1269741475976563
        ],
        [
          -0.2452340575166228,
          0.08186860978442326,
          0.1625719600392792,
          -0.24601625127041069,
          0.08582873220497385,
          0.15935564903755972,
          -0.2467288895301622,
          0.08976458850554207
        ],
        [
          -0.19049589597975833,
          0.23592391736102605,
          -0.04771464534354691,
          -0.18774681169291904,
          0.23728113841197337,
          -0.051834105151689694,
          -0.18494464626947335,
          0.23857127362317423
        ],
        [
          0.008405761805284174,
          0.21143670778573356,
          -0.22189175839537614,
          0.012605671951702806,
          0.20916390963401402,
          -0.22379684195492006,
          0.01680201813136873,
          0.20683197514884466
        ],
        [
          0.20094610663790524,
          0.026938413074861015,
          -0.22814561244779613,
          0.20341843437677634,
          0.022755604049961967,
          -0.22639459050165595,
          0.20583325018451987,
          0.018566361396090327
        ]
      ],
      "bias": [
        0.01,
        0.01,
        0.01,
        0.01,
        0.01,
        0.01,
        0.01,
        0.01
      ],
      "activation": "relu"
    },
    {
      "weights": [
        [
          0.5,
          -0.1,
          0.15
        ],
        [
          -0.1,
          0.5,
          0.15
        ],
        [
          -0.1,
          -0.1,
          0.6
        ],
        [
          0.5,
          -0.1,
          0.15
        ],
        [
          -0.1,
          0.5,
          0.15
        ],
        [
          -0.1,
          -0.1,
          0.6
        ],
        [
          0.5,
          -0.1,
          0.15
        ],
        [
          -0.1,
          0.5,
          0.15
        ]
      ],
      "bias": [
        -0.05,
        -0.05,
        0.2
      ],
      "activation": "softmax"
    }
  ]
}