{"inputWindow":5,"layers":[{"weights":[[0.058161139488220215,0.21078765392303467,0.39146366715431213,0.010571397840976715,-0.13055287301540375,0.13075418770313263,0.41332048177719116,-0.2048719972372055,-0.5617200136184692,-0.3886599540710449,-0.00015497587446589023,-0.305936723947525,-0.11125209927558899,0.16169977188110352,0.344789981842041,-0.41156286001205444,0.47930073738098145,0.05430753529071808,-0.1414720118045807,0.04491618275642395,0.044693585485219955,-0.050528474152088165,-0.11604183912277222,-0.5997697114944458,0.30113062262535095,0.01177796721458435,0.22124159336090088,0.18871040642261505,-0.3909192979335785,0.5252193212509155,0.38222652673721313,0.24190770089626312,0.37845057249069214,-0.5118348598480225,0.0650976225733757,0.08709864318370819,0.022238362580537796,0.4747108221054077,0.35359060764312744,0.04296723008155823,0.0486137717962265,0.3354354798793793,0.009014541283249855,0.4176495671272278,-0.674963653087616,0.13449954986572266,-0.17098988592624664,0.2355487048625946,-0.010580102913081646,-0.05755816772580147,0.28546008467674255,0.18329566717147827,0.06733524054288864,-0.025407958775758743,0.5329926013946533,-0.01582811027765274,-0.5810627937316895,0.860542356967926,0.07622652500867844,-0.3681873381137848,-0.29487714171409607,0.3113814890384674,-0.4773671627044678,-0.0911606177687645],[0.15152788162231445,0.05520951747894287,0.15546828508377075,-0.21506750583648682,0.025093406438827515,0.09652909636497498,0.13880184292793274,0.25140970945358276,0.19068992137908936,-0.10474242269992828,-0.07066430151462555,0.19181209802627563,-0.026129484176635742,0.040390998125076294,0.228864848613739,-0.08313009142875671,-0.1636277735233307,0.2469310760498047,-0.17294517159461975,-0.24143892526626587,0.23716139793395996,0.12071558833122253,-0.079426109790802,-0.24845589697360992,0.18811097741127014,-0.17311707139015198,-0.10535378754138947,0.20868852734565735,0.20115402340888977,-0.12978307902812958,-0.20459088683128357,0.2412550449371338,0.13217437267303467,0.0005910694599151611,-0.0034286975860595703,0.18053779006004333,0.09328040480613708,-0.08721621334552765,-0.17233318090438843,-0.24124856293201447,0.15561234951019287,0.17365756630897522,-0.24934719502925873,-0.002205967903137207,-0.06941977143287659,-0.11522059142589569,0.16502365469932556,0.242051362991333,0.01502874493598938,0.0505366325378418,-0.013912677764892578,0.012415140867233276,-0.017571836709976196,-0.24858149886131287,-0.2253665179014206,0.06109514832496643,-0.14904311299324036,-0.2594100534915924,0.18473705649375916,-0.11389665305614471,0.14018741250038147,0.21831396222114563,-0.11853167414665222,-0.21927322447299957],[-0.1918073445558548,0.023717235773801804,-0.4792177975177765,-0.30821582674980164,-0.11559788882732391,-0.3034420609474182,-0.22335074841976166,0.024267347529530525,0.16246306896209717,0.09612102806568146,-0.1640137881040573,-0.20937100052833557,-0.03091130405664444,-0.5666734576225281,-0.22178427875041962,0.013024457730352879,-0.001356252352707088,-0.25037726759910583,0.15918473899364471,0.07863540202379227,0.144608274102211,-0.17896577715873718,-0.4947618842124939,-0.2577436566352844,-0.17353764176368713,-0.251370370388031,-0.20021085441112518,0.16330471634864807,-0.14067065715789795,0.11713584512472153,-0.49530526995658875,-0.19337902963161469,-0.2462598830461502,-0.16200661659240723,0.045561593025922775,0.08801977336406708,-0.5557770133018494,0.1427524834871292,-0.23090265691280365,-0.1001671552658081,-0.2809499204158783,-0.4269636273384094,-0.14396266639232635,-0.06054190546274185,-0.12795287370681763,-0.651145339012146,-0.4028337597846985,0.0792684257030487,-0.19676220417022705,-0.4055129885673523,0.15456289052963257,-0.07516537606716156,-0.2164347916841507,-0.3575587570667267,-0.03800438717007637,0.19760531187057495,-0.016173023730516434,0.20407113432884216,-0.04632516950368881,-0.11729104816913605,0.06979423761367798,-0.23566067218780518,-0.3274238407611847,-0.2429870218038559],[0.29662466049194336,0.3635120987892151,-0.1268002986907959,-0.30135267972946167,0.2676185071468353,0.07836946099996567,0.09865494817495346,-0.11296038329601288,-0.24091877043247223,0.09037073701620102,-0.3499607741832733,-0.21811650693416595,-0.1327437460422516,-0.3005543649196625,-0.06373227387666702,-0.38639378547668457,-0.39720335602760315,0.12049010396003723,0.3273693919181824,-0.3865797817707062,-0.26552021503448486,-0.10941711068153381,0.3304922580718994,-0.14106681942939758,-0.5926632285118103,-0.2894635796546936,0.17871324717998505,-0.10474299639463425,-0.031207861378788948,0.05802927538752556,0.052873119711875916,-0.31458204984664917,-0.11772705614566803,-0.21485932171344757,0.20471735298633575,0.13833197951316833,0.026330390945076942,-0.47389858961105347,0.40003007650375366,-0.12939609587192535,-0.5202949047088623,0.14555348455905914,-0.32075271010398865,-0.07989378273487091,0.11455903202295303,0.28549233078956604,-0.4188149571418762,0.010671889409422874,0.3666903078556061,0.1426316201686859,-0.05752738192677498,0.15867838263511658,0.27649128437042236,0.3678845763206482,-0.4879911541938782,0.3887084424495697,0.028379537165164948,-0.14824169874191284,0.2885313332080841,-0.15379709005355835,-0.007239348255097866,0.07443127036094666,0.04983258247375488,0.18881110846996307],[0.341457337141037,-0.25537946820259094,-0.5863137245178223,0.07732704281806946,0.15703023970127106,0.3947658836841583,0.09421446919441223,0.36087045073509216,-0.2098199874162674,0.056612979620695114,-0.29177626967430115,-0.3417890667915344,0.040931057184934616,0.2383476346731186,0.3844238519668579,0.7575749754905701,-0.3591287136077881,0.005741443019360304,-0.3478776216506958,-0.31718960404396057,-0.41004493832588196,0.3009779453277588,0.13803942501544952,0.1266789734363556,-0.1466386914253235,-0.6456876397132874,-0.6487399339675903,0.4389774203300476,0.14540237188339233,-0.10676770657300949,0.11598742008209229,0.16894352436065674,-0.3308042287826538,-0.16914372146129608,-0.5199907422065735,0.051385290920734406,-0.0956878513097763,0.1887647807598114,-0.4033457636833191,0.14900405704975128,-0.05056804418563843,-0.5856978297233582,-0.760249674320221,-0.942450225353241,-0.23303084075450897,0.14063787460327148,0.014937816187739372,-0.062253259122371674,0.32277482748031616,-0.16925343871116638,0.4477093815803528,0.1035042330622673,-0.01725153438746929,-0.21452093124389648,0.20490171015262604,0.19085019826889038,-0.634983479976654,0.17296355962753296,0.12798072397708893,0.36306828260421753,-0.5027872323989868,-0.06981244683265686,0.34233975410461426,0.22631698846817017],[0.6051101684570312,-0.3768853545188904,-0.20876921713352203,0.4145439565181732,0.021991509944200516,-0.3000766634941101,-0.3545336425304413,0.7447220683097839,-0.009548353031277657,0.4507931172847748,0.5245427489280701,0.857038676738739,-0.6327872276306152,0.73647141456604,-0.19566446542739868,-0.14118580520153046,-0.09235536307096481,0.6381228566169739,0.37528008222579956,-0.6869646310806274,-0.34395021200180054,-0.6118027567863464,0.2860243618488312,0.671339750289917,0.05463562160730362,0.061664748936891556,0.40595555305480957,-0.46363627910614014,-0.2775433659553528,-0.10591699928045273,0.3215239644050598,0.2719908058643341,-0.791842520236969,0.19369830191135406,-0.03217731788754463,0.2829914093017578,-0.7145333886146545,-0.27306053042411804,0.13417789340019226,-0.03393759950995445,-0.3579544425010681,-0.28024184703826904,0.31983470916748047,0.3693996071815491,0.6486811637878418,-0.08812382817268372,-0.5372377634048462,-0.06899908185005188,0.1691477745771408,0.6865681409835815,-0.2318013459444046,-0.01766671985387802,-0.5320731401443481,-0.3205665349960327,-0.4111156761646271,-0.4682058095932007,0.5595281720161438,-0.5236625671386719,0.12040045857429504,0.012807303108274937,0.36020252108573914,-0.33402910828590393,0.41311535239219666,-0.2304028868675232],[0.7468148469924927,-0.7415788173675537,-0.35944947600364685,-0.29072901606559753,0.14942710101604462,-0.38523200154304504,-0.5164551138877869,-0.5957483053207397,-0.18624749779701233,0.31092315912246704,-0.4146779775619507,0.14041690528392792,-0.11620438098907471,-0.2537142336368561,-0.011229166761040688,-0.05710813030600548,-0.2274022251367569,0.8269703388214111,0.19683150947093964,-1.196170449256897,0.4574596583843231,0.7642136216163635,0.6091418862342834,0.8516534566879272,-0.849284291267395,0.21231642365455627,0.951480507850647,-0.09769738465547562,-1.0011705160140991,-0.7384491562843323,0.5718368291854858,-0.3575521409511566,-0.6184778809547424,-0.520002543926239,0.07082251459360123,0.02924986183643341,-0.07903249561786652,0.09787949174642563,0.25179529190063477,-0.26498690247535706,0.8747912645339966,-0.19972357153892517,-0.014413666911423206,-0.1506921350955963,0.8943765163421631,0.42966628074645996,0.15536855161190033,0.18637710809707642,0.7505476474761963,1.7649998664855957,-0.42709407210350037,0.7211775779724121,-0.40260615944862366,-0.09857174009084702,0.9460268020629883,0.01126029435545206,1.6711735725402832,-0.3350375294685364,-1.386321783065796,-0.0008850353769958019,-0.017089219763875008,0.44587451219558716,0.6455935835838318,0.07710639387369156],[-0.20289821922779083,-0.17984431982040405,-0.6010397672653198,-0.236481711268425,0.22175510227680206,0.16773875057697296,0.06512272357940674,0.10145597904920578,0.13600412011146545,-0.2379067838191986,-0.07266344130039215,0.0031458591111004353,-0.014135957695543766,-0.6492112278938293,-0.33371829986572266,0.1640011966228485,0.0754966214299202,-0.43324175477027893,0.01812625303864479,-0.08079219609498978,0.08168765902519226,-0.17011988162994385,-0.047006525099277496,0.1244434341788292,0.16807350516319275,0.040515657514333725,0.0643007829785347,0.1350845992565155,-0.3411747217178345,-0.24118468165397644,-0.48676812648773193,-0.15504007041454315,-0.6150996088981628,-0.42887818813323975,0.08904342353343964,-0.08760729432106018,-0.467327356338501,0.12849535048007965,-0.1674845665693283,0.12939269840717316,-0.14091438055038452,-0.43318843841552734,-0.20298631489276886,0.1741785705089569,-0.1696937531232834,-0.7118772268295288,-0.2533635199069977,0.12948840856552124,-0.0713612362742424,-0.391060471534729,-0.2916295528411865,0.20867741107940674,0.0920192077755928,-0.008454659022390842,0.005913129076361656,-0.02209182269871235,-0.06800973415374756,-0.10771419107913971,0.021397650241851807,0.15419436991214752,-0.1274181753396988,0.01626424491405487,-0.17453473806381226,0.003191982628777623],[0.49346205592155457,0.3013395071029663,0.09611282497644424,0.11091790348291397,0.2525008022785187,-0.12145188450813293,-0.16616907715797424,-0.3016915023326874,-0.21400970220565796,0.2331043779850006,-0.2652568519115448,0.13787899911403656,-0.0019515344174578786,-0.22918979823589325,-0.3908555507659912,-0.3007635474205017,-0.29100266098976135,-0.07802014797925949,0.1021774485707283,-0.297164648771286,-0.017230667173862457,-0.41982442140579224,0.35407763719558716,0.18699410557746887,-0.5374153256416321,0.13911792635917664,0.473069965839386,0.013354933820664883,-0.18900541961193085,-0.07260282337665558,-0.08344408124685287,-0.14511816203594208,0.015926940366625786,-0.39004260301589966,0.35398346185684204,0.23840861022472382,0.23720493912696838,-0.5658435225486755,0.3128896951675415,0.002465530764311552,-0.34154292941093445,-0.02157323807477951,-0.29306694865226746,-0.17640039324760437,0.10849247872829437,0.37632492184638977,-0.16668906807899475,0.21432475745677948,0.23155786097049713,-0.1225254237651825,-0.018940312787890434,-0.16639533638954163,0.3558427691459656,-0.004995360970497131,-0.4902757406234741,0.24869318306446075,-0.2981445789337158,-0.038974419236183167,-0.06546857208013535,-0.2324002981185913,0.02791115641593933,-0.07579464465379715,-0.21334916353225708,0.29310670495033264],[0.2598913311958313,-0.255244642496109,-0.6597470045089722,-0.23820403218269348,0.4026279151439667,0.2002878040075302,-0.060288310050964355,0.20342962443828583,-0.11590106785297394,-0.2974840998649597,0.1830155849456787,-0.4308857321739197,-0.2644364833831787,0.36459070444107056,0.08364786207675934,0.3000979423522949,-0.5588332414627075,0.053208690136671066,-0.525309145450592,0.16704468429088593,-0.11631827801465988,0.04234183579683304,0.3031851649284363,0.5219533443450928,-0.16688451170921326,-0.6871082186698914,-0.6968295574188232,0.7361401319503784,-0.2044689953327179,0.02347492426633835,0.04716094583272934,0.06250469386577606,-0.4457317590713501,-0.08413694053888321,-0.5218256115913391,0.2365783005952835,-0.10991068184375763,0.3114233613014221,-0.23827044665813446,0.1082916408777237,-0.08388403058052063,-0.6070814728736877,-0.7055624127388,-0.9680630564689636,-0.20971499383449554,0.1625061333179474,0.1714421510696411,-0.33580347895622253,0.37986695766448975,-0.221551775932312,0.36276698112487793,-0.3681766390800476,-0.10424088686704636,0.276052862405777,0.3635597229003906,0.45297715067863464,-0.6692180037498474,0.04606720432639122,0.5089393258094788,0.08781986683607101,-0.42703479528427124,-0.008960052393376827,-0.012186958454549313,0.24308344721794128],[-0.08892807364463806,0.03030252456665039,-0.032787468284368515,-0.48689767718315125,0.44733649492263794,-0.668764591217041,-0.6251128911972046,0.1618356555700302,0.452659010887146,-0.7909939289093018,-0.5674765110015869,-0.20290039479732513,-0.07986880838871002,-0.34555691480636597,-0.17171072959899902,-0.20250572264194489,-0.28449299931526184,-0.009865273721516132,0.3945823013782501,-0.48147276043891907,0.47206804156303406,0.34200626611709595,-0.6798863410949707,-0.47988182306289673,-0.1838793307542801,-0.4684031307697296,0.2736152112483978,0.25600647926330566,0.23313501477241516,-0.3596366345882416,-0.13727407157421112,-0.08905723690986633,-0.08659695833921432,0.6412559151649475,0.03735290467739105,-0.6725382804870605,-0.26149705052375793,-0.471165269613266,0.3140920102596283,-0.5475865006446838,0.45173659920692444,0.37872931361198425,0.621416449546814,-0.4270488917827606,0.3839971721172333,-0.4771329164505005,0.23182734847068787,0.45063963532447815,-0.4025062620639801,-0.2058737576007843,-0.3161216080188751,-0.008271152153611183,0.09541713446378708,-0.03127462416887283,-0.39356496930122375,0.387756884098053,0.21460670232772827,-0.39986976981163025,-0.0694197341799736,0.1331704705953598,-0.42396050691604614,0.7306514978408813,0.3554792106151581,0.5873379707336426],[-0.4273536503314972,-1.3765243291854858,-1.007446527481079,-1.7470765113830566,0.5866329073905945,0.07987683266401291,-1.0921465158462524,0.029088538140058517,-1.2260395288467407,-0.3970687985420227,-0.8678982853889465,-0.03459424152970314,-0.005628046113997698,-0.16342712938785553,-0.7125890851020813,0.8182265758514404,-2.2702689170837402,-0.048931416124105453,0.596809983253479,0.3697839677333832,-0.16046884655952454,0.16411878168582916,-0.435044527053833,0.989867627620697,0.2437402904033661,-0.07953449338674545,-1.4597294330596924,0.6570193767547607,0.3954998254776001,-0.8842764496803284,-1.5778037309646606,0.9024937748908997,0.0808202475309372,-0.25460556149482727,-0.6600084900856018,0.32476189732551575,-0.006019311025738716,0.8329694867134094,0.2251039296388626,-0.025259708985686302,0.2074945718050003,0.8131452202796936,-1.4765725135803223,-1.1250839233398438,0.09482814371585846,-0.626399576663971,1.0983412265777588,1.4108314514160156,0.8028639554977417,-0.5617116093635559,0.56402188539505,-0.2201785147190094,0.6730039119720459,-0.8439815044403076,0.016118891537189484,0.9408576488494873,-0.7287611365318298,0.3564654290676117,0.3285694718360901,1.234572172164917,-0.2391539365053177,-0.9957144260406494,0.10819979012012482,1.2216691970825195],[-0.27931857109069824,0.07078097760677338,-0.19584238529205322,-0.19435767829418182,0.14259375631809235,-0.24671383202075958,-0.060907647013664246,-0.007946950383484364,0.009451278485357761,-0.0582113042473793,0.1711285561323166,0.1684272289276123,0.13875965774059296,-0.4204884171485901,0.01377109345048666,-0.14954394102096558,0.14913219213485718,-0.40575554966926575,-0.1810724288225174,0.17683938145637512,0.1644824892282486,0.0805218443274498,-0.4346451461315155,0.17623566091060638,-0.009146632626652718,-0.1957615613937378,0.04086967930197716,-0.23965167999267578,-0.3617441654205322,-0.08528304845094681,-0.5517649054527283,-0.18549059331417084,-0.6725406050682068,-0.15930935740470886,-0.08143743872642517,0.0065465630032122135,-0.3806900978088379,0.138993039727211,0.2745077908039093,0.06359967589378357,-0.32147833704948425,-0.1628706455230713,0.0733337551355362,-0.16866245865821838,-0.14428117871284485,-0.8364995718002319,-0.39098793268203735,-0.1919344961643219,-0.19670379161834717,-0.012478436343371868,-0.016654103994369507,0.24260640144348145,0.13392169773578644,-0.11627177894115448,-0.009237288497388363,0.2026297152042389,-0.10122400522232056,-0.15007919073104858,0.0892564132809639,-0.11838148534297943,-0.08484677970409393,0.10537755489349365,-0.19665688276290894,-0.12374868243932724],[0.44483327865600586,0.18290507793426514,-0.24588671326637268,-0.03011460229754448,0.38241007924079895,-0.2300366461277008,0.30396729707717896,-0.18527355790138245,0.2194250524044037,0.1501431167125702,-0.3867703378200531,-0.14245493710041046,0.0008441545069217682,-0.09412263333797455,-0.47392207384109497,-0.33761703968048096,-0.11892442405223846,0.3778998553752899,0.14230018854141235,-0.030014894902706146,-0.10391531139612198,-0.3094393014907837,0.12106887996196747,0.004961065482348204,-0.4013962745666504,0.01573490910232067,0.07844165712594986,-0.27059268951416016,-0.2180502861738205,0.2023385614156723,0.08337081223726273,-0.08874364197254181,-0.09913282096385956,-0.34893685579299927,0.3316236734390259,0.2379220575094223,0.06211574748158455,-0.3854362964630127,0.12787921726703644,0.23667281866073608,-0.30677828192710876,0.13816730678081512,-0.14696799218654633,-0.4360869526863098,-0.24222032725811005,0.30384573340415955,-0.11999349296092987,0.11465879529714584,0.11349892616271973,-0.0279771126806736,0.17257677018642426,0.01203979179263115,0.12090205401182175,0.0716962143778801,-0.24417704343795776,0.08127456903457642,-0.34814947843551636,-0.178207129240036,0.0859285518527031,0.1036352813243866,0.266003280878067,-0.24629855155944824,0.1338467001914978,0.03735038638114929],[0.06940135359764099,-0.18310564756393433,-0.4400389492511749,-0.19980280101299286,0.22260506451129913,0.32208284735679626,0.17967674136161804,0.3550287187099457,-0.3732945919036865,-0.2043432593345642,0.17876139283180237,0.05703548341989517,-0.21158766746520996,0.37665846943855286,-0.12042327225208282,0.7110891342163086,-0.5392520427703857,0.23868070542812347,-0.36130911111831665,0.18766267597675323,-0.21567267179489136,0.3032512068748474,0.2828651964664459,0.629498302936554,-0.0674990713596344,-0.5677955746650696,-0.8607672452926636,0.375896692276001,-0.3030746877193451,0.0849103257060051,0.08767197281122208,-0.10677211731672287,-0.060337431728839874,0.07540114969015121,-0.34662091732025146,0.0825275108218193,0.27427101135253906,-0.04885116219520569,-0.6809667348861694,0.04735405370593071,-0.3371775448322296,-0.7259783148765564,-0.7755417227745056,-0.8241586089134216,-0.32181453704833984,0.28392550349235535,0.030693430453538895,-0.2295558750629425,0.3155350685119629,0.03425672650337219,0.3505380153656006,-0.2835138440132141,0.3016107976436615,-0.1672370433807373,0.28894656896591187,0.6372866630554199,-0.7902651429176331,0.04034581407904625,0.283333957195282,0.41029053926467896,-0.6306881308555603,0.1128619834780693,0.18909454345703125,0.3145184814929962],[-0.111701101064682,-0.14730492234230042,0.1289467215538025,0.1742672324180603,-0.43212610483169556,-0.5796880125999451,-0.26244065165519714,-0.5621447563171387,-0.5592727065086365,0.10404213517904282,-0.4237934648990631,0.5971708297729492,0.7916146516799927,-0.05545174330472946,-0.29374831914901733,0.03263765946030617,-0.1504516452550888,-0.29967597126960754,0.482596218585968,0.585298478603363,-0.7323417067527771,0.2199741154909134,0.20602530241012573,0.34957924485206604,-0.11926370114088058,0.705518364906311,0.012356610037386417,0.4623587429523468,-0.24971798062324524,-0.4947831630706787,-0.38657206296920776,0.10675643384456635,0.36318036913871765,0.09036959707736969,0.44582781195640564,0.19556386768817902,0.05103449150919914,0.20761166512966156,0.06308121979236603,0.6134458780288696,0.017512677237391472,-0.41471296548843384,-0.15378285944461823,-0.12409605085849762,0.2604880630970001,0.08394805341959,0.6742284297943115,0.15818746387958527,0.04952619597315788,-0.028790922835469246,0.20373019576072693,-0.2937391698360443,0.011528415605425835,0.15773725509643555,0.4867047369480133,0.03669717535376549,-0.03858741745352745,-0.2845173180103302,-0.0823102593421936,0.41455942392349243,0.30654802918434143,-0.24648717045783997,-0.2568730413913727,0.257510244846344],[0.12361866980791092,0.7824700474739075,0.005638827104121447,1.2531607151031494,-0.4008280634880066,-0.0986175388097763,0.8655779361724854,-0.08839462697505951,1.2078423500061035,0.020323792472481728,0.7643927931785583,0.25478529930114746,0.1186932697892189,0.5971397161483765,0.10807199776172638,0.8282275795936584,1.8639039993286133,-0.9356327056884766,-0.2656587064266205,0.2506939768791199,-0.7129026055335999,0.37142232060432434,0.16389289498329163,-0.02733060158789158,0.20558926463127136,0.01283680647611618,-0.17006346583366394,0.35573211312294006,0.11483108252286911,0.5182113647460938,0.9382930994033813,0.29597410559654236,-0.2915487587451935,-0.2218649685382843,0.40195080637931824,0.1369573324918747,-0.1864892840385437,-0.9723503589630127,-0.7941281199455261,1.5101532936096191,-1.528274416923523,-0.17332766950130463,0.17684665322303772,-0.16856016218662262,-1.2578777074813843,0.9384443163871765,0.7542252540588379,-0.76556396484375,-0.4882948696613312,-0.9214529991149902,0.7041617631912231,-0.679669976234436,-1.2532923221588135,0.5078384876251221,-0.9142730236053467,0.524502694606781,-1.6215784549713135,-0.4192695617675781,0.88907790184021,-0.3450165390968323,0.6950160264968872,-0.43315044045448303,-0.20049843192100525,-0.11438258737325668],[-0.05692652240395546,0.07924403250217438,-0.46938005089759827,0.1098421961069107,-0.2326822429895401,0.06807935237884521,-0.1667703539133072,0.09104988723993301,-0.14633908867835999,0.20890817046165466,-0.17702616751194,-0.1907259225845337,-0.18159963190555573,-0.2975237965583801,-0.14784552156925201,-0.2696212828159332,-0.1292082667350769,0.047056201845407486,-0.08832043409347534,-0.07192688435316086,-0.20158077776432037,-0.28172603249549866,-0.20021134614944458,0.06701399385929108,-0.004622365348041058,0.1739574372768402,-0.0997123196721077,-0.17923596501350403,-0.3192090392112732,0.17115506529808044,-0.7092127203941345,-0.41259506344795227,-0.2758307158946991,-0.1597854495048523,0.07744134217500687,0.12047079205513,-0.33314037322998047,0.11811838299036026,-0.04318033531308174,-0.060985319316387177,-0.3714950382709503,-0.49110889434814453,-0.25772979855537415,0.2034238576889038,0.003532445291057229,-0.4541803300380707,0.013888969086110592,-0.1501929759979248,-0.13254976272583008,-0.12729591131210327,0.18718528747558594,0.0475141741335392,-0.3016645908355713,-0.3142940104007721,-0.09740661084651947,-0.17565903067588806,0.15039394795894623,0.003123273840174079,0.09346691519021988,-0.03394657373428345,-0.013662786222994328,0.1422887146472931,-0.011274621821939945,0.07540726661682129],[0.2651723325252533,0.042823370546102524,0.14189928770065308,-0.3303653597831726,0.10287667065858841,-0.1893419325351715,-0.10639218240976334,0.11181126534938812,0.13819211721420288,0.2697705626487732,-0.1366029530763626,-0.19863714277744293,0.07181347161531448,-0.4036533534526825,-0.10299813002347946,-0.2723524570465088,-0.19551736116409302,0.019497066736221313,0.4199889302253723,-0.16699635982513428,0.22439292073249817,-0.42888695001602173,0.3628925085067749,-0.09640154987573624,-0.5972985625267029,-0.2726229429244995,-0.022659696638584137,-0.11538153141736984,-0.10609589517116547,0.17956893146038055,0.14773179590702057,-0.06237894669175148,-0.1388019621372223,0.057838402688503265,0.023520931601524353,-0.14848588407039642,0.2877148687839508,-0.2896882891654968,0.2698519825935364,0.16011929512023926,-0.3522137701511383,0.11837275326251984,-0.33096346259117126,-0.4001384973526001,0.0003052731917705387,0.1404666006565094,-0.279136061668396,0.14709113538265228,0.14261965453624725,0.305650532245636,-0.07400596886873245,-0.12162351608276367,0.32631146907806396,0.3022295832633972,-0.47619950771331787,0.33803483843803406,-0.3628281354904175,-0.08542288094758987,-0.08083008974790573,0.19721585512161255,0.2554206848144531,-0.2772013545036316,-0.029878495261073112,0.1774386614561081],[0.25351545214653015,-0.20781168341636658,-0.5704474449157715,-0.3483729958534241,0.13592809438705444,0.40806207060813904,0.02849733643233776,-0.07483553141355515,-0.44794130325317383,-0.06348609924316406,-0.12812763452529907,-0.36775994300842285,-0.12618781626224518,0.28821179270744324,0.18877121806144714,0.39425742626190186,-0.4367169737815857,0.30027303099632263,-0.35100114345550537,-0.25187116861343384,-0.4205571115016937,-0.1762971431016922,0.2219698280096054,0.18133419752120972,0.19368568062782288,-0.40325507521629333,-0.9274486303329468,0.4075217843055725,-0.012150849215686321,-0.13633199036121368,0.10269413143396378,-0.14667391777038574,-0.03290756046772003,0.2545088827610016,-0.514438807964325,0.05285021290183067,0.20748496055603027,-0.09479700028896332,-0.1970304399728775,0.36466583609580994,-0.5092177391052246,-0.38251006603240967,-0.8560979962348938,-1.0833382606506348,0.07769744098186493,0.11521756649017334,0.45356321334838867,-0.02619384415447712,0.27276691794395447,0.07585995644330978,0.2751568853855133,-0.2306758016347885,-0.12722523510456085,0.05420655384659767,-0.04893755540251732,0.6601639986038208,-0.6345890164375305,0.16045598685741425,0.1424168348312378,0.3379528522491455,-0.19617876410484314,-0.1744886189699173,0.06143505498766899,0.08008138835430145],[0.20495286583900452,-0.14723192155361176,-0.3201315402984619,-0.2901468575000763,-0.1780700832605362,0.6135228872299194,-0.07797319442033768,-0.2818850576877594,0.2585788667201996,0.22228823602199554,0.1780000627040863,-0.31673985719680786,-0.1880682408809662,0.028457006439566612,-0.27002477645874023,0.5827489495277405,0.1505788117647171,0.1659352034330368,-0.3410038948059082,0.16614344716072083,0.21703849732875824,-0.5728490352630615,0.3112483620643616,0.34739139676094055,-0.5709118247032166,0.14645589888095856,-0.3972032368183136,0.10379926860332489,0.166549414396286,0.37671974301338196,-0.1289108246564865,-0.6627762913703918,-0.08862470090389252,-0.28972503542900085,0.18403702974319458,0.41328391432762146,0.4702887535095215,-0.3038863241672516,-0.5407689213752747,0.24495555460453033,-0.529991090297699,-0.3155566453933716,-0.17863589525222778,-0.2362128496170044,-0.14478889107704163,0.08498300611972809,-0.40242111682891846,-0.36299532651901245,-0.3154168725013733,-0.39543089270591736,-0.46672409772872925,-0.15257872641086578,0.03590749576687813,-0.016982920467853546,0.2405133843421936,-0.12819646298885345,0.06476211547851562,-0.16167482733726501,0.05696453899145126,0.0670732632279396,0.35314446687698364,-0.40069252252578735,0.32897457480430603,-0.4676758646965027],[-0.31114163994789124,-0.08858386427164078,1.2984074354171753,-0.11178702861070633,0.10676158219575882,1.2577323913574219,1.303720474243164,0.7352603077888489,-0.2174936830997467,-0.2249217927455902,-0.019698306918144226,-0.5014829635620117,0.22086979448795319,0.04544777050614357,0.4893452823162079,0.0814034640789032,1.2726387977600098,0.8904997706413269,-1.31010103225708,0.3246458172798157,-0.045407526195049286,-0.18673299252986908,0.1345415860414505,-0.1631992757320404,-0.17426641285419464,-0.9706122875213623,-0.5628310441970825,0.2284231036901474,-0.17588743567466736,0.9396359920501709,-0.3129768967628479,-0.017259681597352028,1.006799578666687,0.09619522094726562,-0.7687577605247498,0.08023431897163391,-0.2585371732711792,-0.07461988925933838,-0.048231810331344604,-0.09023489058017731,-0.8367737531661987,-0.34349867701530457,0.08459434658288956,-0.46801063418388367,0.08738159388303757,0.09402237087488174,-0.5262819528579712,-0.8620964288711548,-0.47832974791526794,-0.076850026845932,0.1093653216958046,-0.22039568424224854,0.7922462821006775,-0.14538323879241943,0.028279591351747513,0.3604004681110382,-0.9623425006866455,0.7147446870803833,0.192402184009552,0.2652877867221832,-1.1365267038345337,1.005279541015625,-0.7272747755050659,-0.2463376522064209],[0.1727006882429123,-0.08281362056732178,-0.3652779757976532,0.07171822339296341,-0.10682530701160431,-0.13158045709133148,-0.3170308768749237,0.24636298418045044,-0.2442062497138977,-0.1436983048915863,0.013743378221988678,0.22639602422714233,-0.18229396641254425,-0.5711835026741028,0.01559851597994566,-0.2389274537563324,-0.19825458526611328,0.017568198963999748,-0.028170857578516006,-0.27774426341056824,0.02016764134168625,-0.2645241916179657,-0.30480101704597473,-0.20156626403331757,0.01389324851334095,0.16187000274658203,0.014214320108294487,0.049029283225536346,-0.004284325987100601,0.1501905918121338,-0.37166374921798706,-0.05830264464020729,-0.6570788025856018,-0.12066476047039032,0.05216594785451889,-0.19926181435585022,-0.38470107316970825,-0.2816178500652313,0.11855469644069672,-0.08310872316360474,-0.12251189351081848,-0.3263168931007385,-0.07691750675439835,-0.22504612803459167,-0.26931342482566833,-0.696569561958313,-0.23861554265022278,-0.00037848998908884823,0.17063221335411072,-0.3448082208633423,0.11683966964483261,0.17709854245185852,-0.25841718912124634,0.052021678537130356,-0.17849409580230713,-0.15047487616539001,-0.06458055227994919,-0.09428080916404724,0.010394042357802391,-0.05352770537137985,-0.22146736085414886,-0.12213566154241562,-0.4127620756626129,0.12987691164016724],[0.4380749464035034,0.13517649471759796,-0.12844422459602356,-0.12879958748817444,0.3632470667362213,-0.17297771573066711,-0.15574070811271667,-0.2804223597049713,-0.04910726472735405,0.02642715536057949,-0.14713795483112335,-0.16753371059894562,-0.21604348719120026,-0.19359315931797028,-0.4838997721672058,-0.10630059242248535,0.049892742186784744,0.3585362732410431,0.2811008095741272,-0.05957382544875145,-0.1937268078327179,-0.5321933031082153,0.4471138119697571,0.2513461112976074,-0.19793172180652618,0.1702241748571396,0.20471729338169098,0.10940227657556534,-0.16993559896945953,0.1600814014673233,0.20434467494487762,-0.2833811640739441,0.20087027549743652,-0.11955034732818604,0.2851870059967041,0.009225806221365929,-0.061525434255599976,-0.5720717310905457,0.3420802354812622,0.072806715965271,-0.5927430391311646,0.18217502534389496,-0.06293851882219315,-0.4651961326599121,-0.07676583528518677,0.0852917805314064,-0.16343048214912415,0.047961194068193436,-0.02379627525806427,0.1447472870349884,0.16628198325634003,-0.23477424681186676,0.05111271142959595,0.3470332622528076,-0.20272737741470337,0.03742149844765663,-0.2189929038286209,-0.4895072281360626,0.15457729995250702,0.1923767328262329,0.12487442046403885,-0.2077280879020691,-0.24756911396980286,-0.13630804419517517],[0.1478770524263382,-0.29699206352233887,-0.4974743127822876,-0.1411864310503006,0.07216541469097137,0.23304574191570282,0.3919275999069214,0.1419137567281723,-0.10558340698480606,-0.14165690541267395,0.006076078861951828,-0.18616996705532074,-0.250765323638916,0.29482877254486084,0.0767502710223198,0.5423129796981812,-0.5927314758300781,0.2531048655509949,-0.39873436093330383,-0.2036353200674057,-0.4929491877555847,-0.03989919275045395,0.08098719269037247,0.6123530268669128,-0.1668214201927185,-0.6040144562721252,-0.8766652941703796,0.4272441864013672,-0.08036091923713684,0.20616666972637177,-0.12335674464702606,-0.03671431913971901,-0.36378157138824463,0.17077037692070007,-0.43453797698020935,-0.10407581925392151,-0.1088782474398613,0.4098931849002838,-0.2205187827348709,0.34508219361305237,-0.39841508865356445,-0.4434201121330261,-0.5889698266983032,-0.9174530506134033,0.13650308549404144,0.37899717688560486,0.24904461205005646,-0.4720716178417206,0.14197556674480438,0.03497907519340515,0.16330833733081818,0.09038078039884567,-0.12750323116779327,0.007769291754812002,0.18642960488796234,0.5116621255874634,-0.5718099474906921,0.006472114473581314,0.15694661438465118,0.3529083728790283,-0.27445441484451294,-0.18121595680713654,0.006473577581346035,-0.0028945733793079853]],"bias":[0.11633412539958954,-0.17691104114055634,0.08496251702308655,0.002440475393086672,0.08011090010404587,0.15455275774002075,0.35470157861709595,0.1515873521566391,-0.19864636659622192,-0.20140257477760315,-0.038351863622665405,0.011959598399698734,-0.005577431060373783,0.21311329305171967,0.019570836797356606,0.2940029203891754,-0.15421611070632935,-0.12439759075641632,0.058186933398246765,-0.20089313387870789,-0.1576656997203827,0.1323118805885315,0.049387235194444656,-0.06173388287425041,0.06715800613164902,0.030783403664827347,0.23719607293605804,0.009529901668429375,-0.01711023971438408,-0.17465542256832123,0.09249623864889145,0.03702089190483093,0.2917684316635132,0.1481097936630249,-0.1468472182750702,-0.02165466547012329,0.0033964968752115965,-0.4609173834323883,-0.038492344319820404,-0.05714850127696991,0.19747351109981537,0.44489121437072754,0.11483355611562729,-0.010709516704082489,-0.03829716518521309,0.19207848608493805,0.241493359208107,-0.08661966025829315,0.19830019772052765,0.08193764835596085,-0.1364983171224594,-0.1400589942932129,-0.21725481748580933,-0.019744647666811943,0.25093695521354675,-0.06229477748274803,-0.2082323282957077,0.13059954345226288,0.10770558565855026,0.03263184800744057,-0.021571386605501175,0.1801815629005432,-0.119631327688694,-0.04884287714958191],"activation":"relu"},{"weights":[[0.1990467756986618,0.14254362881183624,-0.5643692016601562,-0.05280225723981857,0.19043578207492828,-0.03653838485479355,0.1197003424167633,0.35573288798332214,0.05942855030298233,-0.1697567105293274,-0.3380967080593109,-0.8645178079605103,-0.2005249708890915,0.12020563334226608,-0.42786601185798645,-0.13512125611305237,-0.39004918932914734,0.19437435269355774,-0.3324762284755707,-0.3198583424091339,0.13112163543701172,-0.08864711225032806,0.2818286120891571,-0.4952521324157715,0.2398565113544464,0.29985255002975464,-0.01870248094201088,-0.33179986476898193,0.05531206727027893,-0.2289694994688034,-1.0171830654144287,-0.055729176849126816],[-0.2809717059135437,-0.15196914970874786,0.19881601631641388,-0.2560231685638428,0.12775246798992157,-0.294485867023468,0.1264096349477768,-0.4253677725791931,0.05963599681854248,-0.2832947373390198,0.09252134710550308,-0.22718606889247894,-0.1188575029373169,0.04723018780350685,0.13412751257419586,-0.08134724199771881,0.012312660925090313,0.18921661376953125,-0.0011977533577010036,0.055728472769260406,-0.16925430297851562,-0.12472335994243622,0.30488860607147217,0.14815790951251984,0.4205531179904938,-0.5035977363586426,0.07459737360477448,0.14279034733772278,0.2762874364852905,0.11040982604026794,-0.20121176540851593,0.07965027540922165],[0.3158969283103943,-0.24322368204593658,0.18909980356693268,0.08713272213935852,-0.9591217637062073,0.5503171682357788,-0.9313094019889832,0.1507224142551422,-0.07445410639047623,0.1725572943687439,-0.23708359897136688,0.49894610047340393,-0.5430854558944702,0.2049301564693451,0.17494738101959229,0.06552537530660629,0.3090684711933136,0.13005289435386658,-0.46893957257270813,0.5600817203521729,-0.7973036766052246,0.3109678030014038,-0.01715206541121006,0.28351056575775146,0.388211190700531,-0.07118842005729675,0.17763444781303406,-0.1805715411901474,0.6320909857749939,-0.09754329919815063,-0.011242065578699112,-0.034293852746486664],[-0.26809194684028625,0.14447873830795288,0.31997933983802795,-0.03307349234819412,-0.5932319164276123,-0.1595485657453537,-0.12108227610588074,-0.9587638974189758,-0.21517546474933624,0.3205125331878662,0.5513402223587036,0.1525428146123886,-0.30985227227211,0.3484383523464203,0.14555689692497253,0.793427050113678,0.36376333236694336,-0.8512628674507141,0.6024364233016968,0.33914631605148315,0.4174342155456543,0.08016575127840042,0.10297891497612,0.543163537979126,-0.07023059576749802,0.04014056921005249,-0.03630231320858002,-0.007543355226516724,0.28910860419273376,-0.48245754837989807,-0.24654854834079742,0.674596905708313],[0.017901074141263962,0.24671396613121033,0.12088575214147568,-0.0519692599773407,0.11640055477619171,-0.6118042469024658,-0.07601039111614227,0.255715012550354,0.056592993438243866,-0.13068699836730957,0.07063261419534683,0.04429052770137787,-0.1901961863040924,0.1956711858510971,-0.6356749534606934,0.11868487298488617,-0.04856659471988678,-0.40631574392318726,-0.6954342126846313,0.15939375758171082,0.08689047396183014,0.15155397355556488,-0.5535158514976501,0.2439974695444107,0.17898480594158173,-0.2975645661354065,-0.22632934153079987,-0.10120365768671036,-0.09850682318210602,0.134872168302536,-0.16170577704906464,0.03001950867474079],[0.23670460283756256,0.027385054156184196,-1.8402786254882812,0.3460918664932251,-0.04808849096298218,0.2027551680803299,-0.040210455656051636,0.05400686711072922,0.14129476249217987,0.4761642813682556,-0.8115585446357727,-0.28841444849967957,-0.7000653743743896,0.07949727028608322,-0.9591690897941589,0.37643057107925415,0.21066810190677643,0.06385879963636398,-0.36628609895706177,-0.30539342761039734,0.5148769617080688,-0.032829102128744125,0.33480367064476013,0.3950645923614502,-0.5384458899497986,-0.1457134336233139,-0.21188485622406006,-0.23731181025505066,0.13031601905822754,-0.20416396856307983,0.03436567261815071,0.0877663642168045],[-0.3922904431819916,-0.21133175492286682,-0.7019168734550476,0.13528889417648315,-0.31901606917381287,0.45792651176452637,0.10144593566656113,-0.5514854192733765,0.5616265535354614,0.08291333168745041,-0.5632398128509521,-0.4624689817428589,0.19526609778404236,0.6215204000473022,0.12631197273731232,0.708650529384613,0.5636243224143982,0.11829246580600739,-0.43146100640296936,0.11341818422079086,-1.7632123231887817,-0.9129036068916321,-0.023120516911149025,0.4620235562324524,-0.021681513637304306,-0.031241126358509064,0.16580259799957275,-0.09010054171085358,0.08082800358533859,0.36816808581352234,-0.1339816153049469,0.7254078984260559],[-0.026449179276823997,-0.30747851729393005,-0.6516169905662537,0.20813968777656555,-0.11150738596916199,-0.25278618931770325,-0.5428667664527893,0.33041468262672424,-0.3938466012477875,-0.08588661998510361,-0.35476961731910706,0.21127162873744965,-0.179536834359169,-0.1717662364244461,-0.19321618974208832,0.059660010039806366,0.033522073179483414,-0.08151627331972122,-0.26627904176712036,-0.17505577206611633,-0.012574788182973862,-0.5890483260154724,-0.8178479075431824,0.1772226244211197,-0.13553869724273682,0.016392327845096588,-0.2481650710105896,0.04688582569360733,-0.03344856575131416,-0.08569782227277756,0.17563122510910034,-0.09351199865341187],[-0.29466041922569275,0.02514943853020668,-0.1565447598695755,0.3037049472332001,0.17364899814128876,0.9817013740539551,-1.0796955823898315,0.17827185988426208,-0.2697192430496216,-0.21229064464569092,-0.1350385844707489,-0.2561117112636566,-0.4723566472530365,0.04470449313521385,-0.20165033638477325,-0.11856359988451004,0.17039704322814941,-0.8636581897735596,-0.09941788762807846,-0.5101290345191956,-0.6507432460784912,-0.21643687784671783,-0.10646342486143112,-0.19938333332538605,0.05577006936073303,-0.3215165436267853,0.12125342339277267,-0.15252801775932312,-0.1686919778585434,-0.09439051151275635,-0.05094626918435097,-0.115092433989048],[0.22711345553398132,0.2831849753856659,-0.4674879312515259,-0.04366862028837204,0.04915239289402962,-0.16642199456691742,0.3111523389816284,-0.1189710795879364,-0.05067838728427887,0.016675494611263275,-0.8179892301559448,-0.750943660736084,-0.3300546407699585,0.282167911529541,-0.5879934430122375,0.4411435127258301,0.31287074089050293,0.47293052077293396,0.2076132893562317,0.27465853095054626,-0.6435612440109253,0.045890990644693375,-0.09976254403591156,-0.3551013469696045,-0.08352015912532806,0.1123156026005745,-0.15924957394599915,-0.01991264894604683,0.15309667587280273,-0.11542938649654388,0.36283135414123535,-0.06967607885599136],[-0.466168612241745,-0.3450271785259247,0.29611295461654663,0.1202383041381836,0.42588698863983154,0.22813934087753296,0.5851037502288818,0.37272411584854126,-0.0092854555696249,-0.0659281387925148,0.36637136340141296,-0.07752051949501038,-1.202248454093933,0.09831438213586807,0.35126206278800964,0.08351026475429535,0.15219275653362274,-0.2982136905193329,-0.06062569096684456,0.04664421081542969,-0.8744423389434814,-1.3052802085876465,0.5079396367073059,-0.11177367717027664,-0.11299949884414673,-0.14936693012714386,-0.10808700323104858,0.015618993900716305,0.20085066556930542,-0.07315479218959808,-0.3586570918560028,0.034043364226818085],[0.039035066962242126,0.33142146468162537,0.5033336877822876,-0.00614246865734458,0.1647142916917801,-1.4936726093292236,0.15947501361370087,-0.42275023460388184,-0.3748311996459961,0.17165914177894592,0.18391171097755432,-0.03890717029571533,0.09864310175180435,-0.5322166681289673,-0.7343327403068542,-0.24437403678894043,0.21449294686317444,0.3744851350784302,0.09920158982276917,-0.786647379398346,0.01953040063381195,-0.3539268970489502,0.0567810945212841,-0.06894001364707947,-0.009755915030837059,-0.14347854256629944,-0.06964132934808731,-0.35131338238716125,-0.31913113594055176,-0.1413777470588684,0.15520945191383362,0.012475898489356041],[0.21841758489608765,-0.43738192319869995,0.30520471930503845,0.25710779428482056,0.37251392006874084,-0.4296810030937195,-0.15830107033252716,-0.02331256866455078,-0.3061349093914032,-0.08278890699148178,-0.008590228855609894,0.3692352771759033,0.4641786515712738,-0.17516720294952393,0.23863723874092102,-0.2630148231983185,0.033377427607774734,0.2982344627380371,0.5133272409439087,0.06564268469810486,-0.12249359488487244,0.37847793102264404,0.3219146132469177,-0.69423508644104,-0.36796602606773376,0.0848572626709938,0.054132841527462006,-0.22161231935024261,0.23857620358467102,0.5187466740608215,0.14473840594291687,0.07546334713697433],[-1.105225682258606,0.9952425956726074,-0.7602401375770569,0.0399242639541626,0.05794773995876312,-0.16905085742473602,-0.42994973063468933,-0.5017356276512146,-0.4751124680042267,-0.0648709088563919,-0.8432177305221558,-0.38812631368637085,-0.6666021347045898,0.138963982462883,0.2962713837623596,-0.650342583656311,-0.29202383756637573,0.17336483299732208,0.7932360768318176,0.8903189301490784,0.6097351312637329,-0.10838593542575836,0.5981579422950745,0.06902322918176651,0.3421362638473511,0.3481576442718506,0.0331895537674427,-0.11159612983465195,0.4738062620162964,0.30380144715309143,0.19514626264572144,-0.6242713928222656],[-0.08726123720407486,0.2791294753551483,-0.6078189611434937,0.08240357041358948,0.0324808694422245,0.32898712158203125,-0.5971935391426086,-0.1949879229068756,-0.3659619092941284,0.032314375042915344,-0.06682366877794266,-0.3500693440437317,-0.12188974022865295,0.3064011037349701,-0.023574436083436012,-0.056999288499355316,0.054445795714855194,0.23869813978672028,-0.33203452825546265,0.1861387938261032,-1.1189374923706055,-0.14230722188949585,-0.20742256939411163,-0.3643293082714081,-0.5374808311462402,0.03367720916867256,-0.0007253581425175071,-0.23932813107967377,0.36989057064056396,0.20315887033939362,-0.033302001655101776,-0.20162424445152283],[0.2808847725391388,0.09189401566982269,0.7677196264266968,0.38908424973487854,-0.1812315136194229,0.5731299519538879,-0.47129103541374207,-0.31589144468307495,-0.11911109834909439,0.5744478702545166,0.2780319154262543,0.7353332042694092,-0.9877775311470032,-0.18563693761825562,0.17777207493782043,0.3047650158405304,0.35487085580825806,-0.1468835026025772,-0.5911635160446167,-0.11244850605726242,0.3771377503871918,0.19060268998146057,0.10914933681488037,0.9809978008270264,-1.146943211555481,-0.16350261867046356,-0.01876753568649292,-0.1660475879907608,0.001233729301020503,0.097379669547081,-0.046294137835502625,0.2796840965747833],[-0.8411509990692139,0.3571404218673706,0.6516010165214539,-0.07648502290248871,-0.29215729236602783,0.2902848422527313,0.20241135358810425,0.14354929327964783,-0.39956462383270264,0.07308642566204071,-0.12819983065128326,0.19945915043354034,-0.24466314911842346,0.612449586391449,0.32980361580848694,0.43227168917655945,0.2697034478187561,0.04371729865670204,-0.46338629722595215,-0.07815645635128021,-0.145043283700943,-0.46688327193260193,0.7282095551490784,0.035815898329019547,-0.11792604625225067,0.5780646204948425,-0.23462854325771332,0.2067774385213852,-0.034890398383140564,-0.006634080782532692,-0.2875806987285614,0.3579050898551941],[0.5489456653594971,-0.4317043423652649,-0.02466188371181488,-0.0077393692918121815,0.491427481174469,0.05118472874164581,0.14316384494304657,0.16971230506896973,0.587285041809082,0.6717632412910461,0.24637307226657867,0.06886571645736694,0.14331592619419098,-0.3314763009548187,0.5606104135513306,-0.025883624330163002,0.1265900731086731,-0.16856500506401062,-0.2714914083480835,0.14118537306785583,0.32643529772758484,0.2686844766139984,0.06401969492435455,0.08090706169605255,0.16986183822155,0.04791486635804176,0.06017639860510826,0.18507321178913116,-0.5718391537666321,-0.5400756597518921,-0.17026926577091217,0.5168567299842834],[-0.16884775459766388,0.070899598300457,-0.010527386330068111,-0.2291860729455948,0.24215203523635864,-0.1328522264957428,0.029103923588991165,-0.5210409760475159,0.15806874632835388,-0.21040993928909302,-0.01810995116829872,-0.02075447514653206,0.07295137643814087,-0.10238281637430191,-0.33112388849258423,0.04349053278565407,0.016603153198957443,0.3829396367073059,-0.292693555355072,-0.951350212097168,0.18534907698631287,0.08904484659433365,-0.8720112442970276,-0.41848552227020264,0.25821173191070557,-0.5711963176727295,-0.29539310932159424,-0.24503470957279205,-0.1730053722858429,0.048467494547367096,-0.030126450583338737,-0.04042139649391174],[0.10513322055339813,-0.4464387893676758,0.5181522965431213,0.23720110952854156,0.14173613488674164,-0.6560398936271667,0.01499360240995884,0.23669254779815674,0.10268578678369522,0.15442068874835968,0.5199082493782043,0.6048651933670044,0.0785759910941124,0.25812986493110657,-0.09251254796981812,0.18910697102546692,-0.11540558934211731,-0.5623900294303894,0.589585542678833,-0.06271778047084808,-0.7022624611854553,0.4962969124317169,-0.1772439181804657,0.05842002108693123,-0.42697519063949585,-0.15619058907032013,-0.09113419055938721,-0.10437300056219101,0.18370430171489716,0.026434266939759254,0.04211096838116646,-0.15499888360500336],[-0.1461172252893448,0.32833829522132874,-1.0947256088256836,0.09532033652067184,0.13014565408229828,-0.554643452167511,-0.43231382966041565,-0.0023838235065340996,-0.07847817242145538,0.020835664123296738,-0.21133603155612946,-0.22799444198608398,0.35602104663848877,-0.04486050829291344,-0.22875994443893433,-0.08014919608831406,-0.1701924204826355,-0.71512371301651,0.3303144574165344,-0.4227910041809082,-0.501823365688324,-0.9965769052505493,-0.47208717465400696,0.1536571979522705,-0.002530335448682308,0.08155155926942825,0.11449457705020905,-0.30585044622421265,-0.17890550196170807,0.11989817768335342,0.06830427795648575,0.1390848159790039],[0.48471587896347046,0.1296766996383667,-0.18011358380317688,0.2512422204017639,0.11704371869564056,-1.2392566204071045,-0.08944293856620789,-0.046746134757995605,-0.4558308720588684,-0.2553137242794037,-1.3480243682861328,-0.5344268083572388,0.5511727929115295,0.41281837224960327,-0.98203045129776,0.1685144603252411,-0.3291006088256836,-0.9333841800689697,0.4001038372516632,-0.052392084151506424,0.580888569355011,0.4634004533290863,0.23705768585205078,-1.341379165649414,0.657485842704773,0.262334406375885,-0.043470095843076706,-0.07630768418312073,0.41734451055526733,0.21028660237789154,0.038069237023591995,-0.026253120973706245],[0.2241562455892563,0.48405176401138306,-0.9086928367614746,-0.23314805328845978,0.0937526747584343,-0.32003065943717957,0.2537138760089874,-0.5811105370521545,-0.17064106464385986,-0.1487274169921875,-0.4182545244693756,-0.7599608898162842,0.17896968126296997,-0.30702322721481323,0.041221220046281815,-0.37148475646972656,0.016161737963557243,0.22874531149864197,0.014016122557222843,-0.2314111292362213,-0.464753121137619,0.21433594822883606,0.22910232841968536,-0.7812417149543762,-0.19276408851146698,0.2851574718952179,-0.2529152035713196,-0.10735785216093063,-0.0741373673081398,-0.013072771951556206,-0.3073810338973999,-0.3123004138469696],[0.13844193518161774,-0.18827341496944427,-0.3305759131908417,0.2982465326786041,0.1787974089384079,-1.7468180656433105,0.12967580556869507,-0.029535485431551933,0.1422080248594284,-0.2021373212337494,0.09645020216703415,-0.11839813739061356,-1.0958062410354614,0.3521554172039032,-0.4608134925365448,0.24497012794017792,0.20556452870368958,0.37575504183769226,0.12686413526535034,0.2354852557182312,-0.06252319365739822,0.16706964373588562,0.21845123171806335,0.13121193647384644,-1.2779443264007568,0.09205467253923416,-0.17392726242542267,-0.23301498591899872,0.22190506756305695,-0.24634824693202972,0.9795622229576111,0.11583714932203293],[-0.41079264879226685,-0.0807575061917305,-0.28182291984558105,0.06597363948822021,-0.05394165217876434,0.2909429967403412,0.04669247195124626,-0.05532344430685043,-0.24622629582881927,-0.07547803223133087,-0.4387228488922119,-0.18050700426101685,-1.5544134378433228,0.02951340563595295,0.21483910083770752,0.05082584545016289,0.2762645483016968,0.38914674520492554,-0.2700939178466797,0.03128580376505852,-0.5666846036911011,0.4753137528896332,-0.28525087237358093,-0.3079237639904022,-0.5931936502456665,-0.120926633477211,-0.20584987103939056,-0.23204711079597473,0.0000875364348758012,-0.33514949679374695,-0.20632024109363556,-0.23602160811424255],[0.19889330863952637,-0.49870434403419495,0.1155560314655304,0.18674695491790771,0.16041450202465057,-0.786599338054657,0.32301557064056396,-0.056976318359375,-0.04821333289146423,-0.08470147848129272,-0.3093392252922058,-0.3047042489051819,0.060413677245378494,-0.1329476237297058,-0.5921885967254639,-0.12298973649740219,0.02701994590461254,0.08384685963392258,0.40048518776893616,0.28071749210357666,-0.5816439986228943,-0.06803172081708908,0.11112713068723679,0.1894221156835556,-0.525131106376648,-0.3878243863582611,0.21838122606277466,-0.10659275203943253,0.09885072708129883,-0.00524786626920104,0.0024376055225729942,0.01655745320022106],[0.19936560094356537,0.17190776765346527,0.25317761301994324,-0.9335973858833313,-0.14202454686164856,0.04991879314184189,-0.19689762592315674,0.10850507020950317,0.1437092274427414,0.20969870686531067,-0.5455041527748108,0.2771507501602173,0.27739086747169495,0.21129421889781952,-0.19961024820804596,-0.008009945042431355,0.22799651324748993,0.05557896941900253,-0.6216320991516113,-0.18799278140068054,0.03880517557263374,-1.1982817649841309,-0.1958896815776825,-0.21155580878257751,0.14388668537139893,-0.02212059684097767,-0.28627511858940125,0.008029649034142494,0.3831630051136017,0.17022265493869781,-0.897692859172821,0.1575290560722351],[0.06422138959169388,-0.32825079560279846,0.20185232162475586,-0.2708114683628082,-0.47585856914520264,-0.7512316703796387,-0.2757469117641449,-0.5758193731307983,0.12775440514087677,0.2678471505641937,0.1416579633951187,0.12318852543830872,0.12772318720817566,0.21611416339874268,0.2077733427286148,0.2432301640510559,0.5724560618400574,-0.46941518783569336,0.12858159840106964,-0.12356672435998917,0.2958070933818817,-0.019693192094564438,0.03250890225172043,-0.08315922319889069,-0.19402702152729034,0.12714789807796478,-0.3064168393611908,-0.12979814410209656,0.05899985134601593,0.47574418783187866,-0.015284479595720768,0.05098668485879898],[0.17296898365020752,1.264359474182129,-0.11815033107995987,-0.3913869261741638,-0.06227210536599159,0.16683004796504974,0.043304864317178726,-0.0121803293004632,-0.2759832441806793,0.3844411373138428,-0.2535209059715271,-0.08596533536911011,0.6182243227958679,0.3896142244338989,0.024153059348464012,0.27031445503234863,0.3753168284893036,0.8141242265701294,-0.10226470232009888,0.19378992915153503,0.2125941514968872,0.4739568531513214,0.13444527983665466,-0.16291196644306183,-0.8594006896018982,0.22935253381729126,-0.022627251222729683,0.19817209243774414,0.15099076926708221,0.12348535656929016,0.1666606366634369,-0.022331049665808678],[-0.1398020088672638,0.16786569356918335,-0.048180218786001205,-0.080136239528656,0.04492230713367462,0.06335161626338959,-0.09068901836872101,-0.02031482569873333,0.31275051832199097,-0.27507781982421875,-0.705707311630249,0.14288760721683502,-0.2902988791465759,-0.19134023785591125,0.1573721021413803,-0.3339124321937561,-0.076859250664711,-0.021731441840529442,-0.5259581804275513,-0.14017903804779053,-0.5632615089416504,-1.0384985208511353,0.1792520135641098,0.1228044405579567,0.12175136804580688,0.0770404264330864,-0.12615729868412018,-0.24889613687992096,-0.09615154564380646,0.005691002123057842,-0.31996533274650574,0.07017602771520615],[-0.3390117287635803,0.13788656890392303,0.07706879824399948,0.09050346910953522,-0.495752215385437,0.46052947640419006,-0.5131939649581909,-0.5741950869560242,-0.01147144753485918,-0.1272275447845459,-0.67462158203125,0.2273825705051422,0.6208897829055786,0.35631951689720154,0.4204111695289612,0.4269207715988159,0.24540835618972778,0.09753375500440598,0.256244033575058,0.29735103249549866,-0.5352398753166199,0.06723678112030029,0.7899114489555359,-0.29768985509872437,-0.1778402030467987,0.5552651286125183,-0.236312597990036,0.011169892735779285,0.7335576415061951,0.9837918877601624,0.07007334381341934,0.3767581880092621],[-0.5249643325805664,0.2023165374994278,-0.6539446115493774,0.1507946103811264,0.12396305054426193,0.2285040020942688,0.4011507034301758,-0.8199296593666077,-0.35047686100006104,-0.2612651586532593,-0.45113497972488403,0.06472375988960266,-0.4339102804660797,-0.32603827118873596,0.023028865456581116,-0.3661542534828186,-0.3134963810443878,0.20063038170337677,0.8416290283203125,-0.13167265057563782,0.14774981141090393,0.565863311290741,-0.6684860587120056,-0.2507425546646118,-0.04838188365101814,-0.26344382762908936,-0.05188152194023132,0.30586257576942444,-0.28558915853500366,-0.7729388475418091,0.08881714940071106,-0.2128242552280426],[-0.801176130771637,-0.8881396055221558,-0.13283765316009521,-0.3741442561149597,-0.503636360168457,0.15374629199504852,-0.21163725852966309,-0.05967685207724571,0.3622762858867645,0.5475026369094849,0.35472944378852844,-0.0358237698674202,0.12252873927354813,-0.12824653089046478,0.4935745596885681,0.2093227207660675,0.23553436994552612,0.18140219151973724,0.779691219329834,0.806427001953125,-0.39765819907188416,0.13194936513900757,0.031797390431165695,0.7455543279647827,0.7413893342018127,0.31232038140296936,-0.21664926409721375,0.15241780877113342,-0.07164202630519867,0.3052787780761719,-0.03877716511487961,0.12753471732139587],[0.1817435622215271,0.4913780689239502,0.45697033405303955,-0.2526823878288269,-0.13702964782714844,0.2555091679096222,-0.944435179233551,0.06673415750265121,-0.35706961154937744,0.007362017873674631,0.2755964696407318,0.9201915264129639,-0.08140510320663452,-0.8703556656837463,-0.23058053851127625,-0.5420470833778381,-0.7021816968917847,-1.292006015777588,-0.2921362817287445,0.05225975438952446,-0.5571133494377136,-1.1325438022613525,0.60947185754776,-0.12784022092819214,0.007597695104777813,0.051248300820589066,-0.22782059013843536,-0.21775434911251068,-0.34747934341430664,-0.702887237071991,-0.031241584569215775,-0.3709735572338104],[-0.06655141711235046,-0.3244956135749817,-0.016713151708245277,-0.1297897845506668,0.2149326354265213,-0.6381641626358032,0.30129557847976685,-0.6953940987586975,-0.24123825132846832,0.13668601214885712,-0.1579204946756363,-0.5979959964752197,-0.42204049229621887,-0.05717656388878822,0.1643032282590866,-0.06619320064783096,-0.17660574615001678,-0.4607437551021576,0.12074915319681168,-0.18209373950958252,-0.12278242409229279,0.16692453622817993,0.20357422530651093,-0.13087646663188934,0.11697884649038315,0.044531721621751785,-0.2812047600746155,0.12450619041919708,-0.014568022452294827,-0.15298272669315338,-0.02150139957666397,0.24329814314842224],[0.31862086057662964,-0.10557185858488083,-0.37891921401023865,0.04654312878847122,-0.1931140124797821,0.30992814898490906,0.2620016932487488,-0.054994676262140274,0.15500636398792267,-0.031406715512275696,-0.4649515748023987,0.10024292021989822,-0.07529916614294052,0.1781497299671173,-0.17872120440006256,0.25086238980293274,0.1725657731294632,-0.019414734095335007,0.004399906378239393,0.2683858573436737,-0.0707840695977211,0.09174693375825882,-0.04732028394937515,-0.00047821307089179754,-0.6902098059654236,0.17397108674049377,-0.18691633641719818,-0.011760039255023003,0.20027592778205872,0.16134032607078552,-0.21537654101848602,0.06260112673044205],[0.45094332098960876,0.26292258501052856,-0.08746492117643356,-0.09227052330970764,0.034873466938734055,-1.2511106729507446,0.07432128489017487,-0.8940910696983337,0.038784753531217575,0.11280438303947449,-0.23553258180618286,-0.498883992433548,-0.4110603630542755,-0.4397301971912384,-0.35460883378982544,-0.22225911915302277,-0.19394512474536896,0.18649189174175262,-0.7966068983078003,-0.0994153842329979,-0.33155545592308044,-0.43588829040527344,-0.4307694137096405,0.12220554053783417,0.20440557599067688,-0.18523474037647247,0.10175871849060059,0.04970967024564743,0.01913122460246086,-0.12298747897148132,0.12849406898021698,-0.33345121145248413],[-1.0178977251052856,-0.009602362290024757,-0.151421919465065,0.02715906873345375,0.44279977679252625,-0.21852301061153412,0.5124123692512512,0.153667151927948,0.20420463383197784,-0.6444020867347717,-0.3849143981933594,-0.2947697639465332,-0.4568485617637634,-0.16100507974624634,0.025048760697245598,-0.10037961602210999,-0.036336060613393784,0.14400173723697662,0.6213159561157227,0.04628999903798103,-0.30463293194770813,0.009892255067825317,-0.7087900042533875,0.14356355369091034,-0.2341080904006958,0.0831587165594101,-0.1526891142129898,-0.012799388729035854,0.22366586327552795,-0.015210087411105633,-0.09360826015472412,-0.11740642786026001],[-0.15835517644882202,0.2696032226085663,0.07610180974006653,-0.5292907357215881,-0.17344272136688232,-0.0983559712767601,-0.4953938126564026,0.10248309373855591,0.2068019062280655,0.278319388628006,0.1514071524143219,-0.03255653381347656,0.3294505476951599,0.21909844875335693,-0.01910499669611454,0.24830111861228943,-0.09698490053415298,0.25401872396469116,-0.486584335565567,0.31146714091300964,-0.19446732103824615,-0.18461748957633972,-0.23633675277233124,0.08685451000928879,0.22553318738937378,0.06687291711568832,0.07074299454689026,0.04792414978146553,0.20845745503902435,-0.11705967783927917,-0.7424286603927612,0.14208830893039703],[0.2902693748474121,-0.12181565165519714,-0.059329818934202194,-0.33596399426460266,-0.16128388047218323,-1.4417526721954346,0.08099821954965591,-1.0398319959640503,0.01175018958747387,0.05747927352786064,-0.03668161481618881,0.35930848121643066,-0.14755801856517792,-0.0692572370171547,-0.6315654516220093,0.25844570994377136,-0.10387775301933289,0.304587721824646,0.12163437902927399,0.23140354454517365,-0.1616911143064499,-0.05650797113776207,0.10772835463285446,0.04675883799791336,-0.4149709939956665,-0.1442854404449463,-0.08407813310623169,-0.24272671341896057,0.28151780366897583,-0.0719098448753357,-0.10375290364027023,0.3093748688697815],[0.6751865744590759,-0.4462758004665375,-0.2139185667037964,-0.010492051020264626,0.035026658326387405,-0.48245304822921753,0.023117758333683014,0.017623642459511757,0.9405501484870911,1.3474451303482056,-1.2575867176055908,-0.06453477591276169,0.2037169188261032,0.7101699113845825,-0.38108372688293457,3.376364231109619,1.839952826499939,-2.526515007019043,0.16067533195018768,-0.31225255131721497,0.03901183605194092,0.8642188310623169,-0.4504135847091675,-0.36192673444747925,0.22088898718357086,-0.6411797404289246,0.17534588277339935,0.13067173957824707,-0.4107912480831146,-0.5888329744338989,0.0992286428809166,1.5708855390548706],[0.37277963757514954,0.6140499711036682,-0.3224422335624695,-0.31974875926971436,-0.025999048724770546,0.14697597920894623,-1.6740046739578247,0.14457610249519348,-0.5648322701454163,-0.3094741404056549,-1.0001767873764038,-0.14302144944667816,0.41003328561782837,0.33949217200279236,-0.08635466545820236,-0.44664275646209717,-0.2963726818561554,0.76002037525177,-0.5583755970001221,-0.009643842466175556,0.4364270567893982,0.14250798523426056,-0.46429380774497986,-0.4124186336994171,0.3639691174030304,0.3330833315849304,0.1004340797662735,-0.20310832560062408,0.050120994448661804,0.16301926970481873,-0.06724828481674194,-0.4911271929740906],[0.7873733639717102,-0.19053557515144348,-0.045205049216747284,0.12190026044845581,-2.1084516048431396,0.1328776478767395,-0.4853808283805847,-1.17696213722229,0.39132678508758545,0.7117965817451477,0.33512359857559204,0.6053048968315125,-0.2522963881492615,0.09102555364370346,-0.07252088934183121,0.6755468249320984,0.6227009296417236,-0.6019120216369629,-0.01925063319504261,-2.0600714683532715,0.24155186116695404,0.1444876790046692,0.3821994662284851,-0.17026057839393616,-0.08445044606924057,-0.8477170467376709,-0.09863156825304031,0.06117158755660057,-0.47449377179145813,-0.6491321921348572,0.0739872008562088,0.416968435049057],[0.5705063343048096,-0.3303239941596985,0.5820845365524292,0.23846875131130219,-0.012189189903438091,0.2725084125995636,0.17012134194374084,0.3313189148902893,0.22290173172950745,-0.1581418365240097,-0.39445915818214417,0.1474900245666504,-1.6180890798568726,0.19221381843090057,0.198405921459198,0.36041560769081116,0.25349533557891846,0.03405096009373665,-0.3591136932373047,0.09089168906211853,-0.2069557011127472,0.36452004313468933,-0.05650702491402626,-0.15390896797180176,0.07504568248987198,0.03348732739686966,-0.007712564896792173,-0.12209592759609222,0.23053112626075745,-0.04959068074822426,0.08380734920501709,-0.15300945937633514],[0.009795033372938633,0.40588513016700745,-0.00568609731271863,-0.547552764415741,-0.152897447347641,0.0663343295454979,-0.8337550163269043,-0.06586401164531708,0.024888543412089348,-0.5439156889915466,0.1895391196012497,0.08275322616100311,0.13819333910942078,0.40907472372055054,-0.016877159476280212,0.12463735789060593,0.5081232190132141,-0.883870005607605,-0.3929659128189087,-1.2743293046951294,-0.30936670303344727,0.1847217082977295,0.07215911895036697,-1.289096474647522,-0.7318053245544434,-0.2756248116493225,0.21553358435630798,0.14108943939208984,0.6635470986366272,0.2533949911594391,-0.59989333152771,0.1167590320110321],[-0.18594112992286682,-0.16042114794254303,0.3722974956035614,-0.845517635345459,-1.006839394569397,0.26280173659324646,-0.12615029513835907,1.23246431350708,-0.1329093724489212,-0.6429791450500488,-0.23168741166591644,0.4459284842014313,-0.28443893790245056,-0.21553513407707214,0.6263627409934998,-0.44411376118659973,0.1315515786409378,0.09492408484220505,-0.4786699414253235,0.6885456442832947,-0.6598531603813171,-0.3295159935951233,0.07486673444509506,0.18715046346187592,0.5945839285850525,0.43902429938316345,-0.004716770723462105,-0.24085120856761932,-0.29066354036331177,0.2029457539319992,0.2220938801765442,-0.06089570000767708],[0.00472623948007822,-0.14774049818515778,0.33616313338279724,-0.44239693880081177,0.11145136505365372,-0.14482936263084412,-0.08574612438678741,0.01001894474029541,-0.1298709362745285,-0.4588577151298523,0.16249705851078033,0.38467469811439514,0.9187650680541992,-0.6483076810836792,0.9335211515426636,-0.1808393895626068,-0.6063563823699951,-0.11131849884986877,-0.4897215962409973,-0.3989219665527344,0.15737995505332947,-0.4779658317565918,0.07449229061603546,-0.22111570835113525,0.11288382858037949,-0.6036881804466248,-0.01159705687314272,0.14709137380123138,-0.44805073738098145,-0.0599585697054863,0.1513201892375946,-0.20701530575752258],[-0.16088281571865082,-0.15070253610610962,0.20383767783641815,0.08595234155654907,-0.8254311084747314,0.00231323204934597,-0.48695090413093567,-1.0248161554336548,0.15562964975833893,0.15265464782714844,0.22710537910461426,-0.2674127221107483,0.1112455427646637,0.2702476382255554,-0.551297128200531,-0.028479428961873055,-0.07720564305782318,0.30376461148262024,-0.42320966720581055,-0.1469193696975708,0.3278873860836029,-0.08528117835521698,0.0295132864266634,-0.15823641419410706,-0.027432220056653023,-0.09936492890119553,0.08385787159204483,0.08282463997602463,-0.10458841919898987,0.07208434492349625,-0.2328207790851593,-0.17137861251831055],[-0.029164070263504982,0.2059847116470337,-0.3697763979434967,-0.05725974962115288,-0.03701738640666008,0.17374727129936218,0.44423264265060425,-0.17448009550571442,-0.05354248732328415,-0.06577795743942261,0.0016066231764853,-0.5942845940589905,0.12493928521871567,-0.37225767970085144,-0.25256428122520447,0.0238345917314291,0.14348281919956207,0.2693037986755371,-0.2880145013332367,-0.11886674165725708,0.30222630500793457,-0.03515618294477463,-0.003631261410191655,-0.08696296811103821,0.19571326673030853,0.22240938246250153,0.0641176626086235,-0.07634265720844269,0.10700184106826782,-0.13140398263931274,-0.46099352836608887,0.016042688861489296],[0.31059008836746216,-0.16799789667129517,-0.5064119696617126,-0.28301942348480225,-0.4188610315322876,-0.3127448558807373,0.17831483483314514,-0.3857213258743286,0.39250612258911133,0.3185808062553406,0.878214418888092,0.1276939958333969,0.2996397018432617,-0.022076444700360298,0.3214099109172821,0.38276365399360657,0.30998608469963074,-0.19086860120296478,0.28152233362197876,-0.40826359391212463,0.2468271553516388,-0.15703758597373962,0.0546596422791481,0.15251289308071136,-0.0396907813847065,-0.16301734745502472,0.15608833730220795,-0.20560605823993683,-0.5847562551498413,-0.8557855486869812,-0.11134599894285202,0.046073637902736664],[0.2503702640533447,-0.5214751958847046,0.15392060577869415,-0.2601037621498108,-0.08084943890571594,-0.1513715535402298,-0.09095177799463272,-0.8321453332901001,0.3592562675476074,-0.20505180954933167,0.2365804761648178,-0.4453333914279938,0.22039011120796204,-0.10903700441122055,0.06033593416213989,-0.09122363477945328,0.2973131537437439,-0.169744610786438,0.1513766497373581,0.32321247458457947,-0.27454739809036255,-0.259740948677063,0.031089046970009804,0.02522117644548416,0.2645862102508545,0.10202480852603912,-0.15227998793125153,-0.25301632285118103,-0.11279311776161194,-0.25673142075538635,-0.09267514199018478,-0.12516234815120697],[-0.21335500478744507,-0.052659038454294205,-0.2052788883447647,-0.15670955181121826,-0.3035733103752136,-0.0041632927022874355,-0.4892408549785614,-0.5403632521629333,-0.20660251379013062,0.0641472265124321,-0.26379266381263733,-0.21717149019241333,0.14094087481498718,0.0360863134264946,0.11850547045469284,-0.009868185967206955,-0.037437718361616135,-0.28941309452056885,-0.34695279598236084,0.1374310702085495,-0.2571360170841217,-0.9315237998962402,-0.3440658748149872,-0.027881791815161705,-0.5633540749549866,0.1515512764453888,0.08591704815626144,-0.06045009568333626,-0.023681940510869026,-0.16880546510219574,0.14879119396209717,0.14370302855968475],[-0.5625249147415161,-0.3050514757633209,0.25619664788246155,-0.2689632177352905,-0.1900981068611145,-1.1884467601776123,0.10704419761896133,-0.12160484492778778,0.0748852789402008,0.021012715995311737,0.01080742385238409,-0.14658410847187042,0.054371923208236694,0.016832992434501648,-0.3374147415161133,0.08508338779211044,0.13854241371154785,-0.29311802983283997,0.06645629554986954,-0.4193870723247528,0.4222864806652069,-0.20400351285934448,0.23064516484737396,-0.07819796353578568,-0.2320849895477295,-0.25314536690711975,0.12858137488365173,0.07172743231058121,0.09060980379581451,-0.05848570913076401,-0.002465937053784728,0.0695626512169838],[-0.20791706442832947,-0.17922735214233398,-0.13017937541007996,-0.559081494808197,-0.1953640729188919,-1.5749353170394897,0.0988604798913002,-1.0594850778579712,0.026569444686174393,-0.031637806445360184,0.05243375524878502,-0.3540169894695282,0.04163498431444168,-0.08955331891775131,-0.326253741979599,0.06900215148925781,-0.17282241582870483,-0.44140729308128357,-0.1299770325422287,0.1509048491716385,-0.042106714099645615,-0.07319587469100952,0.24442510306835175,0.1992858350276947,0.06598160415887833,0.29074543714523315,-0.10615374147891998,-0.09968999028205872,0.072721928358078,0.011389789171516895,0.10142970085144043,0.06396094709634781],[-0.23242969810962677,0.09686527401208878,0.21158070862293243,0.08214372396469116,0.9040509462356567,0.4401306211948395,0.8047637343406677,-0.17740166187286377,-0.2256961315870285,0.18030747771263123,-0.14509065449237823,0.06648552417755127,0.7593196034431458,-0.5664107799530029,0.10520625859498978,-0.43444353342056274,-0.43613722920417786,-0.11362496763467789,0.10595697909593582,-0.39449745416641235,0.030131710693240166,-0.4141908884048462,-0.191473126411438,0.08641433715820312,0.31329837441444397,0.0915834903717041,-0.05700265243649483,-0.15913939476013184,-0.3603360056877136,-0.4029808044433594,-0.08756578713655472,-0.021285811439156532],[-0.13662342727184296,-0.3352970480918884,0.041624557226896286,-0.5393159985542297,-0.22755111753940582,-0.8230771422386169,-0.10352820158004761,-0.21683761477470398,0.34448084235191345,0.09005451947450638,0.21661773324012756,0.04125526547431946,-0.27409517765045166,0.3648219704627991,-0.007245323620736599,0.101644366979599,0.03702466934919357,-0.5032047033309937,-0.014143322594463825,-0.1824854612350464,-0.12142354995012283,0.14646440744400024,-0.22961774468421936,-0.020367082208395004,0.21609964966773987,-0.26091426610946655,-0.04198048263788223,-0.05485260859131813,-0.06516151130199432,0.1575271189212799,-0.44467660784721375,-0.19519303739070892],[0.12257752567529678,-0.23128782212734222,-0.011533468030393124,0.09567355364561081,0.03501323610544205,-1.0080493688583374,0.18438620865345,0.18846555054187775,0.623288631439209,-0.7025761604309082,-0.25101110339164734,0.19728004932403564,0.3117811381816864,0.8232018351554871,-0.7479239106178284,0.8159434199333191,0.4537982940673828,-1.3690403699874878,-0.4234999418258667,-0.2583480179309845,-0.13131752610206604,-0.3380272388458252,0.3962685763835907,-0.6520794630050659,-0.977106511592865,-0.564349889755249,0.08820518106222153,0.1252821385860443,0.22966507077217102,1.1480520963668823,-0.08019310235977173,0.5097692608833313],[-1.1376253366470337,0.4540201425552368,-0.8195358514785767,-0.17804545164108276,0.48467788100242615,0.2343897521495819,0.1521715372800827,-0.021133191883563995,0.07777506858110428,0.22059400379657745,-0.27443549036979675,0.22614845633506775,-0.18169710040092468,-0.10507339984178543,0.1988866925239563,-0.2779250741004944,-0.4337873160839081,0.15107621252536774,-0.1800374686717987,-0.42683297395706177,-0.9160864353179932,-0.1299850195646286,0.13912132382392883,0.33010777831077576,-0.11325743794441223,-0.5229800343513489,-0.22719502449035645,0.2084985375404358,0.1303926706314087,0.04950675368309021,-0.5582122802734375,-0.20081526041030884],[0.026698382571339607,0.17490239441394806,-0.0887058675289154,-0.23315522074699402,-0.2789873778820038,-0.2344902753829956,0.05918605625629425,-0.27321091294288635,0.10038314759731293,0.032432861626148224,-0.13944698870182037,0.07893174886703491,-0.4939194917678833,-0.23570984601974487,-0.16089008748531342,0.06938422471284866,-0.0036586320493370295,-0.011969122104346752,-0.25910452008247375,0.12352576851844788,-0.5579326748847961,-0.12064588069915771,0.009626686573028564,0.10686558485031128,-0.14962773025035858,0.1020318865776062,-0.08127473294734955,0.016179131343960762,-0.003463558154180646,0.0482923798263073,-0.17807140946388245,-0.18388640880584717],[0.20383572578430176,-0.28395798802375793,-0.0768260732293129,0.15356333553791046,0.2566142678260803,-0.21370847523212433,-0.033595193177461624,-0.2782457768917084,-0.05700749158859253,0.05577182024717331,0.20689724385738373,0.0476076677441597,-0.5297150611877441,0.05766165629029274,0.1961350291967392,0.049031443893909454,-0.2968659996986389,0.22184690833091736,0.05675666034221649,-0.3838668465614319,0.18847014009952545,0.11010586470365524,0.12938916683197021,0.03630708530545235,-0.7947850227355957,-0.20311348140239716,-0.1988682597875595,-0.3841608762741089,0.23562955856323242,0.3605554401874542,0.08333218097686768,0.028428534045815468],[0.2714989185333252,0.20597311854362488,-0.13031244277954102,0.1456286907196045,0.11926303058862686,-1.332503080368042,0.24538898468017578,-0.7681169509887695,-0.3211800456047058,-0.15533079206943512,-0.26415982842445374,-0.5037328004837036,-0.2615813910961151,-0.24355457723140717,-0.5028562545776367,0.04673125594854355,0.36209630966186523,-0.057771049439907074,0.21608330309391022,0.3099702000617981,-0.5581814050674438,0.11924607306718826,0.22188431024551392,-0.14779654145240784,-0.11183932423591614,0.12408299744129181,0.07666516304016113,0.10054794698953629,0.3417380452156067,-0.018618475645780563,-0.1892044097185135,0.03854846954345703],[0.3105160892009735,0.15881945192813873,-0.22871777415275574,0.08568212389945984,0.29438725113868713,0.06619269400835037,-0.1233316957950592,-1.0288645029067993,0.199372336268425,0.3147895038127899,-0.8798513412475586,0.2889036238193512,0.028084643185138702,-0.10857958346605301,-0.233454167842865,0.35214364528656006,0.1948394775390625,0.10520198941230774,0.6164395809173584,-0.08866966515779495,0.09112649410963058,0.021168217062950134,-0.7252703905105591,0.05344236269593239,-0.1486470103263855,-0.254521906375885,0.019360540434718132,0.1063990667462349,0.1290355622768402,0.25153928995132446,-0.42685461044311523,0.13047416508197784],[-0.30446740984916687,-0.012259491719305515,0.2285880595445633,-0.2905523478984833,0.23887352645397186,-0.43303707242012024,-1.107769250869751,0.4798677861690521,0.17198415100574493,-0.18846432864665985,-0.2697175443172455,-0.06391116231679916,-0.35742899775505066,0.20562824606895447,-0.14752963185310364,0.004472245927900076,-0.1724986433982849,0.1545533537864685,-0.43874579668045044,-0.013904321007430553,0.10730729252099991,0.5406971573829651,0.8515035510063171,-0.19790863990783691,-0.13761670887470245,0.4226738214492798,0.2060401886701584,0.10752259939908981,-0.10626309365034103,0.14041660726070404,0.1574282944202423,0.017794812098145485],[-0.27379778027534485,0.0046363938599824905,0.23154935240745544,-0.10665842890739441,-0.08919283002614975,0.30466222763061523,-0.4744322597980499,-0.290667325258255,0.2020569145679474,-0.10318788886070251,0.27928656339645386,0.005211657378822565,0.0019321569707244635,0.134995698928833,-0.1321481317281723,-0.15220826864242554,-0.21733972430229187,0.026815371587872505,-0.43174001574516296,-0.24594220519065857,0.3164467215538025,0.17909753322601318,-0.8703320026397705,-0.6113243103027344,-0.004593188874423504,0.033235546201467514,-0.18597917258739471,-0.01249978318810463,-0.36736294627189636,0.03576963022351265,0.17195247113704681,-0.07573531568050385]],"bias":[0.06132223457098007,0.12134061008691788,-0.015316116623580456,0.009816089645028114,0.01572830229997635,-0.048019539564847946,0.09880578517913818,0.06426306813955307,0.00009019480785354972,0.03932349383831024,0.024723561480641365,0.2326958030462265,-0.08619025349617004,-0.03159773349761963,-0.003920303657650948,0.19428689777851105,0.19490601122379303,0.0073304143734276295,0.0469280481338501,0.04013807699084282,-0.10705223679542542,-0.11069360375404358,-0.06548527628183365,0.28941723704338074,-0.0755205973982811,-0.026110053062438965,-0.08492481708526611,-0.3509144186973572,0.017168182879686356,0.15964114665985107,-0.9040801525115967,0.20302315056324005],"activation":"relu"},{"weights":[[-0.3777550160884857,0.6168979406356812,-0.9587008953094482],[0.13519620895385742,-0.4975690245628357,0.7686740756034851],[-1.0920319557189941,0.8194397687911987,1.1449096202850342],[-1.0849577188491821,0.957747220993042,0.062050942331552505],[-0.6321396827697754,0.535412073135376,0.389617919921875],[-1.4338308572769165,0.044602587819099426,0.71537184715271],[-0.5275447368621826,0.6831400990486145,0.6701341867446899],[0.656164824962616,-1.8549907207489014,0.4967329204082489],[-0.009037885814905167,0.4849920868873596,-0.7496333718299866],[0.1847924143075943,0.35078561305999756,-0.37672555446624756],[-0.6872974634170532,1.0130643844604492,-0.8614575266838074],[-0.9126781225204468,-0.07526285946369171,1.1016151905059814],[0.9326667189598083,-0.5165460109710693,-3.2267186641693115],[0.5133349299430847,0.08796212077140808,-0.849567174911499],[-0.9913767576217651,0.8634619116783142,0.11060106754302979],[0.12031238526105881,0.15216313302516937,-0.593570351600647],[0.16400282084941864,0.10957742482423782,-0.34327778220176697],[-0.0668436735868454,-0.4793888330459595,1.1220403909683228],[0.7140615582466125,-0.9322081208229065,0.8615809679031372],[0.5279223322868347,-0.03836102411150932,-1.6950528621673584],[0.6242766380310059,-1.160554051399231,-0.15172718465328217],[0.7510998249053955,-0.4216126799583435,-1.5941808223724365],[0.41866883635520935,-0.7773137092590332,0.6031967997550964],[0.0032546627335250378,0.19839368760585785,-0.49805948138237],[-0.7204590439796448,0.7910562753677368,0.5388365983963013],[0.07357735186815262,-0.19307124614715576,0.015568315051496029],[-0.3364066779613495,-0.4149312973022461,0.2199617177248001],[-0.03507961332798004,-0.02796252630650997,0.20555216073989868],[0.2924030125141144,-0.3419627249240875,-0.3601054847240448],[0.1430107057094574,-0.3079201281070709,-0.05835837498307228],[-0.2027614712715149,-0.010799335315823555,0.37446650862693787],[0.14984434843063354,0.21264863014221191,-0.15073244273662567]],"bias":[0.20075774192810059,0.02492036111652851,-0.4381287395954132],"activation":"softmax"}],"name":"BNB Diamond Hands","description":"Conservative model preferring hold unless strong signal","color":"#8b5cf6","icon":"Shield"}