{"inputWindow":5,"layers":[{"weights":[[-0.04182055965065956,0.09294137358665466,0.059371914714574814,0.08886156976222992,0.04027283191680908,-0.32553359866142273,0.0746624693274498,-0.3503827452659607,0.07021399587392807,0.2802431285381317,0.20578768849372864,-0.03688189387321472,0.17816704511642456,0.018584460020065308,0.163395494222641,0.15934446454048157,0.1472463607788086,-0.14227598905563354,0.15280725061893463,-0.037451475858688354,0.2328256368637085,0.1581457406282425,0.0896640419960022,0.5062410235404968,-0.1893436461687088,-0.033422067761421204,-0.3578237295150757,-0.3609176278114319,0.19569849967956543,-0.266889750957489,-0.5956781506538391,0.22414590418338776,-0.1859613060951233,0.21433821320533752,0.017553091049194336,0.21217863261699677,-0.03748434782028198,0.04199281707406044,0.1282544881105423,0.119666188955307,0.11815548688173294,-0.14226029813289642,-0.11027874797582626,-0.0028058886528015137,0.1494278609752655,-0.23542508482933044,0.12223991006612778,0.09675838053226471,-0.5369064211845398,-0.5264018177986145,0.21539558470249176,0.2821497321128845,-0.12751533091068268,0.1524812877178192,0.09669661521911621,-0.2838301658630371,-0.7223191857337952,-0.094014972448349,0.02344728261232376,-0.23852063715457916,0.019099127501249313,-0.13515828549861908,0.3730590343475342,0.14785943925380707],[-0.16790738701820374,0.05437085032463074,0.17458581924438477,-0.237931489944458,0.05503922700881958,0.24112796783447266,0.22300419211387634,0.09396693110466003,-0.02735649049282074,-0.16945593059062958,0.2431480884552002,0.006081610918045044,0.060215651988983154,-0.1106080412864685,0.024794280529022217,-0.10294657945632935,-0.14158624410629272,-0.19527602195739746,0.19960635900497437,0.00970497727394104,0.07267013192176819,-0.09854519367218018,-0.06307050585746765,-0.1319771558046341,0.1629629135131836,-0.006615638732910156,0.09344339370727539,-0.19144433736801147,0.07925835251808167,0.1643667221069336,0.07633665204048157,-0.057346031069755554,0.2230696976184845,0.10032680630683899,0.20555317401885986,-0.018837541341781616,0.1794913113117218,-0.00986073911190033,0.2331705391407013,-0.09894700348377228,-0.0009340047836303711,-0.11295254528522491,0.036142557859420776,-0.239554300904274,-0.24899105727672577,0.12656423449516296,-0.10242961347103119,-0.02656412124633789,-0.20229218900203705,-0.16804853081703186,0.14315730333328247,0.1799238920211792,0.075213223695755,-0.22998711466789246,-0.17511367797851562,-0.22903650999069214,-0.2016456127166748,0.11532986164093018,0.05721113085746765,-0.013202577829360962,-0.014532655477523804,-0.11880695819854736,-0.08498944342136383,-0.07888123393058777],[-0.1997690498828888,-0.023975282907485962,0.10316545516252518,-0.24224907159805298,-0.2021840512752533,-0.012648609466850758,-0.16280938684940338,0.15539789199829102,-0.09816838055849075,-0.09571525454521179,-0.18653258681297302,-0.2183910310268402,-0.09866088628768921,-0.029171347618103027,-0.1839437633752823,-0.20127758383750916,-0.10335658490657806,0.0954531729221344,-0.18241730332374573,-0.033184900879859924,0.10204312950372696,-0.13044212758541107,0.00025481844204477966,0.16227851808071136,0.034300077706575394,0.055139511823654175,-0.24927212297916412,0.15112626552581787,0.15063433349132538,-0.02127191051840782,-0.1576070636510849,0.201620414853096,-0.12579283118247986,-0.11478850245475769,-0.07039093971252441,0.15326471626758575,-0.10212481021881104,0.011348706670105457,-0.1487969607114792,-0.20349536836147308,0.07232071459293365,-0.2960332930088043,0.10250546038150787,-0.0689714103937149,0.018312901258468628,0.05208145081996918,-0.10273083299398422,-0.27393442392349243,0.06347972899675369,0.07148247212171555,0.21234361827373505,-0.0023373812437057495,0.0046859667636454105,-0.22559823095798492,-0.012175217270851135,0.22955995798110962,0.16276104748249054,0.04028594493865967,-0.05601418390870094,-0.026337305083870888,-0.11243036389350891,0.06591346114873886,-0.09080962836742401,-0.010225947946310043],[0.19880245625972748,0.23329269886016846,-0.24009838700294495,-0.12495440244674683,0.12183389067649841,-0.13533318042755127,-0.06259308010339737,-0.058587443083524704,-0.22572962939739227,0.23541605472564697,0.03064628504216671,-0.07697488367557526,-0.06117759644985199,-0.09393003582954407,0.026393502950668335,-0.06317562609910965,-0.19493329524993896,-0.2123657912015915,0.07521508634090424,0.07286232709884644,-0.06356511265039444,0.15613886713981628,-0.12247284501791,0.22023242712020874,-0.23532958328723907,0.12097609043121338,0.07650147378444672,0.23829446732997894,-0.11153948307037354,0.20516656339168549,0.20317043364048004,-0.1132640689611435,-0.27472934126853943,-0.2400311678647995,-0.12632064521312714,-0.2227596938610077,-0.07310736179351807,-0.10096986591815948,0.05826035514473915,0.08810093998908997,0.2397008091211319,0.13434845209121704,0.052658796310424805,-0.17809027433395386,0.18447378277778625,-0.05697353929281235,0.11030647903680801,0.21730874478816986,-0.03629336506128311,0.1131068766117096,0.022972306236624718,0.32007816433906555,-0.19866181910037994,-0.11473390460014343,-0.09885700047016144,-0.12976379692554474,0.4139469265937805,0.040509045124053955,-0.006102064624428749,0.26066505908966064,-0.13345038890838623,0.07990207523107529,-0.07612725347280502,-0.0931507796049118],[0.22516697645187378,0.2421444058418274,-0.11338378489017487,-0.10329710692167282,0.14680317044258118,0.020017152652144432,0.15691344439983368,0.3648809790611267,-0.23185929656028748,0.22314855456352234,-0.07828589528799057,0.12488535046577454,-0.10703901946544647,0.24766802787780762,0.14829543232917786,0.06246733292937279,0.5439063906669617,-0.0026866691187024117,-0.192762553691864,0.023384958505630493,-0.38583695888519287,0.09566067904233932,-0.015674792230129242,-0.1393565684556961,0.22352857887744904,0.16993841528892517,0.10655183345079422,0.2606904208660126,-0.280302494764328,0.1695159673690796,0.11686637997627258,0.12079266458749771,0.1792699545621872,-0.2545987665653229,-0.1631072759628296,-0.42399540543556213,-0.19958047568798065,-0.10855623334646225,0.13777007162570953,0.22268074750900269,0.18720807135105133,0.18689490854740143,0.09574498981237411,0.1599193811416626,-0.009286582469940186,0.4439445734024048,-0.2993762195110321,0.036827653646469116,0.03362484648823738,-0.07967623323202133,-0.1886831521987915,0.032349392771720886,-0.14981968700885773,-0.23652049899101257,0.024694472551345825,0.4469457268714905,-0.010735629126429558,-0.11593212187290192,-0.10359042137861252,0.1900475025177002,-0.22804145514965057,-0.2509874701499939,0.09121303260326385,0.009456636384129524],[-0.5380961298942566,-0.03628891706466675,0.09036107361316681,-0.17784932255744934,0.11293849349021912,0.06959827244281769,-0.25439509749412537,-0.03721114993095398,-0.04777084290981293,0.5395448803901672,-0.35823631286621094,0.015458792448043823,0.18316897749900818,0.17535516619682312,-0.2163166105747223,-0.10448726266622543,-0.5503708124160767,0.23117151856422424,-0.004028409719467163,-0.2528643310070038,-0.02585846185684204,-0.21588359773159027,-0.03664728254079819,-0.5530579686164856,-0.01320883259177208,-0.07503443956375122,-0.2533325254917145,0.21534152328968048,0.003878258867189288,-0.12231675535440445,-0.011134237982332706,-0.27201342582702637,0.23874056339263916,-0.11592830717563629,-0.05933353304862976,-0.5131908655166626,0.006684601306915283,0.28934577107429504,0.4058389365673065,0.07086017727851868,-0.19263021647930145,0.5387078523635864,-0.42006418108940125,0.09241479635238647,0.2475367784500122,-0.6072331666946411,0.5121568441390991,0.07268009334802628,0.27581608295440674,0.27362141013145447,0.15975774824619293,-0.21701428294181824,-0.16898974776268005,0.08277475833892822,-0.16877758502960205,-0.012602419592440128,-0.14480434358119965,-0.09387816488742828,0.33044731616973877,0.19847862422466278,-0.13628967106342316,-0.1901170313358307,-0.04342440515756607,0.5152205228805542],[-0.14485763013362885,0.013553708791732788,-0.14093078672885895,0.11998611688613892,-0.10319846868515015,-0.09003425389528275,-0.08538374304771423,0.08005255460739136,0.1437067836523056,0.5005840063095093,-0.0647360309958458,-0.20472769439220428,-0.053662851452827454,0.10462766885757446,0.11981883645057678,-0.0926717147231102,-0.0564599372446537,-0.25977617502212524,-0.003902608994394541,0.033471882343292236,-0.01026823464781046,-0.011793935671448708,0.09677626937627792,-0.2768540680408478,-0.14909112453460693,0.1048814058303833,0.10533303022384644,0.10664644092321396,0.07822531461715698,0.1502661406993866,0.2948574423789978,-0.26478278636932373,-0.07540702819824219,-0.3939056098461151,-0.07117500901222229,-0.2688771188259125,0.00005263090133666992,-0.03135092929005623,0.07661718130111694,-0.2578619420528412,0.11561854928731918,0.45221227407455444,0.03341173753142357,-0.015895158052444458,-0.15175433456897736,-0.1680513173341751,0.06538432836532593,-0.24997247755527496,0.5709630846977234,0.3001706302165985,0.22228629887104034,0.3409767150878906,-0.3524380624294281,-0.12742218375205994,-0.017643645405769348,0.31190425157546997,0.6990615129470825,-0.01830020546913147,-0.04517946392297745,0.10583256185054779,0.12013184279203415,-0.19108855724334717,-0.14114601910114288,0.31497374176979065],[0.18543347716331482,0.23101109266281128,-0.17890886962413788,0.01815914362668991,-0.16685496270656586,0.10120769590139389,0.13728074729442596,-0.2193233072757721,0.04766016826033592,0.1210017055273056,-0.0953436866402626,-0.10136152803897858,0.07987579703330994,-0.09513525664806366,-0.215865820646286,0.18383470177650452,0.0017732090782374144,-0.12800371646881104,-0.22007399797439575,-0.24740079045295715,-0.04784448817372322,-0.03840532526373863,-0.06918065994977951,-0.270881325006485,-0.11533036828041077,-0.23004859685897827,0.07482088357210159,0.03313294053077698,0.17340995371341705,-0.2628522515296936,0.19024379551410675,-0.15219931304454803,0.08892993628978729,0.08097529411315918,-0.11700040102005005,-0.180964395403862,0.14458289742469788,0.1807744950056076,0.0023221236187964678,-0.2042067050933838,0.08317147195339203,-0.07897219806909561,0.24447469413280487,-0.057034894824028015,0.09627869725227356,0.024983758106827736,0.18382178246974945,0.08955146372318268,-0.24972209334373474,0.09764056652784348,-0.11710429191589355,-0.21364590525627136,-0.2758082449436188,0.1554880440235138,-0.10079361498355865,-0.12414577603340149,-0.15754516422748566,-0.074949249625206,-0.21443365514278412,0.11033330857753754,0.1379593461751938,-0.004436037968844175,-0.12888933718204498,0.13473983108997345],[-0.13471664488315582,-0.05037084221839905,0.1842232495546341,0.28645703196525574,0.0006470978260040283,-0.2118915617465973,0.16085964441299438,0.0551149956882,-0.1868116408586502,0.1418473720550537,0.11639506369829178,0.1179470419883728,-0.18578578531742096,-0.25113460421562195,0.08202126622200012,-0.11242341250181198,-0.2552283704280853,-0.14944906532764435,0.0169623214751482,0.15506094694137573,0.2603851556777954,-0.07783074676990509,0.08223113417625427,0.11954343318939209,0.19580134749412537,-0.027279913425445557,-0.1808897703886032,0.032437052577733994,0.16752253472805023,-0.23979951441287994,0.08600521087646484,0.01590566709637642,0.03984730690717697,-0.35665255784988403,-0.07974807918071747,0.20958256721496582,-0.03621748089790344,0.12410952150821686,-0.24232982099056244,-0.24549922347068787,-0.024654993787407875,-0.09295747429132462,-0.14246328175067902,0.19445431232452393,-0.17387038469314575,0.026542983949184418,0.17008735239505768,0.00818683858960867,0.0651983767747879,-0.007938547059893608,-0.21526429057121277,-0.11108794808387756,-0.23265038430690765,0.2551894783973694,-0.09815828502178192,-0.052593592554330826,0.39286917448043823,0.028539657592773438,0.15661799907684326,0.18477170169353485,-0.04593334719538689,-0.04398202523589134,0.07963497191667557,0.16557003557682037],[-0.2065882384777069,-0.08881054818630219,0.18419677019119263,-0.224470317363739,0.22404542565345764,0.01691371761262417,0.059456177055835724,0.06460805982351303,0.12970159947872162,0.2610647678375244,-0.22441086173057556,0.22154682874679565,-0.18848691880702972,-0.15478752553462982,-0.09553404152393341,0.360099196434021,0.14798764884471893,0.24382320046424866,0.24432939291000366,0.22271323204040527,-0.3151513934135437,0.04370741546154022,-0.2708415687084198,-0.023330772295594215,-0.11870099604129791,0.07855722308158875,-0.021248742938041687,0.13628318905830383,-0.3737543523311615,0.224584698677063,0.40791773796081543,0.07932548224925995,0.16060616075992584,0.05059060454368591,0.24921590089797974,-0.21424275636672974,0.21984657645225525,0.20944629609584808,0.05618762969970703,-0.06404988467693329,-0.09388374537229538,0.11130411177873611,0.03409804776310921,-0.14033107459545135,-0.25929316878318787,0.24778498709201813,-0.24725377559661865,-0.05758889764547348,0.16855020821094513,0.397665798664093,0.10542051494121552,0.1665937900543213,0.10715431720018387,0.24101519584655762,0.1251308023929596,0.2963760793209076,0.2871241867542267,0.18832430243492126,-0.15271927416324615,0.017087990418076515,-0.22309190034866333,-0.5257499814033508,-0.08973895013332367,0.31908848881721497],[-0.12350855022668839,-0.029527291655540466,0.14318889379501343,-0.022464867681264877,-0.07199369370937347,-0.245398610830307,0.4043501019477844,0.14612382650375366,-0.05408746004104614,-0.21291480958461761,-0.05132072791457176,0.05119144916534424,0.08409392833709717,-0.18930456042289734,0.10563358664512634,0.18236851692199707,0.03739529475569725,0.18556351959705353,0.06235935539007187,0.10280996561050415,0.18757346272468567,-0.3168015480041504,0.21736711263656616,-0.13487742841243744,0.06343865394592285,0.08967214822769165,0.062006477266550064,-0.09795691072940826,0.06894762814044952,-0.14031049609184265,0.5474317669868469,-0.015557117760181427,-0.1611844301223755,0.5618354082107544,0.16330215334892273,0.33320391178131104,-0.052854374051094055,-0.19839034974575043,-0.12575814127922058,0.002322465181350708,-0.038155362010002136,-0.5242566466331482,0.3654160499572754,-0.11102589964866638,-0.2479189932346344,0.5332745909690857,-0.31684887409210205,0.22838661074638367,-0.006383155006915331,0.2743541896343231,0.1897764801979065,-0.07404439896345139,0.03869190067052841,-0.2595241963863373,-0.20122447609901428,-0.09750396758317947,-0.10700266063213348,-0.0751783698797226,-0.08657576888799667,-0.022147083654999733,-0.10911980271339417,0.5351461172103882,-0.472929984331131,-0.06418246775865555],[0.4045218527317047,-0.20011483132839203,-0.05378716066479683,-0.21756266057491302,0.2116638720035553,-0.2629168629646301,-0.09539804607629776,-0.22960789501667023,0.19001086056232452,-0.38700199127197266,-0.05832754448056221,0.04745045304298401,0.22822117805480957,0.13021206855773926,-0.029356375336647034,-0.01006736047565937,0.5787484049797058,-0.10704810917377472,0.047836966812610626,-0.180428147315979,0.23602671921253204,0.011089728213846684,0.22452948987483978,0.45194151997566223,0.249563068151474,0.16052016615867615,0.350294828414917,-0.17049476504325867,0.12528809905052185,-0.359713613986969,-0.18219724297523499,0.08951370418071747,-0.34892261028289795,-0.1026177629828453,0.02756926417350769,0.27840399742126465,0.012129455804824829,-0.08185587078332901,-0.012793873436748981,-0.1387956738471985,-0.07843602448701859,-0.31762492656707764,0.22423896193504333,-0.03153534233570099,0.1236412525177002,0.5957392454147339,-0.283311128616333,-0.021039027720689774,-0.2588290274143219,-0.10200575739145279,-0.036064691841602325,-0.145224466919899,-0.11884278059005737,-0.09668700397014618,0.07684606313705444,-0.2640659809112549,-0.07189064472913742,0.04746994376182556,0.05384800210595131,0.2828712463378906,0.08360260725021362,0.4893943965435028,-0.2011096477508545,-0.2480691522359848],[0.08330361545085907,-0.18621483445167542,-0.2212236076593399,0.11772844940423965,-0.11955283582210541,0.05675837770104408,0.039715901017189026,0.13853207230567932,-0.11463076621294022,-0.07988810539245605,-0.13945896923542023,-0.18236923217773438,-0.1930384337902069,0.12611284852027893,0.06530296802520752,-0.16272228956222534,0.0704336166381836,0.050965700298547745,-0.14957380294799805,-0.1663525402545929,0.13502034544944763,-0.18789680302143097,0.015295892022550106,-0.20905272662639618,-0.2280435711145401,-0.24840512871742249,-0.02503327466547489,0.04731135070323944,-0.03573760762810707,0.131532222032547,-0.12927985191345215,0.024943474680185318,-0.00828478578478098,0.05659136176109314,-0.1910417079925537,0.1777922362089157,0.01316109299659729,0.08654005825519562,0.08787599205970764,-0.04708346724510193,-0.21138137578964233,0.14090773463249207,-0.2108650952577591,-0.05983568727970123,-0.1197582334280014,-0.03208000957965851,0.14187438786029816,-0.030071260407567024,-0.023408105596899986,-0.12828592956066132,0.23539598286151886,-0.007503108587116003,0.02230549231171608,-0.02884504199028015,-0.20820455253124237,-0.17362728714942932,-0.09399531036615372,-0.0035127103328704834,0.18556807935237885,0.17239262163639069,0.0019004461355507374,0.10678716748952866,0.20060326159000397,-0.00333544728346169],[0.16097255051136017,0.14830473065376282,0.10926714539527893,0.06784003227949142,0.011639505624771118,-0.020544279366731644,0.20037513971328735,-0.25584396719932556,0.14974217116832733,0.036601632833480835,0.23523138463497162,0.08784881234169006,-0.23284801840782166,-0.15074282884597778,-0.24987994134426117,-0.020932512357831,-0.014555838890373707,0.12737050652503967,0.11154979467391968,0.25854921340942383,0.2699478268623352,0.11660733819007874,-0.21576464176177979,0.34515148401260376,0.031174300238490105,0.04816877841949463,-0.14788277447223663,0.13532283902168274,0.06761778891086578,-0.0927787572145462,-0.06363214552402496,0.21446211636066437,0.10939179360866547,-0.505378782749176,-0.1510213315486908,0.05568648874759674,-0.08303555846214294,-0.17137348651885986,0.21752218902111053,0.21037182211875916,0.03889738768339157,0.18984422087669373,0.08813782036304474,0.11589869856834412,-0.08646233379840851,-0.06248141825199127,0.12036745995283127,-0.038238611072301865,-0.24626746773719788,0.0678151547908783,-0.28287315368652344,-0.0801115334033966,-0.20067061483860016,0.14207282662391663,-0.16240274906158447,-0.09112592786550522,0.09929431229829788,-0.06393326818943024,0.06114581972360611,0.05795273557305336,0.10623485594987869,0.22371627390384674,-0.2827858626842499,0.14333556592464447],[0.272445410490036,0.1259046494960785,0.0000018096798157785088,0.22917181253433228,-0.0995350331068039,0.13922299444675446,0.3239280581474304,0.359537273645401,-0.10955502837896347,0.3724448084831238,-0.006192331202328205,-0.22883372008800507,-0.04518938064575195,0.1307772696018219,-0.2063966989517212,0.03314328193664551,0.40540051460266113,-0.251225084066391,0.12278495728969574,-0.21519607305526733,0.0499001108109951,0.29413846135139465,-0.12084753811359406,-0.10476943105459213,-0.22666144371032715,0.19115141034126282,0.1744077056646347,-0.012689713388681412,-0.08688346296548843,0.21098458766937256,0.3465380072593689,0.039197783917188644,0.0072613065131008625,-0.3022681176662445,0.15238314867019653,-0.36147984862327576,0.15349265933036804,-0.05074814707040787,0.0647149607539177,-0.22136831283569336,0.12226402759552002,0.34900686144828796,-0.08192725479602814,0.048268258571624756,-0.07260747253894806,0.3602696657180786,-0.22386452555656433,-0.1633305847644806,0.3304835855960846,0.17587910592556,-0.08310821652412415,0.08625109493732452,0.0816294401884079,0.07131120562553406,0.029414206743240356,0.38405126333236694,-0.13270699977874756,0.12113896012306213,0.020076151937246323,-0.3128088712692261,-0.006434593815356493,-0.19227637350559235,0.027112727984786034,-0.050990935415029526],[0.14595748484134674,-0.1586209535598755,0.026064954698085785,0.33216381072998047,-0.016553089022636414,0.18466487526893616,-0.19992931187152863,-0.31498491764068604,-0.15427356958389282,-0.34823665022850037,0.4707794487476349,-0.04848504066467285,0.18251797556877136,-0.03768368065357208,-0.08621460199356079,-0.0334831066429615,0.4783427119255066,-0.1514500081539154,0.0347607396543026,-0.04150007665157318,-0.15779487788677216,0.10048093646764755,0.36270275712013245,-0.2924462556838989,0.16742806136608124,0.15167683362960815,0.5302755832672119,-0.22956585884094238,0.36274224519729614,-0.4319727122783661,-0.2531158924102783,-0.309147447347641,0.16160494089126587,0.009948593564331532,-0.17557689547538757,-0.06265857070684433,-0.03702835738658905,-0.18700258433818817,-0.08005434274673462,0.09071460366249084,-0.09688344597816467,0.5156078338623047,0.00947932805866003,-0.25509604811668396,0.022306472063064575,0.372506320476532,-0.1776123344898224,0.022573567926883698,0.676329493522644,-0.20332151651382446,0.22911587357521057,-0.6020992994308472,0.006098566111177206,0.06470668315887451,0.0934918224811554,-0.33262768387794495,0.4227685332298279,-0.16318069398403168,-0.1876668483018875,0.5759810209274292,0.03718702867627144,0.24173909425735474,0.6405751705169678,-0.3464847505092621],[-0.053574785590171814,0.11044877767562866,0.10614319890737534,-0.1143660768866539,-0.019496068358421326,0.06885266304016113,0.15103405714035034,0.25350162386894226,-0.08976694941520691,-0.22384196519851685,0.05700930580496788,0.11952200531959534,0.2561565041542053,0.0032852590084075928,-0.059419453144073486,-0.0692901685833931,0.1265449821949005,-0.15922340750694275,0.15121695399284363,0.1995542347431183,-0.1463756412267685,0.030603397637605667,0.12960118055343628,-0.4575941860675812,0.020586054772138596,0.09176808595657349,0.49953123927116394,0.1842375546693802,0.25344669818878174,-0.08567431569099426,-0.11230538040399551,-0.22373968362808228,0.05457732826471329,-0.22774675488471985,0.21598097681999207,0.13399869203567505,0.08017626404762268,-0.037774764001369476,-0.36100485920906067,0.20960867404937744,0.04347342252731323,0.04140349477529526,0.48241591453552246,0.0063582658767700195,-0.25925347208976746,0.15185239911079407,-0.35190993547439575,0.13277308642864227,0.6272047758102417,-0.2676837742328644,0.0004241458373144269,-0.14727799594402313,-0.14754681289196014,-0.2208811193704605,-0.1992008090019226,-0.23788458108901978,0.016963709145784378,0.10228440165519714,-0.1679493486881256,0.08286595344543457,0.017098229378461838,-0.05047368258237839,0.4683387577533722,-0.18793147802352905],[0.16172656416893005,-0.06460782885551453,0.09486079961061478,-0.2138095200061798,-0.20673123002052307,0.16035591065883636,-0.07511696964502335,0.07946175336837769,0.017630424350500107,-0.07253468036651611,-0.21069228649139404,0.05363163352012634,0.2364526391029358,0.06339573860168457,-0.12960250675678253,0.11967074126005173,-0.1998242288827896,0.027845723554491997,0.17771542072296143,0.053184956312179565,0.0469137467443943,-0.260690301656723,0.11893816292285919,0.1412474662065506,0.09885488450527191,-0.12724129855632782,0.046480998396873474,-0.18753178417682648,0.08061278611421585,0.12325126677751541,0.04718226566910744,0.12368331849575043,0.14436973631381989,-0.13015790283679962,-0.2017366588115692,-0.01382419653236866,-0.20242059230804443,-0.036907847970724106,0.018016133457422256,-0.14098955690860748,-0.00042787037091329694,0.12883082032203674,-0.13360191881656647,-0.033250585198402405,-0.15273892879486084,-0.033273547887802124,-0.16602514684200287,0.005789300426840782,-0.059983618557453156,0.04270706698298454,-0.225546196103096,0.06394819915294647,0.03704917058348656,-0.2509922385215759,-0.025509268045425415,0.035155024379491806,-0.17079661786556244,-0.2503913342952728,0.08062919229269028,-0.12774144113063812,-0.21672846376895905,-0.06256973743438721,-0.046564582735300064,-0.08258849382400513],[0.13391168415546417,-0.25634467601776123,0.21052445471286774,0.32405808568000793,-0.07323259115219116,-0.23526185750961304,-0.24509727954864502,0.02634049393236637,-0.2595977485179901,0.03298550844192505,0.2877059876918793,0.11732912063598633,0.17287194728851318,0.0765550434589386,-0.1925056278705597,0.08434934169054031,-0.4558895230293274,-0.17846310138702393,0.188546821475029,-0.08341608941555023,-0.16896450519561768,0.11824414879083633,0.07672517001628876,0.3553934097290039,-0.09714729338884354,-0.08361715078353882,0.1334075778722763,0.2223464697599411,0.1838618665933609,-0.0334290936589241,-0.19573797285556793,-0.16040430963039398,-0.17116250097751617,-0.12186826765537262,0.2589380145072937,-0.1724853813648224,0.2471691370010376,0.1231430396437645,0.08588375151157379,-0.0072119832038879395,-0.05212711542844772,0.03156944364309311,-0.22258450090885162,-0.09786981344223022,-0.25364941358566284,-0.10971183329820633,0.06302399933338165,-0.23346136510372162,-0.047138504683971405,0.18559691309928894,-0.0509973019361496,0.32371607422828674,0.1426442414522171,-0.22881311178207397,0.13073548674583435,-0.25569576025009155,0.26637306809425354,-0.005675017833709717,0.19474321603775024,0.057105522602796555,0.11114541441202164,0.24504025280475616,-0.13791421055793762,-0.036259837448596954],[0.23590266704559326,0.21060502529144287,0.1388673633337021,-0.22414880990982056,-0.014033213257789612,0.18072377145290375,0.21512635052204132,0.045698150992393494,-0.03998522087931633,0.08862145245075226,0.09020636230707169,-0.11580447852611542,-0.12211623787879944,-0.08542618155479431,0.22863468527793884,0.337954580783844,0.32781827449798584,-0.10130514949560165,0.18000218272209167,0.13821178674697876,-0.4329032301902771,0.12417788803577423,-0.09974400699138641,-0.12615515291690826,-0.1133466511964798,0.19177082180976868,0.3193979263305664,-0.03781292214989662,-0.03439461439847946,-0.0428064689040184,0.22589422762393951,0.122368223965168,-0.17510245740413666,-0.1580888330936432,0.21448969841003418,-0.2933814525604248,-0.16972163319587708,0.1305856555700302,0.02518133446574211,-0.11125035583972931,0.11534977704286575,0.1102195456624031,0.27914705872535706,-0.24572275578975677,-0.16716453433036804,-0.004134906455874443,0.1916792392730713,-0.22423797845840454,0.3208342492580414,0.3493990898132324,0.17202046513557434,0.3445580005645752,-0.2927011251449585,-0.13283106684684753,0.1398579478263855,0.3788769841194153,0.13630583882331848,-0.06675802171230316,0.05375729873776436,-0.22628962993621826,0.06363828480243683,-0.5467861890792847,0.05567574501037598,0.2819509208202362],[0.41452735662460327,0.007349520921707153,-0.180045023560524,-0.4410122036933899,0.23140782117843628,-0.04805291071534157,0.056767143309116364,0.49342095851898193,-0.12935051321983337,0.47877371311187744,-0.45093730092048645,-0.05035369098186493,0.20642486214637756,0.23168379068374634,-0.06236386299133301,-0.15460599958896637,0.1527610868215561,-0.12876656651496887,-0.11447484791278839,-0.13478568196296692,-0.18063272535800934,-0.3895370066165924,-0.3983951508998871,0.05265212804079056,0.1570947915315628,0.14695656299591064,0.3216360807418823,0.0075283958576619625,0.0736246109008789,0.5327451825141907,0.35190653800964355,0.33146703243255615,0.35115841031074524,-0.6081854104995728,-0.01733982563018799,0.00640444690361619,0.037530332803726196,0.07847180217504501,0.22453735768795013,0.2568122148513794,0.16629467904567719,0.3215138912200928,0.30899369716644287,0.02114000916481018,0.2122940719127655,0.028148099780082703,-0.11512032896280289,-0.1279565840959549,-0.5246419906616211,0.32471612095832825,-0.46182626485824585,-0.03445214405655861,0.09207594394683838,0.1719968616962433,0.11849674582481384,0.49820420145988464,0.2526101768016815,-0.11659251153469086,-0.148545041680336,-0.5039947628974915,-0.005557321477681398,-0.4990328848361969,-0.2522176504135132,0.1371888667345047],[-0.3931085169315338,-0.055177465081214905,0.018241239711642265,-0.15549203753471375,-0.03205007314682007,-0.14605356752872467,0.026653027161955833,0.6212196350097656,-0.16055798530578613,0.6243156790733337,-0.2186395227909088,0.14149042963981628,-0.048230499029159546,-0.08133573830127716,-0.004313230514526367,0.22552962601184845,-0.39799779653549194,0.1291755586862564,-0.02178436517715454,-0.14348527789115906,-0.43993303179740906,-0.16323497891426086,-0.3825201392173767,0.2531055212020874,0.06203094497323036,0.09005209803581238,-0.23837001621723175,0.5441953539848328,-0.564278781414032,0.55009526014328,0.2481721192598343,0.1920759230852127,0.2048962116241455,-0.1618839055299759,-0.06434375047683716,-0.3716784119606018,0.1767074465751648,0.48984402418136597,0.8363288640975952,0.19568002223968506,-0.009044244885444641,-0.07411062717437744,0.020915929228067398,-0.19951647520065308,-0.12471219897270203,-0.4403125047683716,0.05133254453539848,-0.2556957006454468,-0.15083061158657074,0.5865030288696289,-0.1915179044008255,0.5329625606536865,0.02280741184949875,-0.04942382872104645,0.0027847588062286377,0.530415415763855,-0.48418208956718445,-0.04131250083446503,0.5850780606269836,-0.38599780201911926,0.043825067579746246,-0.7676604390144348,-0.2999653220176697,0.3335707485675812],[-0.20894041657447815,-0.19635599851608276,-0.04868168756365776,-0.15474222600460052,0.21407586336135864,-0.12934671342372894,0.10812311619520187,-0.0012757261283695698,0.0854656770825386,-0.060221388936042786,0.042681243270635605,0.2115243375301361,-0.21556082367897034,-0.24297934770584106,-0.2089400291442871,0.1743209958076477,0.22269593179225922,-0.2289809137582779,-0.16775619983673096,-0.047854676842689514,-0.16856756806373596,0.11100373417139053,0.10613024979829788,0.015930181369185448,0.09124220907688141,0.2456815242767334,0.11057255417108536,-0.1069856733083725,-0.24284784495830536,0.02999245934188366,0.03262443467974663,-0.19635148346424103,-0.17123781144618988,0.008663960732519627,-0.0520847886800766,0.007486558984965086,-0.08937722444534302,-0.05165925249457359,0.15381498634815216,0.12776964902877808,-0.23274175822734833,-0.26714983582496643,-0.002931450493633747,-0.08634534478187561,-0.09021380543708801,-0.018097491934895515,-0.0635385811328888,0.1924617737531662,0.22581768035888672,-0.08172810822725296,0.17727036774158478,0.16686588525772095,0.18243882060050964,-0.0735476166009903,-0.1724950075149536,0.09452488273382187,-0.28357428312301636,0.14188697934150696,0.07911119610071182,-0.2743121385574341,-0.1864023506641388,-0.11538044363260269,0.03541990742087364,0.1053549200296402],[-0.11125274747610092,-0.1877327412366867,-0.1786818504333496,0.11565624922513962,0.22694024443626404,0.018003400415182114,-0.21397829055786133,-0.13557115197181702,-0.16289831697940826,0.12314411252737045,-0.1160992681980133,0.16537055373191833,-0.15471112728118896,0.031780123710632324,0.037326812744140625,0.07919523864984512,-0.3549439311027527,-0.14935657382011414,0.14764486253261566,-0.17970332503318787,-0.08415006846189499,0.23716752231121063,-0.20539474487304688,0.14134907722473145,-0.18162482976913452,-0.025272369384765625,-0.054603129625320435,0.052292224019765854,-0.01363963820040226,0.030086254701018333,-0.14891551434993744,0.12822531163692474,-0.2573762834072113,-0.34376752376556396,0.12843376398086548,-0.08239545673131943,-0.23789063096046448,0.1801520586013794,-0.03003423660993576,0.06769728660583496,0.12757499516010284,-0.2055017054080963,-0.2527671456336975,-0.06977584958076477,-0.008064836263656616,-0.2558939754962921,-0.044022951275110245,0.17998458445072174,-0.008330623619258404,-0.17110377550125122,-0.11745067685842514,0.3524537980556488,-0.28170520067214966,0.05012822151184082,0.1295199990272522,0.11690717190504074,0.3012680411338806,-0.15074697136878967,-0.0002499460824765265,-0.1606670767068863,0.10514575988054276,-0.2038411945104599,-0.30632755160331726,-0.11082629859447479],[0.07848834991455078,-0.19178542494773865,-0.01035513449460268,0.08819592744112015,-0.032526493072509766,-0.18681536614894867,-0.10034467279911041,0.07832536101341248,0.26838093996047974,0.10280397534370422,-0.05786452442407608,0.1422741413116455,-0.06577689945697784,0.21105709671974182,0.04466748237609863,0.10844989120960236,0.06744846701622009,-0.15647734701633453,0.2717565596103668,0.03602933883666992,-0.017723029479384422,-0.014071334153413773,0.00504689384251833,-0.13102975487709045,0.19599448144435883,0.04901909828186035,0.14412005245685577,0.01042341347783804,-0.0295974463224411,0.08163829892873764,0.2886858880519867,0.14310482144355774,-0.24555060267448425,-0.3779419958591461,0.017299145460128784,-0.11965654790401459,0.18803390860557556,0.2914038896560669,0.45923754572868347,-0.07218064367771149,-0.2025880068540573,-0.1306200623512268,0.052051715552806854,0.04189309477806091,0.2300547957420349,-0.023141415789723396,-0.20910826325416565,-0.05548698082566261,-0.03900725767016411,0.31451138854026794,-0.2809835970401764,0.2021544873714447,-0.16136127710342407,-0.23797865211963654,-0.022246241569519043,0.308154433965683,-0.02602069266140461,0.07954448461532593,-0.1625809371471405,-0.1262725591659546,-0.21693947911262512,-0.22274446487426758,-0.1396370679140091,-0.04711247235536575]],"bias":[-0.14179113507270813,0,-0.02108086831867695,0.14062172174453735,0,0.09301327168941498,-0.10967228561639786,-0.1966683566570282,-0.020080354064702988,0.055777307599782944,0.17022989690303802,0,0,0,0,-0.058007579296827316,-0.12930043041706085,-0.006970113143324852,-0.017059391364455223,0,0.09599969536066055,0.06868362426757812,-0.032909832894802094,0.2060837298631668,-0.0018325143028050661,0,0.04432084038853645,-0.009609319269657135,0.12553133070468903,-0.036064278334379196,0.08724561333656311,-0.04832017049193382,-0.05750107020139694,0.28041958808898926,0,-0.06634453684091568,0,-0.11975874751806259,0.07684829831123352,0,-0.010288028046488762,0.04985382780432701,0.05830896645784378,0,0,-0.047801535576581955,0.329283744096756,-0.01677936129271984,0.1536424607038498,-0.14128424227237701,0.041238933801651,0.08218371868133545,0.0003627162368502468,0,0,-0.06709633767604828,0.053654350340366364,0,0.13925990462303162,0.0070367236621677876,-0.016292374581098557,0.07879135012626648,0.12112293392419815,0.17714904248714447],"activation":"relu"},{"weights":[[0.07966478914022446,0.024844985455274582,-0.057594362646341324,-0.030753739178180695,-0.14150722324848175,-0.13334819674491882,0.022654229775071144,0.02455824799835682,0.2767771780490875,-0.11294333636760712,0.031095603480935097,-0.19877612590789795,-0.1472417265176773,-0.016725726425647736,0.23927783966064453,-0.009804675355553627,-0.11536931246519089,-0.2438516765832901,-0.04576215520501137,-0.027612073346972466,-0.10600033402442932,-0.02547440677881241,0.1723863184452057,0.0982746034860611,0.2009751796722412,0.1199527159333229,0.06601762026548386,0.2742829918861389,0.049411673098802567,0.22630077600479126,-0.08560331910848618,-0.08942711353302002],[-0.012497186660766602,0.22813868522644043,-0.051390767097473145,-0.14365190267562866,0.17513233423233032,0.09138941764831543,-0.12098956108093262,0.23935621976852417,-0.14255905151367188,0.16077041625976562,0.14701074361801147,-0.16297870874404907,-0.01281583309173584,-0.21121490001678467,-0.07319056987762451,0.029733657836914062,0.21381157636642456,-0.10779058933258057,-0.044283509254455566,-0.021183133125305176,-0.08626919984817505,0.12993693351745605,-0.008453667163848877,-0.055159568786621094,0.14911127090454102,0.14951956272125244,-0.13565188646316528,0.037316858768463135,0.09582018852233887,0.09624850749969482,0.0839424729347229,0.17210793495178223],[-0.14495547115802765,0.22474446892738342,0.19961264729499817,-0.1520112007856369,-0.14384496212005615,0.18024912476539612,-0.19153380393981934,-0.0958627387881279,0.15860313177108765,-0.23388510942459106,-0.15155230462551117,0.15415209531784058,0.18003802001476288,-0.022745735943317413,0.24103157222270966,0.15470708906650543,0.040987055748701096,-0.0020340506453067064,0.17140290141105652,0.07685350626707077,0.2653820812702179,-0.1439351588487625,-0.24557054042816162,0.16359272599220276,-0.16015414893627167,-0.1981130689382553,-0.03948315232992172,0.03485608473420143,-0.1745469570159912,0.1281164288520813,0.20441588759422302,-0.00023076811339706182],[-0.1524217426776886,0.474275141954422,-0.23477064073085785,0.28536537289619446,-0.04588942974805832,-0.2414472997188568,-0.2019706815481186,-0.18963925540447235,-0.13361302018165588,0.06928285956382751,0.3707304894924164,0.015426695346832275,-0.11798816919326782,-0.13914217054843903,0.05261292681097984,-0.10409283638000488,-0.2554566562175751,-0.23221084475517273,0.09091123938560486,0.08910037577152252,0.15596628189086914,0.46197301149368286,-0.1717599630355835,0.3847653865814209,0.14358143508434296,0.5221772193908691,0.43837112188339233,0.15213465690612793,0.17225825786590576,0.17045781016349792,-0.3539620041847229,-0.14721772074699402],[-0.06606191396713257,-0.17262333631515503,-0.17121726274490356,-0.23266738653182983,0.15945327281951904,0.20345425605773926,-0.005529224872589111,-0.018068909645080566,0.036497533321380615,-0.2486904263496399,0.11931586265563965,-0.24185019731521606,0.08808833360671997,-0.04996609687805176,0.2231539487838745,0.1726316213607788,0.03861689567565918,0.017447233200073242,0.1937527060508728,0.02889341115951538,0.1411558985710144,-0.10946595668792725,-0.13874918222427368,0.11726468801498413,-0.09596407413482666,0.02102440595626831,-0.1706327199935913,0.04135864973068237,-0.21693551540374756,0.12324470281600952,0.12162351608276367,-0.014005184173583984],[0.23388704657554626,0.14627842605113983,-0.09732993692159653,-0.22698231041431427,-0.3005425035953522,-0.21255546808242798,0.17462535202503204,-0.23440130054950714,-0.07770238816738129,0.1286395639181137,0.06830722093582153,-0.11554088443517685,-0.15783105790615082,0.020310433581471443,-0.06367678940296173,-0.11193035542964935,0.08402039855718613,-0.016785278916358948,-0.2743501365184784,0.09302536398172379,0.11874986439943314,0.14154420793056488,-0.22913411259651184,-0.2720530033111572,-0.12793870270252228,-0.3632590174674988,0.012138426303863525,-0.1864728033542633,0.06385985016822815,0.14030735194683075,0.12852807343006134,0.11240524798631668],[0.09529930353164673,0.2589511573314667,-0.05719897523522377,0.2201765924692154,-0.13599446415901184,-0.1635100245475769,-0.028144966810941696,0.10402094572782516,0.17945340275764465,-0.5978810787200928,0.0989067479968071,-0.06287038326263428,0.3951902687549591,0.1662672758102417,0.21763789653778076,0.004532637540251017,-0.10868903994560242,-0.15144631266593933,0.09595877677202225,-0.29064682126045227,-0.09451663494110107,-0.13518176972866058,0.009895244613289833,-0.1054132953286171,0.09548503905534744,-0.31453803181648254,-0.1805000752210617,0.16607548296451569,-0.08561418950557709,-0.0005188263021409512,-0.04108366370201111,0.13458414375782013],[0.18163445591926575,-0.1437995284795761,-0.07539882510900497,-0.052786488085985184,0.030136754736304283,0.1034679263830185,-0.2633519768714905,0.13665756583213806,0.24600918591022491,0.24259066581726074,-0.14549829065799713,-0.0979367047548294,-0.2636161148548126,-0.16824273765087128,0.02524150349199772,-0.13529762625694275,0.00432001706212759,0.10927728563547134,-0.20490866899490356,0.07601825147867203,-0.007399650290608406,-0.037893857806921005,-0.039939384907484055,-0.043333277106285095,-0.08847053349018097,-0.013212076388299465,-0.06842681020498276,-0.11279420554637909,0.06122583895921707,-0.0483434684574604,0.0006623153458349407,0.13538587093353271],[0.21440432965755463,0.03952011466026306,-0.12038617581129074,-0.09282569587230682,0.06588657200336456,-0.1880171298980713,0.08212298154830933,0.12449415028095245,-0.05243994668126106,-0.11667037010192871,0.05651254206895828,-0.18891608715057373,0.17465007305145264,-0.10440076142549515,-0.030915439128875732,-0.22070389986038208,-0.12135451287031174,-0.09889663755893707,0.09463632106781006,0.11384277790784836,0.1293080449104309,0.1367357224225998,-0.06845392286777496,-0.21247020363807678,-0.0034944794606417418,-0.24916350841522217,0.2482161670923233,0.16529709100723267,0.021596338599920273,-0.1561807245016098,-0.1666410118341446,-0.073677659034729],[0.13695330917835236,-0.10679632425308228,-0.15895037353038788,0.12758128345012665,0.7333154082298279,0.112099789083004,-0.5064415335655212,0.38487330079078674,0.5288918018341064,-0.6202945709228516,-0.2167331725358963,0.083750419318676,0.23583166301250458,-0.2588143050670624,-0.04304172471165657,0.30652570724487305,-0.316842645406723,0.1668582260608673,0.23135611414909363,0.20916111767292023,-0.2865316867828369,-0.41936826705932617,0.6505213379859924,0.18308265507221222,0.3932022750377655,-0.15088129043579102,-0.3371350169181824,0.49263352155685425,-0.23424549400806427,-0.11734779924154282,-0.35555291175842285,-0.4672474265098572],[-0.27184149622917175,0.4868822395801544,0.030518636107444763,0.425680547952652,-0.01347487885504961,0.18887898325920105,-0.08739801496267319,-0.21061278879642487,-0.08838056772947311,0.05656212568283081,0.46511492133140564,0.024438679218292236,0.062011461704969406,-0.37739893794059753,0.4588795602321625,-0.32856667041778564,-0.31658658385276794,-0.1949121057987213,-0.14618603885173798,-0.13988542556762695,0.4553598463535309,0.07238602638244629,-0.0271947979927063,0.6518989205360413,-0.2994910180568695,0.49901655316352844,0.28473302721977234,-0.11395510286092758,0.39537420868873596,0.30276891589164734,-0.230360746383667,0.24320298433303833],[-0.16137707233428955,0.07651382684707642,0.1254047155380249,-0.16841810941696167,0.07775050401687622,-0.2345106601715088,0.11526179313659668,-0.230446457862854,-0.23328888416290283,-0.21149522066116333,-0.1370549201965332,0.052918434143066406,0.020281553268432617,-0.0013685226440429688,-0.09251213073730469,0.236037015914917,-0.028335630893707275,-0.04910397529602051,0.12438839673995972,-0.17158395051956177,-0.14315491914749146,0.24975574016571045,-0.18323451280593872,-0.15824377536773682,-0.0970374345779419,0.028043091297149658,-0.2198469042778015,0.17306995391845703,0.046750426292419434,0.12266778945922852,0.08610403537750244,-0.1114269495010376],[-0.010919034481048584,-0.2279607057571411,0.1898355484008789,-0.09347414970397949,-0.08343470096588135,-0.24983477592468262,0.012619733810424805,0.15202182531356812,0.13159894943237305,-0.11060976982116699,0.22101187705993652,-0.22601556777954102,0.1396128535270691,-0.01247870922088623,-0.18164199590682983,-0.12557262182235718,-0.10232824087142944,-0.1582348346710205,-0.16556507349014282,0.0812608003616333,0.06360214948654175,-0.24139541387557983,-0.13090723752975464,-0.050227224826812744,0.14734870195388794,0.05467939376831055,0.11810934543609619,0.11782848834991455,-0.21255844831466675,0.11371368169784546,0.09643000364303589,0.19165968894958496],[-0.24982589483261108,0.23098325729370117,0.012640595436096191,0.2406020164489746,-0.22466403245925903,-0.1680966019630432,-0.012141227722167969,-0.08106625080108643,-0.15448641777038574,0.028756439685821533,-0.12229210138320923,0.17399466037750244,0.05687844753265381,0.06222265958786011,0.028278052806854248,0.13118237257003784,0.05347698926925659,-0.051770925521850586,-0.041078150272369385,-0.21162980794906616,-0.04039067029953003,0.03674739599227905,-0.06168961524963379,-0.07754302024841309,0.07894504070281982,0.19612467288970947,-0.014767765998840332,0.11750692129135132,-0.1854569911956787,0.23831045627593994,-0.008802175521850586,0.2390943169593811],[0.06555807590484619,-0.032411158084869385,0.2305707335472107,0.18813127279281616,-0.050097644329071045,0.06952863931655884,-0.12226110696792603,0.20161080360412598,0.2161596417427063,0.12098276615142822,0.0018358230590820312,0.027638912200927734,0.20565897226333618,0.0850440263748169,0.06287944316864014,0.21150082349777222,0.18441933393478394,-0.16762322187423706,-0.20353835821151733,0.2369774580001831,0.04136359691619873,0.12594854831695557,-0.09483951330184937,0.06024831533432007,-0.09538984298706055,-0.05408179759979248,0.14111614227294922,-0.12687313556671143,0.19714754819869995,0.21940267086029053,-0.0983763337135315,-0.1553184986114502],[0.08777196705341339,-0.16306616365909576,-0.08444257080554962,0.0933501198887825,0.06828039139509201,0.0868598073720932,0.07620371878147125,0.14247766137123108,-0.012945742346346378,-0.5524263978004456,-0.1597411334514618,0.050749775022268295,0.08075181394815445,0.13066723942756653,-0.2539476752281189,-0.01266336627304554,-0.1270352452993393,-0.18002669513225555,-0.22692300379276276,0.026414915919303894,-0.006447197403758764,0.22641725838184357,-0.06514913588762283,-0.015703709796071053,0.18548119068145752,0.04796064645051956,-0.06220952421426773,0.13345856964588165,0.08287642151117325,-0.10550535470247269,0.14344023168087006,-0.1020398810505867],[-0.11441782116889954,0.4919673800468445,0.11561433970928192,0.2271714061498642,-0.27578628063201904,0.21698875725269318,-0.3033275604248047,0.018453894183039665,0.010485975071787834,-0.27018803358078003,0.3557893633842468,-0.2405286431312561,-0.03883373364806175,0.38238319754600525,0.5479946732521057,0.9704896807670593,0.28051045536994934,-0.02920108288526535,0.13150854408740997,-0.1356968730688095,0.0503307580947876,0.3470544219017029,0.09905093908309937,0.07028917223215103,-0.007939506322145462,0.1637333780527115,0.46972203254699707,-0.20666514337062836,-0.12157679349184036,0.002092157956212759,-0.22382423281669617,0.4773922264575958],[0.01904570311307907,-0.08692909777164459,-0.21982257068157196,-0.06965890526771545,0.1798640489578247,-0.05599182844161987,0.15469838678836823,-0.0890522301197052,-0.054867807775735855,0.12660717964172363,-0.18969957530498505,-0.07655864953994751,0.01777958869934082,0.22549422085285187,-0.10093463212251663,0.02189856767654419,-0.011538473889231682,-0.10758049786090851,-0.07796043157577515,-0.1810576319694519,0.121303029358387,-0.11776310950517654,0.23593419790267944,0.1144050657749176,-0.25503626465797424,0.18567322194576263,0.17548240721225739,0.04496441036462784,-0.20071576535701752,-0.2445564717054367,-0.16817203164100647,0.03607851266860962],[0.12263872474431992,0.2536468505859375,0.1042683944106102,-0.2297428697347641,0.22146594524383545,-0.0750662237405777,0.20106297731399536,0.08634777367115021,0.004179120063781738,0.1655024290084839,-0.0037122308276593685,-0.11555856466293335,0.07880071550607681,-0.08402584493160248,0.12759405374526978,-0.24863356351852417,-0.16804303228855133,0.027634263038635254,-0.0849122703075409,-0.03094041347503662,-0.21904821693897247,-0.1467687338590622,-0.039536356925964355,0.05328340083360672,-0.06274242699146271,-0.22308611869812012,-0.16066685318946838,0.03627799451351166,-0.14719785749912262,0.1982094645500183,0.09480342268943787,-0.21527010202407837],[-0.23505616188049316,0.18438053131103516,-0.22910547256469727,-0.029634714126586914,-0.14329147338867188,0.1320720911026001,-0.03605777025222778,0.05711251497268677,-0.10855919122695923,-0.1768958568572998,0.2470225691795349,0.17497718334197998,-0.13908851146697998,-0.03125619888305664,-0.23428672552108765,0.13338488340377808,-0.044563114643096924,-0.04281812906265259,0.1268848180770874,-0.20203977823257446,0.1452280879020691,-0.18662989139556885,0.19350659847259521,-0.019342899322509766,0.23344236612319946,0.16187012195587158,0.2384381890296936,0.0432354211807251,-0.22408509254455566,-0.19748222827911377,-0.14502018690109253,0.05282562971115112],[0.07844332605600357,-0.24325667321681976,-0.06613710522651672,0.1996530443429947,-0.09811164438724518,-0.15448705852031708,0.18590736389160156,-0.01171313039958477,-0.026158183813095093,-0.37385162711143494,0.08240096271038055,-0.11123119294643402,-0.006486986763775349,0.10506703704595566,-0.09241940826177597,-0.14938651025295258,0.13295146822929382,-0.0428643673658371,0.048380251973867416,0.06966540217399597,-0.21816176176071167,0.12591306865215302,0.086576446890831,0.014883078634738922,-0.21140097081661224,0.01172273512929678,-0.22545287013053894,0.08666601032018661,0.19209136068820953,0.07735858112573624,-0.15973393619060516,0.0630715861916542],[0.15432803332805634,0.29434388875961304,-0.02130071073770523,0.1297179013490677,-0.11770868301391602,-0.07598788291215897,-0.2768736779689789,-0.23056253790855408,-0.14148688316345215,-0.1861920952796936,0.46405428647994995,-0.09090161323547363,0.11462526023387909,0.1637912392616272,0.1610659956932068,-0.2779698073863983,-0.0763750821352005,0.06310701370239258,-0.22639784216880798,-0.1419007033109665,0.17826633155345917,0.14893537759780884,-0.057974301278591156,0.43764710426330566,-0.1527940034866333,0.2770501971244812,0.3467269837856293,-0.04969313368201256,0.33242225646972656,0.33681225776672363,-0.32687875628471375,0.15602725744247437],[-0.13405555486679077,0.08222001045942307,-0.22332830727100372,-0.10189241915941238,-0.37421464920043945,-0.02452196180820465,0.15170569717884064,0.12466772645711899,-0.2096620500087738,-0.533411979675293,0.21466851234436035,-0.19378390908241272,-0.05482645705342293,0.1357252448797226,0.1276930719614029,-0.12036753445863724,-0.2049274891614914,-0.20619356632232666,0.19140487909317017,0.24892942607402802,0.024738851934671402,-0.11290313303470612,0.04021179676055908,0.060878586024045944,0.032088566571474075,-0.2275790125131607,-0.037664592266082764,0.12007676064968109,0.08723075687885284,-0.25811779499053955,0.08614376187324524,-0.21553000807762146],[0.1602930724620819,-0.3431742787361145,-0.1748950481414795,0.309026300907135,0.18608202040195465,0.0888165682554245,0.12194760143756866,0.18649472296237946,0.19061656296253204,-0.5137225985527039,-0.23058466613292694,0.05274050310254097,-0.439430296421051,-0.0367327518761158,-0.2631203234195709,0.23963625729084015,-0.0797131136059761,-0.03180764988064766,0.10669930279254913,-0.19194315373897552,-0.07953649759292603,-0.2362879365682602,-0.11097416281700134,0.147190123796463,0.11972199380397797,0.08738359808921814,-0.16579459607601166,0.011174437589943409,-0.35332345962524414,0.1842656135559082,0.08639226853847504,0.003815127070993185],[0.05220255255699158,-0.21526724100112915,-0.20204207301139832,-0.04446529597043991,0.16931504011154175,-0.104786217212677,0.24096709489822388,-0.08221403509378433,-0.13487933576107025,-0.060813192278146744,-0.126246839761734,0.1084604263305664,0.1615900993347168,0.25464847683906555,-0.10306136310100555,0.19731999933719635,0.05406467989087105,-0.10225827991962433,-0.1545168161392212,0.10205832868814468,0.019390542060136795,-0.0794486552476883,0.07581416517496109,0.15935999155044556,-0.040700286626815796,0.23510366678237915,0.03253115713596344,0.17177549004554749,0.18942709267139435,-0.18195846676826477,0.041474636644124985,-0.09598753601312637],[0.0778304934501648,0.11093980073928833,-0.06029301881790161,-0.10656976699829102,0.02371162176132202,0.04454076290130615,-0.17320066690444946,-0.24449902772903442,0.10996532440185547,0.2016097903251648,-0.16084855794906616,0.21572387218475342,-0.09696376323699951,-0.16077643632888794,-0.23736053705215454,-0.07833373546600342,-0.07055169343948364,-0.04461401700973511,-0.1709650158882141,-0.20340639352798462,-0.17284327745437622,-0.12135988473892212,0.13849949836730957,-0.19735795259475708,-0.05272430181503296,-0.07842099666595459,-0.11597442626953125,0.2134125828742981,0.21579492092132568,-0.190582275390625,0.24155348539352417,-0.014825403690338135],[-0.028633397072553635,0.2770572304725647,0.05513180047273636,0.033752962946891785,-0.5184996724128723,-0.14133286476135254,-0.23752367496490479,-0.30573001503944397,0.015258033759891987,0.30595651268959045,-0.12361109256744385,-0.010905861854553223,-1.0043426752090454,0.06568370014429092,0.3582618832588196,-0.05480923503637314,0.08029191941022873,0.2470102459192276,0.094563789665699,-0.04557985067367554,0.23470160365104675,0.2887672483921051,-0.44526368379592896,-0.05912705510854721,-0.2597831189632416,-0.18113727867603302,-0.09528953582048416,0.06635455787181854,0.18326008319854736,0.06509583443403244,-0.04326290637254715,0.15909554064273834],[0.20793165266513824,-0.0732298493385315,-0.03999674692749977,0.03245972841978073,0.22969584167003632,-0.061885688453912735,0.13016948103904724,0.08362708985805511,-0.05135947838425636,0.2819330394268036,0.1392538696527481,-0.1542697250843048,0.2589813768863678,0.1986721158027649,0.13900035619735718,0.347556471824646,-0.003893866902217269,0.10783767700195312,-0.021109044551849365,0.009763027541339397,0.19347019493579865,0.03837079182267189,-0.00808895193040371,0.022972993552684784,0.18673910200595856,-0.063646100461483,0.09875321388244629,0.17767730355262756,0.02122904732823372,-0.23443274199962616,0.07174021005630493,0.026017915457487106],[-0.1900310069322586,-0.07222355157136917,-0.03289048746228218,-0.11904431134462357,-0.07407105714082718,0.011263406835496426,-0.19420590996742249,-0.167897030711174,-0.20587369799613953,0.08956380188465118,0.1628490686416626,0.0519227460026741,-0.030301103368401527,0.051074571907520294,-0.02223115786910057,0.17038175463676453,0.09987960010766983,0.18447096645832062,-0.13178063929080963,-0.21757358312606812,0.020230920985341072,0.1980500966310501,-0.12825073301792145,-0.28857889771461487,0.23502376675605774,0.07148784399032593,0.21913333237171173,-0.2132100760936737,-0.09154701977968216,0.14666776359081268,0.13738730549812317,-0.05564068630337715],[0.1836387664079666,0.045084502547979355,-0.11462937295436859,0.014363613910973072,0.2739689350128174,0.007558940444141626,-0.3051413893699646,0.14927484095096588,0.3357242941856384,0.2149423062801361,-0.05834932252764702,0.0026755095459520817,-0.05129207670688629,-0.2489658147096634,-0.24741601943969727,-0.18710169196128845,0.0792921781539917,0.03378724306821823,0.088559091091156,-0.06638042628765106,-0.24057155847549438,0.20780010521411896,0.24397772550582886,0.16364364326000214,0.18116894364356995,-0.1559113711118698,-0.26842647790908813,0.11403264105319977,-0.16771303117275238,0.05202428996562958,-0.18623504042625427,-0.18485389649868011],[0.0961950272321701,0.127031609416008,0.1385180950164795,-0.0003297409857623279,-0.37815651297569275,-0.14157992601394653,-0.15782035887241364,-0.26885101199150085,0.2990756332874298,0.10521886497735977,0.2472236007452011,0.08134907484054565,0.09499255567789078,0.06385017931461334,-0.07104514539241791,-0.04524162411689758,0.006632553413510323,0.195451557636261,0.1280883550643921,-0.2096979171037674,-0.10384894907474518,0.26315340399742126,-0.11591974645853043,-0.19678479433059692,-0.28987354040145874,-0.1035342887043953,0.0017954926006495953,0.2530716061592102,0.33273762464523315,-0.24836041033267975,0.06174452230334282,0.28474849462509155],[0.07201940566301346,0.23476356267929077,0.1292305588722229,0.04943384230136871,0.28124338388442993,0.024658307433128357,-0.11279938369989395,-0.018104054033756256,0.05993013456463814,-0.00010494612797629088,0.12740175426006317,-0.12284005433320999,-0.015409666113555431,0.040919918566942215,-0.2568017244338989,-0.2961398959159851,-0.19417551159858704,-0.23701630532741547,-0.08941645920276642,-0.058423228561878204,0.03831988945603371,-0.2283555269241333,-0.22968143224716187,-0.1557263433933258,0.18937449157238007,-0.24723497033119202,0.18077225983142853,-0.13470526039600372,-0.0912218689918518,0.13361555337905884,0.1344914585351944,-0.42907026410102844],[0.044773511588573456,-0.07199361175298691,-0.1361127644777298,0.059167180210351944,-0.3535279929637909,-0.08996188640594482,0.06828688830137253,-0.07204248011112213,-0.05487385764718056,0.5125719308853149,-0.13869822025299072,0.004549086093902588,0.16266174614429474,0.2595447599887848,0.10722034424543381,0.22170011699199677,-0.060748107731342316,0.0494292750954628,-0.1217193603515625,-0.19120843708515167,-0.06799667328596115,-0.12530387938022614,-0.00830249022692442,0.03839496895670891,0.06034574657678604,-0.24622100591659546,-0.0956754982471466,-0.17590025067329407,0.1539677083492279,-0.01774384081363678,-0.22085773944854736,0.3318832814693451],[-0.019761603325605392,0.7739978432655334,-0.5878522992134094,0.08608151972293854,0.5099033713340759,-0.2143678367137909,-0.7109383344650269,-0.7720076441764832,-0.5864955186843872,0.0400739386677742,0.5845787525177002,0.05295473337173462,0.4426107704639435,0.40059080719947815,0.7323550581932068,-0.24322427809238434,0.4017638564109802,0.5039380788803101,-0.23050884902477264,-0.31733238697052,0.21773241460323334,0.5700629353523254,0.11305966973304749,0.2004559189081192,-0.565805971622467,0.2132708579301834,0.5792429447174072,0.23262369632720947,0.534114420413971,0.2632196545600891,0.03965147212147713,-0.1030610129237175],[0.06630635261535645,-0.14559006690979004,-0.02088254690170288,0.020907878875732422,0.05899381637573242,0.17222976684570312,-0.10997867584228516,-0.00613248348236084,-0.17167282104492188,-0.05036795139312744,0.017392873764038086,0.09279567003250122,-0.19149982929229736,-0.2455596923828125,0.13669204711914062,-0.04710596799850464,-0.1409505009651184,0.10574525594711304,-0.22584658861160278,0.19846409559249878,-0.01755666732788086,-0.11022019386291504,0.04397457838058472,-0.17797166109085083,-0.20773756504058838,0.05511069297790527,0.0657837986946106,0.22629165649414062,-0.07847768068313599,0.043800413608551025,0.2358415722846985,0.13046467304229736],[0.13312754034996033,0.09769322723150253,0.004888202529400587,0.21342600882053375,-0.1096387580037117,-0.1665433794260025,0.21008102595806122,-0.1746424436569214,0.08115461468696594,-0.3017895817756653,0.18094907701015472,-0.2354554533958435,0.06991153210401535,-0.08390810340642929,0.051551006734371185,0.1818224936723709,0.026810377836227417,0.06027325987815857,-0.05652633681893349,0.18513202667236328,0.03158159181475639,-0.17905910313129425,-0.16985121369361877,-0.2995055317878723,0.22539426386356354,-0.351020872592926,0.21738030016422272,-0.12312793731689453,-0.18222838640213013,-0.21828164160251617,0.1840221881866455,-0.16560566425323486],[-0.22362112998962402,0.05244302749633789,0.1138845682144165,0.18370002508163452,0.07195776700973511,-0.09522420167922974,0.029333293437957764,0.14763778448104858,-0.18435198068618774,-0.058583199977874756,0.16033661365509033,0.20359140634536743,-0.13559222221374512,0.14755892753601074,-0.06012308597564697,0.016198396682739258,0.20700615644454956,-0.02221059799194336,0.16771239042282104,0.1540776491165161,0.1729249358177185,-0.0577353835105896,0.18046855926513672,-0.1860598921775818,-0.08861994743347168,-0.07525509595870972,-0.024853408336639404,0.11032211780548096,0.018502473831176758,0.21285146474838257,0.03504890203475952,0.09728598594665527],[0.17269113659858704,0.03182576224207878,0.1651654988527298,0.028580160811543465,-0.17218106985092163,-0.003369047539308667,0.10883123427629471,0.17322036623954773,-0.008880051784217358,0.18989716470241547,0.10106771439313889,0.03031367063522339,-0.4889858067035675,-0.1872846484184265,-0.10501240938901901,-0.2055910974740982,0.18502923846244812,0.19545966386795044,-0.07959023118019104,-0.016165126115083694,-0.16068962216377258,0.040856365114450455,-0.024895694106817245,0.09744399785995483,0.18131296336650848,-0.20778164267539978,0.09112831950187683,0.0068886782974004745,0.2843938171863556,0.23107390105724335,-0.10596558451652527,-0.20578637719154358],[0.0708133727312088,0.20564590394496918,0.24078050255775452,0.1898559182882309,0.19531284272670746,-0.1532692015171051,-0.2707141041755676,0.2003527581691742,-0.1516343355178833,0.16416503489017487,0.16708441078662872,-0.042844049632549286,-0.4103057086467743,0.026966270059347153,0.18552979826927185,0.01624637097120285,0.14824387431144714,-0.2912016212940216,-0.1596008688211441,-0.12423504889011383,0.12640513479709625,0.18470041453838348,-0.14002442359924316,0.03511100634932518,0.10255502909421921,-0.13781142234802246,-0.21184255182743073,0.20539811253547668,-0.1208394318819046,0.11330556124448776,0.07199607789516449,-0.09308628737926483],[0.12639129161834717,0.08068126440048218,-0.2135419249534607,0.23972570896148682,0.24990642070770264,-0.21982848644256592,-0.1352919340133667,-0.1679183840751648,0.023877978324890137,0.05293065309524536,-0.24369406700134277,-0.1023106575012207,-0.15669035911560059,-0.05048537254333496,0.11112642288208008,0.044888973236083984,0.24000221490859985,0.11154693365097046,0.049840450286865234,0.06647074222564697,0.17451488971710205,-0.20411688089370728,0.05616503953933716,0.007922887802124023,0.041663289070129395,-0.16953396797180176,0.11521798372268677,0.04496210813522339,0.08174461126327515,-0.2354455590248108,-0.23254746198654175,-0.027375400066375732],[-0.059617165476083755,0.16662922501564026,0.0005261486512608826,-0.09306636452674866,-0.07893812656402588,-0.11988353729248047,-0.20240727066993713,-0.1650834083557129,0.054771434515714645,0.1431950181722641,-0.05315128713846207,-0.16500383615493774,-0.04034703969955444,-0.17797473073005676,0.1569421887397766,0.21057361364364624,-0.21854440867900848,-0.040170200169086456,0.08668321371078491,0.08223369717597961,0.1426842361688614,0.0011906513245776296,0.11551533639431,0.035536110401153564,0.16889378428459167,0.2080153226852417,-0.16593867540359497,0.21152447164058685,0.16409671306610107,-0.19002249836921692,0.05123274400830269,0.13906176388263702],[-0.5075716972351074,0.7605177164077759,-0.4879195988178253,0.19581164419651031,-0.6541942954063416,0.15108364820480347,-0.23474690318107605,-0.5577090382575989,-0.5371845960617065,0.969204843044281,0.502947211265564,-0.031232178211212158,0.14515383541584015,0.03864094614982605,0.24600598216056824,0.9424724578857422,-0.39539676904678345,-0.39735233783721924,-0.16092678904533386,-0.09629631787538528,0.3749449849128723,0.23836667835712433,-0.5346204042434692,0.43287500739097595,-0.17397236824035645,0.1680045872926712,0.7814143300056458,-0.6458178758621216,0.2408379167318344,0.7818607687950134,-0.23544183373451233,-0.2828626036643982],[0.2198535054922104,-0.15218794345855713,-0.1367345005273819,-0.08910858631134033,-0.23326334357261658,-0.2138870358467102,-0.2184150367975235,-0.09655004739761353,0.2833477556705475,-0.0572277270257473,0.06465393304824829,-0.22703027725219727,0.25167781114578247,-0.16250087320804596,0.019124433398246765,0.21696658432483673,-0.19749732315540314,-0.23650194704532623,-0.12204468250274658,-0.261808305978775,0.15255951881408691,0.06912126392126083,0.09014596045017242,-0.2347041219472885,-0.2694801390171051,-0.1715315580368042,0.17909544706344604,0.22017161548137665,-0.19372645020484924,0.20391961932182312,0.10512018203735352,0.1175331324338913],[0.17373979091644287,0.12786775827407837,0.2466781735420227,-0.22927355766296387,-0.08392775058746338,0.24704819917678833,0.01162654161453247,-0.0848265290260315,-0.02097100019454956,0.1387619972229004,-0.24783837795257568,0.07544320821762085,0.2220442295074463,0.037171006202697754,-0.19595402479171753,0.12340456247329712,0.10542112588882446,0.0383073091506958,-0.0699734091758728,0.1351773738861084,0.18616801500320435,-0.0833006501197815,0.15281957387924194,0.015979468822479248,-0.0726972222328186,0.22877997159957886,0.07973724603652954,0.027410149574279785,-0.1567249894142151,-0.01084965467453003,0.21118730306625366,-0.07461053133010864],[-0.031516849994659424,-0.024722695350646973,-0.09505593776702881,0.1580263376235962,-0.22786283493041992,0.11399829387664795,-0.20504796504974365,-0.23871207237243652,-0.0719260573387146,-0.03139162063598633,0.059930264949798584,-0.09410077333450317,0.24908757209777832,0.10923320055007935,-0.02585458755493164,-0.20984554290771484,0.1629670262336731,-0.041915833950042725,0.13434118032455444,-0.028945624828338623,-0.23143744468688965,-0.060026466846466064,0.044148147106170654,-0.22212862968444824,0.2494220733642578,0.08568316698074341,-0.24576079845428467,0.04407835006713867,-0.04912024736404419,0.0583760142326355,-0.13781744241714478,-0.01971358060836792],[-0.3354510962963104,0.1770913302898407,-0.29504361748695374,0.14476323127746582,-0.1843283772468567,-0.22336310148239136,-0.21740557253360748,-0.2637481391429901,-0.17118701338768005,0.0698675587773323,0.3446577787399292,0.2429208755493164,0.34045231342315674,0.07366828620433807,0.3502933382987976,0.17842760682106018,0.16500481963157654,-0.06891096383333206,-0.16525375843048096,0.10206872224807739,-0.081901416182518,0.11171923577785492,-0.15158486366271973,-0.27451860904693604,-0.4537556767463684,0.04802682250738144,-0.16187883913516998,0.23238062858581543,0.07449378818273544,-0.10693325847387314,-0.03746771812438965,0.2876422703266144],[-0.1237863153219223,-0.1595090627670288,0.19822275638580322,-0.001153225195594132,-0.003737480379641056,0.19778601825237274,-0.21103152632713318,0.20613938570022583,0.1032431423664093,0.09758654981851578,0.2294888198375702,0.052361585199832916,-0.7542111277580261,-0.020162032917141914,-0.0915941447019577,0.14688873291015625,0.26318201422691345,0.02771807834506035,-0.24657128751277924,-0.07769370079040527,0.22846117615699768,0.26204267144203186,0.24881544709205627,-0.026713622733950615,0.08163914829492569,-0.3025262653827667,0.2535568177700043,0.12421451508998871,-0.008043709211051464,0.08419744670391083,-0.13271428644657135,0.06879596412181854],[0.20467641949653625,0.19838230311870575,-0.13646098971366882,0.01526279840618372,-0.07915621995925903,-0.050477560609579086,-0.05962946638464928,0.23820848762989044,0.11244884133338928,-0.1153203547000885,0.10875009745359421,0.05179303511977196,0.13258810341358185,-0.024085810407996178,0.1433819979429245,-0.17409853637218475,-0.20180575549602509,0.13891957700252533,0.16552242636680603,0.1306525617837906,0.13318093121051788,-0.15833723545074463,-0.12659871578216553,-0.14320851862430573,-0.269691526889801,0.015104412101209164,0.1030903309583664,-0.20863506197929382,0.15333352982997894,-0.07445049285888672,-0.1448877602815628,0.2099359929561615],[0.10702228546142578,-0.32782304286956787,0.10040967166423798,-0.1757156401872635,0.5518414974212646,-0.24943843483924866,0.5126194357872009,0.32975757122039795,0.055738724768161774,-0.34559401869773865,-0.3317950367927551,-0.16415955126285553,-0.0020381100475788116,0.16555030643939972,0.08413152396678925,-0.5935855507850647,0.082109235227108,0.16427679359912872,0.10491330921649933,-0.1519685685634613,-0.07698990404605865,-0.16085144877433777,-0.06881329417228699,0.32865700125694275,0.1433480679988861,-0.1360788494348526,-0.3120190501213074,0.11218982934951782,-0.07299987971782684,-0.4279823303222656,0.22296178340911865,-0.6175050735473633],[0.09093506634235382,-0.01301530096679926,0.10159963369369507,-0.11365088820457458,0.1494797170162201,-0.1656806915998459,-0.30800917744636536,0.08049330860376358,0.3194408416748047,0.35178887844085693,-0.09003116935491562,-0.1369260549545288,-0.2996118366718292,0.17428888380527496,0.098823681473732,0.2545772194862366,0.15388907492160797,0.18440207839012146,-0.16018396615982056,-0.2888251841068268,0.059508368372917175,0.10604541748762131,0.09191577136516571,0.005359714850783348,-0.26659148931503296,-0.33082976937294006,0.24458307027816772,0.23270538449287415,0.08343896269798279,-0.27545544505119324,0.19627723097801208,0.3657059669494629],[-0.06711968034505844,-0.11876154690980911,0.010619900189340115,0.2389640510082245,-0.2443002611398697,-0.11696077883243561,0.07204591482877731,0.186052143573761,-0.0327528640627861,-0.3969953954219818,0.09149502962827682,-0.08088714629411697,0.19113996624946594,0.16117051243782043,-0.2250112146139145,-0.335543155670166,-0.0310882069170475,0.008827214129269123,0.12259913980960846,-0.014185655862092972,-0.030638352036476135,0.19134628772735596,0.03769891336560249,0.00410874979570508,0.015686742961406708,0.0603683702647686,0.033208947628736496,-0.30666103959083557,-0.1274579018354416,0.09506989270448685,0.20457927882671356,-0.3547844886779785],[0.12335669994354248,0.13738447427749634,0.10454929620027542,0.2351934313774109,-0.03044724650681019,-0.036673806607723236,0.24435025453567505,-0.09159624576568604,0.1517019420862198,-0.653443455696106,0.20830942690372467,-0.13919509947299957,-0.15376383066177368,0.1012733057141304,-0.19221839308738708,-0.18973571062088013,-0.04637337476015091,0.12755778431892395,-0.08801894634962082,-0.21631154417991638,0.10122210532426834,0.05821846053004265,0.2084845006465912,-0.33574000000953674,0.07173723727464676,-0.24351374804973602,0.21097497642040253,0.15614180266857147,-0.0392446294426918,-0.22626309096813202,0.2564132511615753,-0.013345315121114254],[0.10434390604496002,-0.08437632769346237,-0.1842251569032669,0.10041559487581253,-0.08481685072183609,-0.1835651397705078,-0.04165492206811905,0.20159398019313812,0.07136011868715286,-0.03044310212135315,0.17090241611003876,-0.18069767951965332,0.06950530409812927,0.07349301874637604,0.0167302954941988,-0.12636220455169678,0.01040602382272482,0.17272241413593292,-0.23225629329681396,-0.08983846753835678,0.20587752759456635,0.1941053569316864,-0.011281865648925304,-0.23667368292808533,0.1684006303548813,-0.23647217452526093,0.12734442949295044,0.25671929121017456,0.09603772312402725,0.056879546493291855,-0.045055195689201355,-0.19667887687683105],[-0.2124156951904297,-0.019771814346313477,-0.022731781005859375,0.1841675043106079,0.15143698453903198,-0.2314015030860901,0.17314904928207397,0.05874764919281006,-0.19974255561828613,-0.24579662084579468,0.15326249599456787,0.23655229806900024,0.14201849699020386,0.08052057027816772,-0.242264986038208,-0.10178160667419434,0.015607714653015137,-0.048281729221343994,-0.2175074815750122,-0.08755803108215332,-0.15984487533569336,0.1469278335571289,-0.06374263763427734,-0.243147075176239,0.16160088777542114,-0.24325472116470337,-0.23819845914840698,-0.07078087329864502,0.10793161392211914,-0.04961782693862915,0.074687659740448,-0.02424943447113037],[-0.24590027332305908,0.036856234073638916,0.24065005779266357,-0.18241000175476074,-0.1708967685699463,-0.20727670192718506,0.043762266635894775,-0.07988792657852173,0.14327502250671387,-0.09511274099349976,0.11600124835968018,-0.07403749227523804,-0.06357824802398682,-0.1105189323425293,0.13120144605636597,0.2401331067085266,0.03729432821273804,0.09056669473648071,-0.18733584880828857,-0.01448357105255127,-0.017945587635040283,0.1627604365348816,0.19653093814849854,-0.21937978267669678,0.10867208242416382,-0.039151787757873535,-0.01459050178527832,-0.19003576040267944,0.15391409397125244,-0.02094709873199463,-0.1944149136543274,0.11433321237564087],[-0.024750767275691032,0.1810406595468521,0.13584701716899872,-0.21575357019901276,0.24181094765663147,0.010413402691483498,-0.17545783519744873,-0.10039820522069931,0.3595643639564514,0.10405899584293365,-0.2261197865009308,-0.12441462278366089,-0.45485055446624756,-0.17386792600154877,-0.22304080426692963,-0.04012172669172287,-0.2551653981208801,0.0003643326344899833,0.24969154596328735,-0.08785299956798553,-0.022151505574584007,-0.17440232634544373,0.20106585323810577,-0.0588577501475811,-0.23627611994743347,0.22353225946426392,-0.1689479500055313,0.012781471014022827,0.1644439548254013,0.040919918566942215,-0.19783170521259308,-0.06337866932153702],[-0.32897281646728516,0.6803408265113831,0.3891414403915405,-0.11730699986219406,0.24707630276679993,0.165226012468338,0.574905276298523,0.3372747600078583,-0.23285497725009918,0.1484261304140091,0.09995570778846741,0.03637045621871948,-0.10631624609231949,0.9708445072174072,1.1817190647125244,-0.25319477915763855,0.8286954164505005,0.5628765821456909,0.0843973159790039,0.0016097597545012832,0.028506305068731308,0.5494480133056641,0.1976037323474884,0.18949894607067108,-0.45095404982566833,0.25455382466316223,0.26056164503097534,0.313571959733963,0.9380624294281006,0.021240975707769394,0.05137919262051582,-0.12894541025161743],[-0.24205970764160156,0.20528686046600342,0.22518372535705566,0.1932317018508911,0.0384516716003418,-0.09943234920501709,-0.13010698556900024,0.07252031564712524,-0.0851256251335144,-0.22536081075668335,0.2263716459274292,-0.1921817660331726,0.21286940574645996,-0.027591288089752197,-0.07911884784698486,-0.2076752781867981,-0.09923911094665527,0.04643017053604126,0.11801362037658691,0.2408345341682434,-0.016286075115203857,-0.04280745983123779,0.09381097555160522,-0.23691970109939575,0.04396700859069824,-0.012998819351196289,-0.021495282649993896,0.065407395362854,-0.16386669874191284,-0.11435180902481079,-0.23440170288085938,-0.20518386363983154],[0.02921166829764843,-0.010597874410450459,0.23106007277965546,-0.0552312508225441,0.02746235392987728,-0.04802428558468819,0.13760247826576233,-0.061950329691171646,-0.12702234089374542,-0.21590572595596313,-0.178306445479393,-0.14001770317554474,-0.1154511421918869,0.1870090216398239,0.10326341539621353,0.10806401073932648,0.11686928570270538,-0.060627058148384094,-0.20393067598342896,-0.04251929372549057,0.06448229402303696,-0.2466980665922165,-0.07256938517093658,-0.027539480477571487,0.060802046209573746,-0.13030873239040375,0.24151773750782013,-0.04380866140127182,0.1921299248933792,0.19189132750034332,-0.22718487679958344,0.13348133862018585],[0.37120458483695984,0.05467022955417633,0.016209308058023453,0.0777948871254921,0.5332576036453247,0.09267257899045944,0.3462367653846741,-0.09016802906990051,0.10985532402992249,-0.13925127685070038,-0.2558383643627167,0.06318151950836182,-0.2323913276195526,-0.4668811559677124,-0.34182995557785034,-0.46425461769104004,-0.18086105585098267,-0.2087034285068512,0.013310995884239674,0.09328481554985046,-0.17444802820682526,-0.00733973691239953,-0.09230024367570877,0.324990451335907,0.5983532071113586,0.3135518729686737,-0.047995440661907196,0.17293815314769745,-0.0786309614777565,-0.026148825883865356,0.048588380217552185,-0.3109799027442932],[0.1413602977991104,0.23279808461666107,0.07254025340080261,-0.18949007987976074,0.16125738620758057,0.1575995683670044,-0.07450860738754272,-0.11053768545389175,0.19257789850234985,-0.14902299642562866,-0.08827084302902222,0.030972778797149658,-0.20579612255096436,0.049407195299863815,-0.202728733420372,-0.138289213180542,0.2504078447818756,-0.14799201488494873,0.03119635209441185,-0.15253078937530518,-0.09011178463697433,0.24859872460365295,0.12815147638320923,0.14992696046829224,0.21107670664787292,-0.22852985560894012,0.054813988506793976,0.2319992631673813,0.09915824234485626,0.002296926686540246,0.06626854091882706,-0.043175339698791504],[-0.23985257744789124,0.30466288328170776,-0.12270884215831757,0.006011759862303734,-0.010090794414281845,0.05926140770316124,0.21780411899089813,0.03808927908539772,-0.3066725730895996,0.056002404540777206,0.08553048223257065,-0.01908344030380249,0.17021147906780243,-0.19712810218334198,0.18812915682792664,0.2504633367061615,0.08077004551887512,0.09844954311847687,-0.1208762526512146,0.17987769842147827,0.10674352943897247,-0.027915962040424347,-0.354550302028656,-0.09546276181936264,0.12141555547714233,0.12473425269126892,-0.19416910409927368,0.0896340161561966,-0.15820610523223877,0.24648123979568481,-0.02025819756090641,0.1590564250946045],[0.3465256989002228,0.17419879138469696,0.39864784479141235,-0.014380061998963356,-0.1648932695388794,-0.04059858247637749,0.04244127497076988,0.38632234930992126,0.2848223149776459,0.47438910603523254,0.13535581529140472,-0.17427295446395874,-0.10194170475006104,0.5764637589454651,0.47977831959724426,-0.11063363403081894,0.4678076207637787,-0.4156084358692169,-0.06455395370721817,-0.4098787009716034,0.0811765119433403,-0.03705940023064613,-0.13640061020851135,0.058515775948762894,-0.4265412986278534,0.21723657846450806,0.001910984399728477,-0.2936458885669708,0.5795401334762573,-0.1094045490026474,0.24918468296527863,0.010432945564389229],[-0.16675212979316711,-0.05890476703643799,0.2615269720554352,-0.15392661094665527,0.07688393443822861,-0.0055640684440732,-0.20977666974067688,0.02799881249666214,-0.1423923373222351,-0.12341750413179398,-0.06954386830329895,0.1753234565258026,-0.39755797386169434,-0.027332862839102745,0.15832091867923737,-0.08471111953258514,0.18265961110591888,-0.2549343705177307,-0.21336019039154053,0.0696515291929245,0.22029384970664978,0.1537506878376007,0.0638694241642952,-0.12277652323246002,0.05033870041370392,-0.02967873029410839,-0.15367648005485535,0.07122471183538437,-0.06832888722419739,0.15043824911117554,-0.13117656111717224,-0.0887465700507164]],"bias":[-0.11624345183372498,0.17191608250141144,0.0487351268529892,0.03586593270301819,0.06253015249967575,-0.03144649416208267,-0.17775465548038483,-0.12803754210472107,-0.04593547806143761,-0.009437759406864643,0.1884036511182785,-0.03737470135092735,0.00007367070065811276,0.1642620712518692,0.21826593577861786,0.1547890603542328,0.12911051511764526,0.06899663060903549,-0.05676853656768799,-0.23956535756587982,0.1478426158428192,0.18655604124069214,-0.03221335634589195,-0.06349598616361618,-0.17727255821228027,-0.05850781127810478,0.17211942374706268,-0.06545153260231018,0.18779553472995758,0.08776606619358063,-0.01238483376801014,0.08207809180021286],"activation":"relu"},{"weights":[[-0.3348309099674225,0.03766704350709915,0.24867837131023407],[-0.1388707160949707,-0.2295326590538025,-0.43513908982276917],[-0.3126055598258972,0.12546151876449585,-0.4547179043292999],[0.15421240031719208,-0.24208945035934448,0.09149900078773499],[-1.3264753818511963,0.3907127380371094,0.5015173554420471],[-0.013365191407501698,0.12390777468681335,0.2084011435508728],[-0.17407138645648956,-0.06464364379644394,0.3198433518409729],[-0.052402064204216,0.27749425172805786,0.3503767251968384],[-0.20250825583934784,0.2904224693775177,0.5146036744117737],[0.9823894500732422,-0.8891372084617615,-0.20954188704490662],[0.29130223393440247,0.11193735897541046,-0.17735281586647034],[0.34334877133369446,-0.1635294109582901,0.2285725474357605],[-0.9188086986541748,0.6596936583518982,-1.1350167989730835],[0.18555401265621185,0.2793608009815216,-0.13150623440742493],[0.3764455020427704,0.37605127692222595,0.07496445626020432],[0.597370982170105,-0.9555667638778687,0.40027427673339844],[0.06699538230895996,0.13144823908805847,-0.14363165199756622],[0.21782423555850983,0.31670278310775757,0.11558786779642105],[-0.10726545751094818,0.25366175174713135,-0.26079636812210083],[-0.02698422409594059,-0.09737924486398697,0.18048404157161713],[0.20692192018032074,0.08116976916790009,-0.026806948706507683],[0.10027015954256058,0.00659249909222126,-0.3260965347290039],[-0.4275437891483307,0.18593332171440125,0.1763644814491272],[0.16540154814720154,-0.6910572052001953,-0.25445014238357544],[-0.3507651388645172,-0.37828201055526733,0.04181550443172455],[0.29044634103775024,-0.5236836671829224,-0.609425961971283],[0.2892685830593109,0.1619584709405899,-0.01709636114537716],[-0.39062103629112244,0.09993584454059601,0.1912129819393158],[0.3930702209472656,0.35971692204475403,-0.14513422548770905],[0.3773246705532074,0.08649984002113342,0.1823873072862625],[-0.3467094302177429,-0.0514155849814415,-0.24580712616443634],[0.664665937423706,-1.0018008947372437,0.18110570311546326]],"bias":[0.11701813340187073,-0.019971797242760658,-0.20235978066921234],"activation":"softmax"}],"name":"BNB Bull Agent","description":"Trained to detect buy signals on BNB price action","color":"#00bcd4","icon":"TrendingUp"}